digraph Tree {
node [shape=box] ;
0 [label="X[7] <= 431.82\ngini = 0.082\nsamples = 28313\nvalue = [27104, 1209]"] ;
1 [label="X[4] <= 31.5\ngini = 0.035\nsamples = 25363\nvalue = [24906, 457]"] ;
0 -> 1 [labeldistance=2.5, labelangle=45, headlabel="True"] ;
2 [label="X[8] <= 5.5\ngini = 0.017\nsamples = 22195\nvalue = [22007, 188]"] ;
1 -> 2 ;
3 [label="X[4] <= 0.5\ngini = 0.219\nsamples = 590\nvalue = [516, 74]"] ;
2 -> 3 ;
4 [label="gini = 0.5\nsamples = 125\nvalue = [64, 61]"] ;
3 -> 4 ;
5 [label="X[1] <= 6.41\ngini = 0.054\nsamples = 465\nvalue = [452, 13]"] ;
3 -> 5 ;
6 [label="X[2] <= 688.9\ngini = 0.015\nsamples = 395\nvalue = [392, 3]"] ;
5 -> 6 ;
7 [label="X[2] <= 510.47\ngini = 0.01\nsamples = 389\nvalue = [387, 2]"] ;
6 -> 7 ;
8 [label="X[6] <= 3.5\ngini = 0.006\nsamples = 362\nvalue = [361, 1]"] ;
7 -> 8 ;
9 [label="X[2] <= 58.075\ngini = 0.014\nsamples = 138\nvalue = [137, 1]"] ;
8 -> 9 ;
10 [label="gini = 0.0\nsamples = 127\nvalue = [127, 0]"] ;
9 -> 10 ;
11 [label="X[9] <= 0.5\ngini = 0.165\nsamples = 11\nvalue = [10, 1]"] ;
9 -> 11 ;
12 [label="gini = 0.0\nsamples = 1\nvalue = [1, 0]"] ;
11 -> 12 ;
13 [label="gini = 0.18\nsamples = 10\nvalue = [9, 1]"] ;
11 -> 13 ;
14 [label="gini = 0.0\nsamples = 224\nvalue = [224, 0]"] ;
8 -> 14 ;
15 [label="X[6] <= 28.88\ngini = 0.071\nsamples = 27\nvalue = [26, 1]"] ;
7 -> 15 ;
16 [label="gini = 0.0\nsamples = 1\nvalue = [0, 1]"] ;
15 -> 16 ;
17 [label="gini = 0.0\nsamples = 26\nvalue = [26, 0]"] ;
15 -> 17 ;
18 [label="X[0] <= 21.155\ngini = 0.278\nsamples = 6\nvalue = [5, 1]"] ;
6 -> 18 ;
19 [label="gini = 0.0\nsamples = 4\nvalue = [4, 0]"] ;
18 -> 19 ;
20 [label="gini = 0.5\nsamples = 2\nvalue = [1, 1]"] ;
18 -> 20 ;
21 [label="X[1] <= 6.425\ngini = 0.245\nsamples = 70\nvalue = [60, 10]"] ;
5 -> 21 ;
22 [label="gini = 0.0\nsamples = 2\nvalue = [0, 2]"] ;
21 -> 22 ;
23 [label="X[8] <= 2.5\ngini = 0.208\nsamples = 68\nvalue = [60, 8]"] ;
21 -> 23 ;
24 [label="gini = 0.0\nsamples = 36\nvalue = [36, 0]"] ;
23 -> 24 ;
25 [label="X[1] <= 6.905\ngini = 0.375\nsamples = 32\nvalue = [24, 8]"] ;
23 -> 25 ;
26 [label="gini = 0.0\nsamples = 2\nvalue = [0, 2]"] ;
25 -> 26 ;
27 [label="X[7] <= 112.86\ngini = 0.32\nsamples = 30\nvalue = [24, 6]"] ;
25 -> 27 ;
28 [label="X[2] <= 847.455\ngini = 0.42\nsamples = 20\nvalue = [14, 6]"] ;
27 -> 28 ;
29 [label="X[4] <= 21.5\ngini = 0.219\nsamples = 16\nvalue = [14, 2]"] ;
28 -> 29 ;
30 [label="X[0] <= 8.25\ngini = 0.444\nsamples = 6\nvalue = [4, 2]"] ;
29 -> 30 ;
31 [label="gini = 0.0\nsamples = 4\nvalue = [4, 0]"] ;
30 -> 31 ;
32 [label="gini = 0.0\nsamples = 2\nvalue = [0, 2]"] ;
30 -> 32 ;
33 [label="gini = 0.0\nsamples = 10\nvalue = [10, 0]"] ;
29 -> 33 ;
34 [label="gini = 0.0\nsamples = 4\nvalue = [0, 4]"] ;
28 -> 34 ;
35 [label="gini = 0.0\nsamples = 10\nvalue = [10, 0]"] ;
27 -> 35 ;
36 [label="X[4] <= 24.5\ngini = 0.01\nsamples = 21605\nvalue = [21491, 114]"] ;
2 -> 36 ;
37 [label="X[8] <= 6.5\ngini = 0.008\nsamples = 20899\nvalue = [20811, 88]"] ;
36 -> 37 ;
38 [label="X[0] <= 17.365\ngini = 0.072\nsamples = 269\nvalue = [259, 10]"] ;
37 -> 38 ;
39 [label="X[0] <= 11.03\ngini = 0.017\nsamples = 230\nvalue = [228, 2]"] ;
38 -> 39 ;
40 [label="gini = 0.0\nsamples = 141\nvalue = [141, 0]"] ;
39 -> 40 ;
41 [label="X[0] <= 11.11\ngini = 0.044\nsamples = 89\nvalue = [87, 2]"] ;
39 -> 41 ;
42 [label="gini = 0.0\nsamples = 1\nvalue = [0, 1]"] ;
41 -> 42 ;
43 [label="X[7] <= 68.32\ngini = 0.022\nsamples = 88\nvalue = [87, 1]"] ;
41 -> 43 ;
44 [label="gini = 0.0\nsamples = 61\nvalue = [61, 0]"] ;
43 -> 44 ;
45 [label="X[6] <= 18.64\ngini = 0.071\nsamples = 27\nvalue = [26, 1]"] ;
43 -> 45 ;
46 [label="X[4] <= 19.5\ngini = 0.5\nsamples = 2\nvalue = [1, 1]"] ;
45 -> 46 ;
47 [label="gini = 0.0\nsamples = 1\nvalue = [0, 1]"] ;
46 -> 47 ;
48 [label="gini = 0.0\nsamples = 1\nvalue = [1, 0]"] ;
46 -> 48 ;
49 [label="gini = 0.0\nsamples = 25\nvalue = [25, 0]"] ;
45 -> 49 ;
50 [label="X[3] <= 0.015\ngini = 0.326\nsamples = 39\nvalue = [31, 8]"] ;
38 -> 50 ;
51 [label="gini = 0.198\nsamples = 9\nvalue = [1, 8]"] ;
50 -> 51 ;
52 [label="gini = 0.0\nsamples = 30\nvalue = [30, 0]"] ;
50 -> 52 ;
53 [label="X[1] <= 1.9\ngini = 0.008\nsamples = 20630\nvalue = [20552, 78]"] ;
37 -> 53 ;
54 [label="X[4] <= 0.5\ngini = 0.003\nsamples = 13074\nvalue = [13053, 21]"] ;
53 -> 54 ;
55 [label="X[9] <= 1.5\ngini = 0.034\nsamples = 744\nvalue = [731, 13]"] ;
54 -> 55 ;
56 [label="gini = 0.0\nsamples = 122\nvalue = [122, 0]"] ;
55 -> 56 ;
57 [label="gini = 0.041\nsamples = 622\nvalue = [609, 13]"] ;
55 -> 57 ;
58 [label="X[4] <= 8.5\ngini = 0.001\nsamples = 12330\nvalue = [12322, 8]"] ;
54 -> 58 ;
59 [label="X[2] <= 17.025\ngini = 0.001\nsamples = 12081\nvalue = [12074, 7]"] ;
58 -> 59 ;
60 [label="X[7] <= 1.0\ngini = 0.001\nsamples = 10836\nvalue = [10831, 5]"] ;
59 -> 60 ;
61 [label="X[9] <= 1.5\ngini = 0.002\nsamples = 2487\nvalue = [2485, 2]"] ;
60 -> 61 ;
62 [label="gini = 0.0\nsamples = 245\nvalue = [245, 0]"] ;
61 -> 62 ;
63 [label="gini = 0.002\nsamples = 2242\nvalue = [2240, 2]"] ;
61 -> 63 ;
64 [label="X[2] <= 11.945\ngini = 0.001\nsamples = 8349\nvalue = [8346, 3]"] ;
60 -> 64 ;
65 [label="gini = 0.0\nsamples = 3331\nvalue = [3331, 0]"] ;
64 -> 65 ;
66 [label="X[9] <= 1.5\ngini = 0.001\nsamples = 5018\nvalue = [5015, 3]"] ;
64 -> 66 ;
67 [label="gini = 0.0\nsamples = 740\nvalue = [740, 0]"] ;
66 -> 67 ;
68 [label="X[4] <= 5.5\ngini = 0.001\nsamples = 4278\nvalue = [4275, 3]"] ;
66 -> 68 ;
69 [label="gini = 0.001\nsamples = 4276\nvalue = [4273, 3]"] ;
68 -> 69 ;
70 [label="gini = 0.0\nsamples = 2\nvalue = [2, 0]"] ;
68 -> 70 ;
71 [label="X[8] <= 7.5\ngini = 0.003\nsamples = 1245\nvalue = [1243, 2]"] ;
59 -> 71 ;
72 [label="X[2] <= 17.75\ngini = 0.009\nsamples = 212\nvalue = [211, 1]"] ;
71 -> 72 ;
73 [label="gini = 0.01\nsamples = 193\nvalue = [192, 1]"] ;
72 -> 73 ;
74 [label="gini = 0.0\nsamples = 19\nvalue = [19, 0]"] ;
72 -> 74 ;
75 [label="X[9] <= 1.5\ngini = 0.002\nsamples = 1033\nvalue = [1032, 1]"] ;
71 -> 75 ;
76 [label="gini = 0.0\nsamples = 15\nvalue = [15, 0]"] ;
75 -> 76 ;
77 [label="X[4] <= 6.0\ngini = 0.002\nsamples = 1018\nvalue = [1017, 1]"] ;
75 -> 77 ;
78 [label="gini = 0.002\nsamples = 1017\nvalue = [1016, 1]"] ;
77 -> 78 ;
79 [label="gini = 0.0\nsamples = 1\nvalue = [1, 0]"] ;
77 -> 79 ;
80 [label="X[1] <= 0.315\ngini = 0.008\nsamples = 249\nvalue = [248, 1]"] ;
58 -> 80 ;
81 [label="gini = 0.023\nsamples = 85\nvalue = [84, 1]"] ;
80 -> 81 ;
82 [label="gini = 0.0\nsamples = 164\nvalue = [164, 0]"] ;
80 -> 82 ;
83 [label="X[0] <= 2.255\ngini = 0.015\nsamples = 7556\nvalue = [7499, 57]"] ;
53 -> 83 ;
84 [label="X[7] <= 10.5\ngini = 0.346\nsamples = 9\nvalue = [7, 2]"] ;
83 -> 84 ;
85 [label="gini = 0.5\nsamples = 2\nvalue = [1, 1]"] ;
84 -> 85 ;
86 [label="X[0] <= 2.16\ngini = 0.245\nsamples = 7\nvalue = [6, 1]"] ;
84 -> 86 ;
87 [label="X[7] <= 14.5\ngini = 0.444\nsamples = 3\nvalue = [2, 1]"] ;
86 -> 87 ;
88 [label="gini = 0.0\nsamples = 1\nvalue = [0, 1]"] ;
87 -> 88 ;
89 [label="gini = 0.0\nsamples = 2\nvalue = [2, 0]"] ;
87 -> 89 ;
90 [label="gini = 0.0\nsamples = 4\nvalue = [4, 0]"] ;
86 -> 90 ;
91 [label="X[8] <= 7.5\ngini = 0.014\nsamples = 7547\nvalue = [7492, 55]"] ;
83 -> 91 ;
92 [label="X[1] <= 4.44\ngini = 0.002\nsamples = 2920\nvalue = [2917, 3]"] ;
91 -> 92 ;
93 [label="gini = 0.0\nsamples = 2177\nvalue = [2177, 0]"] ;
92 -> 93 ;
94 [label="X[1] <= 4.585\ngini = 0.008\nsamples = 743\nvalue = [740, 3]"] ;
92 -> 94 ;
95 [label="X[6] <= 7.875\ngini = 0.051\nsamples = 38\nvalue = [37, 1]"] ;
94 -> 95 ;
96 [label="gini = 0.071\nsamples = 27\nvalue = [26, 1]"] ;
95 -> 96 ;
97 [label="gini = 0.0\nsamples = 11\nvalue = [11, 0]"] ;
95 -> 97 ;
98 [label="X[0] <= 8.945\ngini = 0.006\nsamples = 705\nvalue = [703, 2]"] ;
94 -> 98 ;
99 [label="gini = 0.0\nsamples = 354\nvalue = [354, 0]"] ;
98 -> 99 ;
100 [label="X[0] <= 9.02\ngini = 0.011\nsamples = 351\nvalue = [349, 2]"] ;
98 -> 100 ;
101 [label="X[7] <= 62.735\ngini = 0.278\nsamples = 6\nvalue = [5, 1]"] ;
100 -> 101 ;
102 [label="gini = 0.32\nsamples = 5\nvalue = [4, 1]"] ;
101 -> 102 ;
103 [label="gini = 0.0\nsamples = 1\nvalue = [1, 0]"] ;
101 -> 103 ;
104 [label="X[4] <= 18.5\ngini = 0.006\nsamples = 345\nvalue = [344, 1]"] ;
100 -> 104 ;
105 [label="gini = 0.0\nsamples = 202\nvalue = [202, 0]"] ;
104 -> 105 ;
106 [label="X[7] <= 71.005\ngini = 0.014\nsamples = 143\nvalue = [142, 1]"] ;
104 -> 106 ;
107 [label="X[1] <= 5.715\ngini = 0.18\nsamples = 10\nvalue = [9, 1]"] ;
106 -> 107 ;
108 [label="gini = 0.444\nsamples = 3\nvalue = [2, 1]"] ;
107 -> 108 ;
109 [label="gini = 0.0\nsamples = 7\nvalue = [7, 0]"] ;
107 -> 109 ;
110 [label="gini = 0.0\nsamples = 133\nvalue = [133, 0]"] ;
106 -> 110 ;
111 [label="X[1] <= 7.1\ngini = 0.022\nsamples = 4627\nvalue = [4575, 52]"] ;
91 -> 111 ;
112 [label="X[8] <= 9.5\ngini = 0.02\nsamples = 4554\nvalue = [4508, 46]"] ;
111 -> 112 ;
113 [label="X[2] <= 108.465\ngini = 0.068\nsamples = 484\nvalue = [467, 17]"] ;
112 -> 113 ;
114 [label="X[4] <= 10.5\ngini = 0.154\nsamples = 131\nvalue = [120, 11]"] ;
113 -> 114 ;
115 [label="X[0] <= 13.09\ngini = 0.071\nsamples = 108\nvalue = [104, 4]"] ;
114 -> 115 ;
116 [label="X[0] <= 9.28\ngini = 0.056\nsamples = 104\nvalue = [101, 3]"] ;
115 -> 116 ;
117 [label="X[0] <= 8.99\ngini = 0.105\nsamples = 54\nvalue = [51, 3]"] ;
116 -> 117 ;
118 [label="X[8] <= 8.5\ngini = 0.045\nsamples = 43\nvalue = [42, 1]"] ;
117 -> 118 ;
119 [label="X[1] <= 2.25\ngini = 0.091\nsamples = 21\nvalue = [20, 1]"] ;
118 -> 119 ;
120 [label="X[0] <= 6.775\ngini = 0.153\nsamples = 12\nvalue = [11, 1]"] ;
119 -> 120 ;
121 [label="gini = 0.0\nsamples = 4\nvalue = [4, 0]"] ;
120 -> 121 ;
122 [label="gini = 0.219\nsamples = 8\nvalue = [7, 1]"] ;
120 -> 122 ;
123 [label="gini = 0.0\nsamples = 9\nvalue = [9, 0]"] ;
119 -> 123 ;
124 [label="gini = 0.0\nsamples = 22\nvalue = [22, 0]"] ;
118 -> 124 ;
125 [label="X[6] <= 5.03\ngini = 0.298\nsamples = 11\nvalue = [9, 2]"] ;
117 -> 125 ;
126 [label="X[4] <= 8.0\ngini = 0.346\nsamples = 9\nvalue = [7, 2]"] ;
125 -> 126 ;
127 [label="X[8] <= 8.5\ngini = 0.245\nsamples = 7\nvalue = [6, 1]"] ;
126 -> 127 ;
128 [label="gini = 0.5\nsamples = 2\nvalue = [1, 1]"] ;
127 -> 128 ;
129 [label="gini = 0.0\nsamples = 5\nvalue = [5, 0]"] ;
127 -> 129 ;
130 [label="gini = 0.5\nsamples = 2\nvalue = [1, 1]"] ;
126 -> 130 ;
131 [label="gini = 0.0\nsamples = 2\nvalue = [2, 0]"] ;
125 -> 131 ;
132 [label="gini = 0.0\nsamples = 50\nvalue = [50, 0]"] ;
116 -> 132 ;
133 [label="X[7] <= 27.535\ngini = 0.375\nsamples = 4\nvalue = [3, 1]"] ;
115 -> 133 ;
134 [label="gini = 0.0\nsamples = 1\nvalue = [0, 1]"] ;
133 -> 134 ;
135 [label="gini = 0.0\nsamples = 3\nvalue = [3, 0]"] ;
133 -> 135 ;
136 [label="X[5] <= 0.41\ngini = 0.423\nsamples = 23\nvalue = [16, 7]"] ;
114 -> 136 ;
137 [label="X[0] <= 11.29\ngini = 0.496\nsamples = 11\nvalue = [6, 5]"] ;
136 -> 137 ;
138 [label="gini = 0.0\nsamples = 1\nvalue = [1, 0]"] ;
137 -> 138 ;
139 [label="X[4] <= 12.0\ngini = 0.5\nsamples = 10\nvalue = [5, 5]"] ;
137 -> 139 ;
140 [label="X[5] <= 0.39\ngini = 0.49\nsamples = 7\nvalue = [4, 3]"] ;
139 -> 140 ;
141 [label="X[5] <= 0.355\ngini = 0.48\nsamples = 5\nvalue = [2, 3]"] ;
140 -> 141 ;
142 [label="gini = 0.5\nsamples = 2\nvalue = [1, 1]"] ;
141 -> 142 ;
143 [label="gini = 0.444\nsamples = 3\nvalue = [1, 2]"] ;
141 -> 143 ;
144 [label="gini = 0.0\nsamples = 2\nvalue = [2, 0]"] ;
140 -> 144 ;
145 [label="X[8] <= 8.5\ngini = 0.444\nsamples = 3\nvalue = [1, 2]"] ;
139 -> 145 ;
146 [label="gini = 0.0\nsamples = 2\nvalue = [0, 2]"] ;
145 -> 146 ;
147 [label="gini = 0.0\nsamples = 1\nvalue = [1, 0]"] ;
145 -> 147 ;
148 [label="X[8] <= 8.5\ngini = 0.278\nsamples = 12\nvalue = [10, 2]"] ;
136 -> 148 ;
149 [label="gini = 0.0\nsamples = 7\nvalue = [7, 0]"] ;
148 -> 149 ;
150 [label="X[0] <= 16.965\ngini = 0.48\nsamples = 5\nvalue = [3, 2]"] ;
148 -> 150 ;
151 [label="gini = 0.5\nsamples = 2\nvalue = [1, 1]"] ;
150 -> 151 ;
152 [label="X[2] <= 79.87\ngini = 0.444\nsamples = 3\nvalue = [2, 1]"] ;
150 -> 152 ;
153 [label="gini = 0.0\nsamples = 1\nvalue = [1, 0]"] ;
152 -> 153 ;
154 [label="gini = 0.5\nsamples = 2\nvalue = [1, 1]"] ;
152 -> 154 ;
155 [label="X[0] <= 13.875\ngini = 0.033\nsamples = 353\nvalue = [347, 6]"] ;
113 -> 155 ;
156 [label="gini = 0.0\nsamples = 187\nvalue = [187, 0]"] ;
155 -> 156 ;
157 [label="X[0] <= 13.92\ngini = 0.07\nsamples = 166\nvalue = [160, 6]"] ;
155 -> 157 ;
158 [label="gini = 0.0\nsamples = 1\nvalue = [0, 1]"] ;
157 -> 158 ;
159 [label="X[0] <= 17.1\ngini = 0.059\nsamples = 165\nvalue = [160, 5]"] ;
157 -> 159 ;
160 [label="X[0] <= 16.265\ngini = 0.11\nsamples = 86\nvalue = [81, 5]"] ;
159 -> 160 ;
161 [label="X[2] <= 191.24\ngini = 0.03\nsamples = 65\nvalue = [64, 1]"] ;
160 -> 161 ;
162 [label="X[6] <= 10.265\ngini = 0.133\nsamples = 14\nvalue = [13, 1]"] ;
161 -> 162 ;
163 [label="gini = 0.0\nsamples = 10\nvalue = [10, 0]"] ;
162 -> 163 ;
164 [label="X[8] <= 8.5\ngini = 0.375\nsamples = 4\nvalue = [3, 1]"] ;
162 -> 164 ;
165 [label="gini = 0.0\nsamples = 2\nvalue = [2, 0]"] ;
164 -> 165 ;
166 [label="gini = 0.5\nsamples = 2\nvalue = [1, 1]"] ;
164 -> 166 ;
167 [label="gini = 0.0\nsamples = 51\nvalue = [51, 0]"] ;
161 -> 167 ;
168 [label="X[4] <= 20.5\ngini = 0.308\nsamples = 21\nvalue = [17, 4]"] ;
160 -> 168 ;
169 [label="X[0] <= 16.555\ngini = 0.391\nsamples = 15\nvalue = [11, 4]"] ;
168 -> 169 ;
170 [label="X[4] <= 18.5\ngini = 0.444\nsamples = 3\nvalue = [1, 2]"] ;
169 -> 170 ;
171 [label="gini = 0.5\nsamples = 2\nvalue = [1, 1]"] ;
170 -> 171 ;
172 [label="gini = 0.0\nsamples = 1\nvalue = [0, 1]"] ;
170 -> 172 ;
173 [label="X[2] <= 349.93\ngini = 0.278\nsamples = 12\nvalue = [10, 2]"] ;
169 -> 173 ;
174 [label="X[2] <= 236.825\ngini = 0.18\nsamples = 10\nvalue = [9, 1]"] ;
173 -> 174 ;
175 [label="X[5] <= 0.31\ngini = 0.32\nsamples = 5\nvalue = [4, 1]"] ;
174 -> 175 ;
176 [label="X[8] <= 8.5\ngini = 0.5\nsamples = 2\nvalue = [1, 1]"] ;
175 -> 176 ;
177 [label="gini = 0.0\nsamples = 1\nvalue = [0, 1]"] ;
176 -> 177 ;
178 [label="gini = 0.0\nsamples = 1\nvalue = [1, 0]"] ;
176 -> 178 ;
179 [label="gini = 0.0\nsamples = 3\nvalue = [3, 0]"] ;
175 -> 179 ;
180 [label="gini = 0.0\nsamples = 5\nvalue = [5, 0]"] ;
174 -> 180 ;
181 [label="gini = 0.5\nsamples = 2\nvalue = [1, 1]"] ;
173 -> 181 ;
182 [label="gini = 0.0\nsamples = 6\nvalue = [6, 0]"] ;
168 -> 182 ;
183 [label="gini = 0.0\nsamples = 79\nvalue = [79, 0]"] ;
159 -> 183 ;
184 [label="X[2] <= 564.195\ngini = 0.014\nsamples = 4070\nvalue = [4041, 29]"] ;
112 -> 184 ;
185 [label="X[2] <= 119.795\ngini = 0.014\nsamples = 4068\nvalue = [4040, 28]"] ;
184 -> 185 ;
186 [label="X[2] <= 118.295\ngini = 0.024\nsamples = 2102\nvalue = [2076, 26]"] ;
185 -> 186 ;
187 [label="X[1] <= 3.165\ngini = 0.021\nsamples = 2094\nvalue = [2072, 22]"] ;
186 -> 187 ;
188 [label="X[0] <= 9.025\ngini = 0.019\nsamples = 2065\nvalue = [2045, 20]"] ;
187 -> 188 ;
189 [label="X[0] <= 6.375\ngini = 0.009\nsamples = 1165\nvalue = [1160, 5]"] ;
188 -> 189 ;
190 [label="X[7] <= 11.35\ngini = 0.04\nsamples = 148\nvalue = [145, 3]"] ;
189 -> 190 ;
191 [label="gini = 0.0\nsamples = 3\nvalue = [3, 0]"] ;
190 -> 191 ;
192 [label="X[2] <= 27.285\ngini = 0.041\nsamples = 145\nvalue = [142, 3]"] ;
190 -> 192 ;
193 [label="gini = 0.044\nsamples = 44\nvalue = [43, 1]"] ;
192 -> 193 ;
194 [label="X[6] <= 1.945\ngini = 0.039\nsamples = 101\nvalue = [99, 2]"] ;
192 -> 194 ;
195 [label="gini = 0.0\nsamples = 1\nvalue = [1, 0]"] ;
194 -> 195 ;
196 [label="gini = 0.039\nsamples = 100\nvalue = [98, 2]"] ;
194 -> 196 ;
197 [label="X[6] <= 3.87\ngini = 0.004\nsamples = 1017\nvalue = [1015, 2]"] ;
189 -> 197 ;
198 [label="X[0] <= 8.42\ngini = 0.009\nsamples = 456\nvalue = [454, 2]"] ;
197 -> 198 ;
199 [label="X[6] <= 3.51\ngini = 0.004\nsamples = 450\nvalue = [449, 1]"] ;
198 -> 199 ;
200 [label="gini = 0.0\nsamples = 188\nvalue = [188, 0]"] ;
199 -> 200 ;
201 [label="gini = 0.008\nsamples = 262\nvalue = [261, 1]"] ;
199 -> 201 ;
202 [label="gini = 0.278\nsamples = 6\nvalue = [5, 1]"] ;
198 -> 202 ;
203 [label="gini = 0.0\nsamples = 561\nvalue = [561, 0]"] ;
197 -> 203 ;
204 [label="X[7] <= 25.5\ngini = 0.033\nsamples = 900\nvalue = [885, 15]"] ;
188 -> 204 ;
205 [label="X[7] <= 18.87\ngini = 0.02\nsamples = 496\nvalue = [491, 5]"] ;
204 -> 205 ;
206 [label="gini = 0.025\nsamples = 388\nvalue = [383, 5]"] ;
205 -> 206 ;
207 [label="gini = 0.0\nsamples = 108\nvalue = [108, 0]"] ;
205 -> 207 ;
208 [label="X[6] <= 3.425\ngini = 0.048\nsamples = 404\nvalue = [394, 10]"] ;
204 -> 208 ;
209 [label="X[0] <= 14.25\ngini = 0.444\nsamples = 3\nvalue = [2, 1]"] ;
208 -> 209 ;
210 [label="gini = 0.0\nsamples = 1\nvalue = [1, 0]"] ;
209 -> 210 ;
211 [label="gini = 0.5\nsamples = 2\nvalue = [1, 1]"] ;
209 -> 211 ;
212 [label="X[0] <= 9.755\ngini = 0.044\nsamples = 401\nvalue = [392, 9]"] ;
208 -> 212 ;
213 [label="gini = 0.219\nsamples = 16\nvalue = [14, 2]"] ;
212 -> 213 ;
214 [label="X[1] <= 2.325\ngini = 0.036\nsamples = 385\nvalue = [378, 7]"] ;
212 -> 214 ;
215 [label="X[5] <= 0.47\ngini = 0.219\nsamples = 8\nvalue = [7, 1]"] ;
214 -> 215 ;
216 [label="gini = 0.0\nsamples = 1\nvalue = [0, 1]"] ;
215 -> 216 ;
217 [label="gini = 0.0\nsamples = 7\nvalue = [7, 0]"] ;
215 -> 217 ;
218 [label="X[0] <= 11.24\ngini = 0.031\nsamples = 377\nvalue = [371, 6]"] ;
214 -> 218 ;
219 [label="X[0] <= 10.285\ngini = 0.058\nsamples = 199\nvalue = [193, 6]"] ;
218 -> 219 ;
220 [label="gini = 0.0\nsamples = 26\nvalue = [26, 0]"] ;
219 -> 220 ;
221 [label="X[7] <= 29.35\ngini = 0.067\nsamples = 173\nvalue = [167, 6]"] ;
219 -> 221 ;
222 [label="gini = 0.064\nsamples = 120\nvalue = [116, 4]"] ;
221 -> 222 ;
223 [label="X[0] <= 10.82\ngini = 0.073\nsamples = 53\nvalue = [51, 2]"] ;
221 -> 223 ;
224 [label="gini = 0.071\nsamples = 27\nvalue = [26, 1]"] ;
223 -> 224 ;
225 [label="gini = 0.074\nsamples = 26\nvalue = [25, 1]"] ;
223 -> 225 ;
226 [label="gini = 0.0\nsamples = 178\nvalue = [178, 0]"] ;
218 -> 226 ;
227 [label="X[1] <= 3.415\ngini = 0.128\nsamples = 29\nvalue = [27, 2]"] ;
187 -> 227 ;
228 [label="X[0] <= 9.45\ngini = 0.5\nsamples = 4\nvalue = [2, 2]"] ;
227 -> 228 ;
229 [label="gini = 0.444\nsamples = 3\nvalue = [1, 2]"] ;
228 -> 229 ;
230 [label="gini = 0.0\nsamples = 1\nvalue = [1, 0]"] ;
228 -> 230 ;
231 [label="gini = 0.0\nsamples = 25\nvalue = [25, 0]"] ;
227 -> 231 ;
232 [label="gini = 0.5\nsamples = 8\nvalue = [4, 4]"] ;
186 -> 232 ;
233 [label="X[0] <= 17.215\ngini = 0.002\nsamples = 1966\nvalue = [1964, 2]"] ;
185 -> 233 ;
234 [label="gini = 0.0\nsamples = 1370\nvalue = [1370, 0]"] ;
233 -> 234 ;
235 [label="X[2] <= 160.385\ngini = 0.007\nsamples = 596\nvalue = [594, 2]"] ;
233 -> 235 ;
236 [label="gini = 0.0\nsamples = 1\nvalue = [0, 1]"] ;
235 -> 236 ;
237 [label="X[0] <= 17.315\ngini = 0.003\nsamples = 595\nvalue = [594, 1]"] ;
235 -> 237 ;
238 [label="gini = 0.0\nsamples = 1\nvalue = [0, 1]"] ;
237 -> 238 ;
239 [label="gini = 0.0\nsamples = 594\nvalue = [594, 0]"] ;
237 -> 239 ;
240 [label="X[7] <= 90.405\ngini = 0.5\nsamples = 2\nvalue = [1, 1]"] ;
184 -> 240 ;
241 [label="gini = 0.0\nsamples = 1\nvalue = [0, 1]"] ;
240 -> 241 ;
242 [label="gini = 0.0\nsamples = 1\nvalue = [1, 0]"] ;
240 -> 242 ;
243 [label="X[9] <= 1.5\ngini = 0.151\nsamples = 73\nvalue = [67, 6]"] ;
111 -> 243 ;
244 [label="gini = 0.0\nsamples = 52\nvalue = [52, 0]"] ;
243 -> 244 ;
245 [label="X[5] <= 0.135\ngini = 0.408\nsamples = 21\nvalue = [15, 6]"] ;
243 -> 245 ;
246 [label="X[5] <= 0.085\ngini = 0.332\nsamples = 19\nvalue = [15, 4]"] ;
245 -> 246 ;
247 [label="gini = 0.0\nsamples = 1\nvalue = [0, 1]"] ;
246 -> 247 ;
248 [label="X[2] <= 616.815\ngini = 0.278\nsamples = 18\nvalue = [15, 3]"] ;
246 -> 248 ;
249 [label="gini = 0.0\nsamples = 10\nvalue = [10, 0]"] ;
248 -> 249 ;
250 [label="X[4] <= 22.5\ngini = 0.469\nsamples = 8\nvalue = [5, 3]"] ;
248 -> 250 ;
251 [label="gini = 0.0\nsamples = 3\nvalue = [0, 3]"] ;
250 -> 251 ;
252 [label="gini = 0.0\nsamples = 5\nvalue = [5, 0]"] ;
250 -> 252 ;
253 [label="gini = 0.0\nsamples = 2\nvalue = [0, 2]"] ;
245 -> 253 ;
254 [label="X[7] <= 138.78\ngini = 0.071\nsamples = 706\nvalue = [680, 26]"] ;
36 -> 254 ;
255 [label="X[8] <= 7.5\ngini = 0.066\nsamples = 700\nvalue = [676, 24]"] ;
254 -> 255 ;
256 [label="X[7] <= 86.43\ngini = 0.008\nsamples = 263\nvalue = [262, 1]"] ;
255 -> 256 ;
257 [label="X[7] <= 85.98\ngini = 0.32\nsamples = 5\nvalue = [4, 1]"] ;
256 -> 257 ;
258 [label="gini = 0.0\nsamples = 4\nvalue = [4, 0]"] ;
257 -> 258 ;
259 [label="gini = 0.0\nsamples = 1\nvalue = [0, 1]"] ;
257 -> 259 ;
260 [label="gini = 0.0\nsamples = 258\nvalue = [258, 0]"] ;
256 -> 260 ;
261 [label="X[7] <= 116.38\ngini = 0.1\nsamples = 437\nvalue = [414, 23]"] ;
255 -> 261 ;
262 [label="X[2] <= 829.305\ngini = 0.163\nsamples = 235\nvalue = [214, 21]"] ;
261 -> 262 ;
263 [label="X[6] <= 45.105\ngini = 0.213\nsamples = 157\nvalue = [138, 19]"] ;
262 -> 263 ;
264 [label="X[7] <= 115.355\ngini = 0.188\nsamples = 152\nvalue = [136, 16]"] ;
263 -> 264 ;
265 [label="X[6] <= 22.64\ngini = 0.179\nsamples = 151\nvalue = [136, 15]"] ;
264 -> 265 ;
266 [label="gini = 0.0\nsamples = 47\nvalue = [47, 0]"] ;
265 -> 266 ;
267 [label="X[2] <= 410.745\ngini = 0.247\nsamples = 104\nvalue = [89, 15]"] ;
265 -> 267 ;
268 [label="gini = 0.0\nsamples = 1\nvalue = [0, 1]"] ;
267 -> 268 ;
269 [label="X[4] <= 25.5\ngini = 0.235\nsamples = 103\nvalue = [89, 14]"] ;
267 -> 269 ;
270 [label="X[0] <= 13.82\ngini = 0.365\nsamples = 25\nvalue = [19, 6]"] ;
269 -> 270 ;
271 [label="X[6] <= 40.75\ngini = 0.5\nsamples = 4\nvalue = [2, 2]"] ;
270 -> 271 ;
272 [label="gini = 0.0\nsamples = 1\nvalue = [0, 1]"] ;
271 -> 272 ;
273 [label="X[8] <= 9.5\ngini = 0.444\nsamples = 3\nvalue = [2, 1]"] ;
271 -> 273 ;
274 [label="gini = 0.0\nsamples = 1\nvalue = [1, 0]"] ;
273 -> 274 ;
275 [label="X[2] <= 753.375\ngini = 0.5\nsamples = 2\nvalue = [1, 1]"] ;
273 -> 275 ;
276 [label="gini = 0.0\nsamples = 1\nvalue = [0, 1]"] ;
275 -> 276 ;
277 [label="gini = 0.0\nsamples = 1\nvalue = [1, 0]"] ;
275 -> 277 ;
278 [label="X[1] <= 5.325\ngini = 0.308\nsamples = 21\nvalue = [17, 4]"] ;
270 -> 278 ;
279 [label="X[0] <= 21.0\ngini = 0.426\nsamples = 13\nvalue = [9, 4]"] ;
278 -> 279 ;
280 [label="X[8] <= 9.5\ngini = 0.48\nsamples = 5\nvalue = [2, 3]"] ;
279 -> 280 ;
281 [label="gini = 0.0\nsamples = 3\nvalue = [0, 3]"] ;
280 -> 281 ;
282 [label="gini = 0.0\nsamples = 2\nvalue = [2, 0]"] ;
280 -> 282 ;
283 [label="X[8] <= 8.5\ngini = 0.219\nsamples = 8\nvalue = [7, 1]"] ;
279 -> 283 ;
284 [label="gini = 0.0\nsamples = 5\nvalue = [5, 0]"] ;
283 -> 284 ;
285 [label="X[5] <= 0.225\ngini = 0.444\nsamples = 3\nvalue = [2, 1]"] ;
283 -> 285 ;
286 [label="gini = 0.0\nsamples = 2\nvalue = [2, 0]"] ;
285 -> 286 ;
287 [label="gini = 0.0\nsamples = 1\nvalue = [0, 1]"] ;
285 -> 287 ;
288 [label="gini = 0.0\nsamples = 8\nvalue = [8, 0]"] ;
278 -> 288 ;
289 [label="X[8] <= 9.5\ngini = 0.184\nsamples = 78\nvalue = [70, 8]"] ;
269 -> 289 ;
290 [label="X[0] <= 14.115\ngini = 0.109\nsamples = 52\nvalue = [49, 3]"] ;
289 -> 290 ;
291 [label="X[5] <= 0.135\ngini = 0.375\nsamples = 4\nvalue = [3, 1]"] ;
290 -> 291 ;
292 [label="gini = 0.0\nsamples = 3\nvalue = [3, 0]"] ;
291 -> 292 ;
293 [label="gini = 0.0\nsamples = 1\nvalue = [0, 1]"] ;
291 -> 293 ;
294 [label="X[1] <= 6.22\ngini = 0.08\nsamples = 48\nvalue = [46, 2]"] ;
290 -> 294 ;
295 [label="X[0] <= 17.92\ngini = 0.172\nsamples = 21\nvalue = [19, 2]"] ;
294 -> 295 ;
296 [label="X[3] <= 0.035\ngini = 0.444\nsamples = 3\nvalue = [1, 2]"] ;
295 -> 296 ;
297 [label="gini = 0.0\nsamples = 1\nvalue = [1, 0]"] ;
296 -> 297 ;
298 [label="gini = 0.0\nsamples = 2\nvalue = [0, 2]"] ;
296 -> 298 ;
299 [label="gini = 0.0\nsamples = 18\nvalue = [18, 0]"] ;
295 -> 299 ;
300 [label="gini = 0.0\nsamples = 27\nvalue = [27, 0]"] ;
294 -> 300 ;
301 [label="X[7] <= 112.945\ngini = 0.311\nsamples = 26\nvalue = [21, 5]"] ;
289 -> 301 ;
302 [label="X[7] <= 106.0\ngini = 0.219\nsamples = 24\nvalue = [21, 3]"] ;
301 -> 302 ;
303 [label="gini = 0.0\nsamples = 14\nvalue = [14, 0]"] ;
302 -> 303 ;
304 [label="X[2] <= 559.145\ngini = 0.42\nsamples = 10\nvalue = [7, 3]"] ;
302 -> 304 ;
305 [label="gini = 0.0\nsamples = 6\nvalue = [6, 0]"] ;
304 -> 305 ;
306 [label="X[2] <= 632.0\ngini = 0.375\nsamples = 4\nvalue = [1, 3]"] ;
304 -> 306 ;
307 [label="X[0] <= 21.255\ngini = 0.5\nsamples = 2\nvalue = [1, 1]"] ;
306 -> 307 ;
308 [label="gini = 0.0\nsamples = 1\nvalue = [1, 0]"] ;
307 -> 308 ;
309 [label="gini = 0.0\nsamples = 1\nvalue = [0, 1]"] ;
307 -> 309 ;
310 [label="gini = 0.0\nsamples = 2\nvalue = [0, 2]"] ;
306 -> 310 ;
311 [label="gini = 0.0\nsamples = 2\nvalue = [0, 2]"] ;
301 -> 311 ;
312 [label="gini = 0.0\nsamples = 1\nvalue = [0, 1]"] ;
264 -> 312 ;
313 [label="X[0] <= 16.21\ngini = 0.48\nsamples = 5\nvalue = [2, 3]"] ;
263 -> 313 ;
314 [label="gini = 0.0\nsamples = 3\nvalue = [0, 3]"] ;
313 -> 314 ;
315 [label="gini = 0.0\nsamples = 2\nvalue = [2, 0]"] ;
313 -> 315 ;
316 [label="X[7] <= 103.4\ngini = 0.05\nsamples = 78\nvalue = [76, 2]"] ;
262 -> 316 ;
317 [label="X[2] <= 915.44\ngini = 0.124\nsamples = 30\nvalue = [28, 2]"] ;
316 -> 317 ;
318 [label="gini = 0.0\nsamples = 16\nvalue = [16, 0]"] ;
317 -> 318 ;
319 [label="X[2] <= 926.69\ngini = 0.245\nsamples = 14\nvalue = [12, 2]"] ;
317 -> 319 ;
320 [label="gini = 0.0\nsamples = 1\nvalue = [0, 1]"] ;
319 -> 320 ;
321 [label="X[1] <= 9.95\ngini = 0.142\nsamples = 13\nvalue = [12, 1]"] ;
319 -> 321 ;
322 [label="X[0] <= 10.43\ngini = 0.375\nsamples = 4\nvalue = [3, 1]"] ;
321 -> 322 ;
323 [label="gini = 0.5\nsamples = 2\nvalue = [1, 1]"] ;
322 -> 323 ;
324 [label="gini = 0.0\nsamples = 2\nvalue = [2, 0]"] ;
322 -> 324 ;
325 [label="gini = 0.0\nsamples = 9\nvalue = [9, 0]"] ;
321 -> 325 ;
326 [label="gini = 0.0\nsamples = 48\nvalue = [48, 0]"] ;
316 -> 326 ;
327 [label="X[7] <= 128.355\ngini = 0.02\nsamples = 202\nvalue = [200, 2]"] ;
261 -> 327 ;
328 [label="gini = 0.0\nsamples = 175\nvalue = [175, 0]"] ;
327 -> 328 ;
329 [label="X[9] <= 1.5\ngini = 0.137\nsamples = 27\nvalue = [25, 2]"] ;
327 -> 329 ;
330 [label="gini = 0.0\nsamples = 18\nvalue = [18, 0]"] ;
329 -> 330 ;
331 [label="X[2] <= 1108.75\ngini = 0.346\nsamples = 9\nvalue = [7, 2]"] ;
329 -> 331 ;
332 [label="X[2] <= 800.9\ngini = 0.219\nsamples = 8\nvalue = [7, 1]"] ;
331 -> 332 ;
333 [label="X[7] <= 130.52\ngini = 0.5\nsamples = 2\nvalue = [1, 1]"] ;
332 -> 333 ;
334 [label="gini = 0.0\nsamples = 1\nvalue = [1, 0]"] ;
333 -> 334 ;
335 [label="gini = 0.0\nsamples = 1\nvalue = [0, 1]"] ;
333 -> 335 ;
336 [label="gini = 0.0\nsamples = 6\nvalue = [6, 0]"] ;
332 -> 336 ;
337 [label="gini = 0.0\nsamples = 1\nvalue = [0, 1]"] ;
331 -> 337 ;
338 [label="X[7] <= 140.725\ngini = 0.444\nsamples = 6\nvalue = [4, 2]"] ;
254 -> 338 ;
339 [label="gini = 0.0\nsamples = 2\nvalue = [0, 2]"] ;
338 -> 339 ;
340 [label="gini = 0.0\nsamples = 4\nvalue = [4, 0]"] ;
338 -> 340 ;
341 [label="X[9] <= 0.5\ngini = 0.155\nsamples = 3168\nvalue = [2899, 269]"] ;
1 -> 341 ;
342 [label="X[8] <= 8.5\ngini = 0.107\nsamples = 2107\nvalue = [1988, 119]"] ;
341 -> 342 ;
343 [label="X[0] <= 22.205\ngini = 0.081\nsamples = 1605\nvalue = [1537, 68]"] ;
342 -> 343 ;
344 [label="X[8] <= 5.5\ngini = 0.037\nsamples = 943\nvalue = [925, 18]"] ;
343 -> 344 ;
345 [label="X[8] <= 2.5\ngini = 0.224\nsamples = 78\nvalue = [68, 10]"] ;
344 -> 345 ;
346 [label="X[1] <= 9.05\ngini = 0.068\nsamples = 57\nvalue = [55, 2]"] ;
345 -> 346 ;
347 [label="X[6] <= 76.685\ngini = 0.375\nsamples = 8\nvalue = [6, 2]"] ;
346 -> 347 ;
348 [label="gini = 0.0\nsamples = 6\nvalue = [6, 0]"] ;
347 -> 348 ;
349 [label="gini = 0.0\nsamples = 2\nvalue = [0, 2]"] ;
347 -> 349 ;
350 [label="gini = 0.0\nsamples = 49\nvalue = [49, 0]"] ;
346 -> 350 ;
351 [label="X[0] <= 19.8\ngini = 0.472\nsamples = 21\nvalue = [13, 8]"] ;
345 -> 351 ;
352 [label="X[4] <= 71.5\ngini = 0.401\nsamples = 18\nvalue = [13, 5]"] ;
351 -> 352 ;
353 [label="X[0] <= 16.125\ngini = 0.305\nsamples = 16\nvalue = [13, 3]"] ;
352 -> 353 ;
354 [label="X[0] <= 10.99\ngini = 0.49\nsamples = 7\nvalue = [4, 3]"] ;
353 -> 354 ;
355 [label="gini = 0.0\nsamples = 3\nvalue = [3, 0]"] ;
354 -> 355 ;
356 [label="X[5] <= 0.075\ngini = 0.375\nsamples = 4\nvalue = [1, 3]"] ;
354 -> 356 ;
357 [label="gini = 0.0\nsamples = 3\nvalue = [0, 3]"] ;
356 -> 357 ;
358 [label="gini = 0.0\nsamples = 1\nvalue = [1, 0]"] ;
356 -> 358 ;
359 [label="gini = 0.0\nsamples = 9\nvalue = [9, 0]"] ;
353 -> 359 ;
360 [label="gini = 0.0\nsamples = 2\nvalue = [0, 2]"] ;
352 -> 360 ;
361 [label="gini = 0.0\nsamples = 3\nvalue = [0, 3]"] ;
351 -> 361 ;
362 [label="X[1] <= 7.745\ngini = 0.018\nsamples = 865\nvalue = [857, 8]"] ;
344 -> 362 ;
363 [label="X[4] <= 39.0\ngini = 0.165\nsamples = 33\nvalue = [30, 3]"] ;
362 -> 363 ;
364 [label="X[7] <= 148.64\ngini = 0.117\nsamples = 32\nvalue = [30, 2]"] ;
363 -> 364 ;
365 [label="gini = 0.0\nsamples = 20\nvalue = [20, 0]"] ;
364 -> 365 ;
366 [label="X[7] <= 150.45\ngini = 0.278\nsamples = 12\nvalue = [10, 2]"] ;
364 -> 366 ;
367 [label="gini = 0.5\nsamples = 4\nvalue = [2, 2]"] ;
366 -> 367 ;
368 [label="gini = 0.0\nsamples = 8\nvalue = [8, 0]"] ;
366 -> 368 ;
369 [label="gini = 0.0\nsamples = 1\nvalue = [0, 1]"] ;
363 -> 369 ;
370 [label="X[0] <= 17.485\ngini = 0.012\nsamples = 832\nvalue = [827, 5]"] ;
362 -> 370 ;
371 [label="X[2] <= 1876.875\ngini = 0.003\nsamples = 582\nvalue = [581, 1]"] ;
370 -> 371 ;
372 [label="X[6] <= 104.145\ngini = 0.019\nsamples = 106\nvalue = [105, 1]"] ;
371 -> 372 ;
373 [label="gini = 0.0\nsamples = 105\nvalue = [105, 0]"] ;
372 -> 373 ;
374 [label="gini = 0.0\nsamples = 1\nvalue = [0, 1]"] ;
372 -> 374 ;
375 [label="gini = 0.0\nsamples = 476\nvalue = [476, 0]"] ;
371 -> 375 ;
376 [label="X[0] <= 17.515\ngini = 0.031\nsamples = 250\nvalue = [246, 4]"] ;
370 -> 376 ;
377 [label="gini = 0.0\nsamples = 1\nvalue = [0, 1]"] ;
376 -> 377 ;
378 [label="X[0] <= 18.385\ngini = 0.024\nsamples = 249\nvalue = [246, 3]"] ;
376 -> 378 ;
379 [label="X[0] <= 18.375\ngini = 0.084\nsamples = 68\nvalue = [65, 3]"] ;
378 -> 379 ;
380 [label="X[1] <= 16.22\ngini = 0.059\nsamples = 66\nvalue = [64, 2]"] ;
379 -> 380 ;
381 [label="gini = 0.0\nsamples = 42\nvalue = [42, 0]"] ;
380 -> 381 ;
382 [label="X[7] <= 304.345\ngini = 0.153\nsamples = 24\nvalue = [22, 2]"] ;
380 -> 382 ;
383 [label="gini = 0.0\nsamples = 1\nvalue = [0, 1]"] ;
382 -> 383 ;
384 [label="X[8] <= 7.5\ngini = 0.083\nsamples = 23\nvalue = [22, 1]"] ;
382 -> 384 ;
385 [label="gini = 0.0\nsamples = 18\nvalue = [18, 0]"] ;
384 -> 385 ;
386 [label="X[7] <= 353.235\ngini = 0.32\nsamples = 5\nvalue = [4, 1]"] ;
384 -> 386 ;
387 [label="gini = 0.444\nsamples = 3\nvalue = [2, 1]"] ;
386 -> 387 ;
388 [label="gini = 0.0\nsamples = 2\nvalue = [2, 0]"] ;
386 -> 388 ;
389 [label="gini = 0.5\nsamples = 2\nvalue = [1, 1]"] ;
379 -> 389 ;
390 [label="gini = 0.0\nsamples = 181\nvalue = [181, 0]"] ;
378 -> 390 ;
391 [label="X[0] <= 22.235\ngini = 0.14\nsamples = 662\nvalue = [612, 50]"] ;
343 -> 391 ;
392 [label="gini = 0.0\nsamples = 2\nvalue = [0, 2]"] ;
391 -> 392 ;
393 [label="X[7] <= 125.33\ngini = 0.135\nsamples = 660\nvalue = [612, 48]"] ;
391 -> 393 ;
394 [label="X[5] <= 0.205\ngini = 0.5\nsamples = 2\nvalue = [1, 1]"] ;
393 -> 394 ;
395 [label="gini = 0.0\nsamples = 1\nvalue = [1, 0]"] ;
394 -> 395 ;
396 [label="gini = 0.0\nsamples = 1\nvalue = [0, 1]"] ;
394 -> 396 ;
397 [label="X[0] <= 50.36\ngini = 0.133\nsamples = 658\nvalue = [611, 47]"] ;
393 -> 397 ;
398 [label="X[2] <= 976.595\ngini = 0.122\nsamples = 612\nvalue = [572, 40]"] ;
397 -> 398 ;
399 [label="gini = 0.0\nsamples = 73\nvalue = [73, 0]"] ;
398 -> 399 ;
400 [label="X[7] <= 151.015\ngini = 0.137\nsamples = 539\nvalue = [499, 40]"] ;
398 -> 400 ;
401 [label="X[8] <= 2.5\ngini = 0.444\nsamples = 3\nvalue = [1, 2]"] ;
400 -> 401 ;
402 [label="gini = 0.0\nsamples = 1\nvalue = [0, 1]"] ;
401 -> 402 ;
403 [label="gini = 0.5\nsamples = 2\nvalue = [1, 1]"] ;
401 -> 403 ;
404 [label="X[4] <= 79.5\ngini = 0.132\nsamples = 536\nvalue = [498, 38]"] ;
400 -> 404 ;
405 [label="X[7] <= 369.655\ngini = 0.148\nsamples = 473\nvalue = [435, 38]"] ;
404 -> 405 ;
406 [label="X[0] <= 28.235\ngini = 0.124\nsamples = 437\nvalue = [408, 29]"] ;
405 -> 406 ;
407 [label="X[1] <= 11.555\ngini = 0.082\nsamples = 234\nvalue = [224, 10]"] ;
406 -> 407 ;
408 [label="X[0] <= 22.415\ngini = 0.044\nsamples = 176\nvalue = [172, 4]"] ;
407 -> 408 ;
409 [label="X[0] <= 22.39\ngini = 0.375\nsamples = 4\nvalue = [3, 1]"] ;
408 -> 409 ;
410 [label="gini = 0.0\nsamples = 3\nvalue = [3, 0]"] ;
409 -> 410 ;
411 [label="gini = 0.0\nsamples = 1\nvalue = [0, 1]"] ;
409 -> 411 ;
412 [label="X[0] <= 24.115\ngini = 0.034\nsamples = 172\nvalue = [169, 3]"] ;
408 -> 412 ;
413 [label="X[0] <= 24.06\ngini = 0.093\nsamples = 41\nvalue = [39, 2]"] ;
412 -> 413 ;
414 [label="X[0] <= 23.62\ngini = 0.05\nsamples = 39\nvalue = [38, 1]"] ;
413 -> 414 ;
415 [label="gini = 0.0\nsamples = 24\nvalue = [24, 0]"] ;
414 -> 415 ;
416 [label="X[0] <= 23.65\ngini = 0.124\nsamples = 15\nvalue = [14, 1]"] ;
414 -> 416 ;
417 [label="gini = 0.5\nsamples = 2\nvalue = [1, 1]"] ;
416 -> 417 ;
418 [label="gini = 0.0\nsamples = 13\nvalue = [13, 0]"] ;
416 -> 418 ;
419 [label="X[2] <= 1464.18\ngini = 0.5\nsamples = 2\nvalue = [1, 1]"] ;
413 -> 419 ;
420 [label="gini = 0.0\nsamples = 1\nvalue = [1, 0]"] ;
419 -> 420 ;
421 [label="gini = 0.0\nsamples = 1\nvalue = [0, 1]"] ;
419 -> 421 ;
422 [label="X[1] <= 10.695\ngini = 0.015\nsamples = 131\nvalue = [130, 1]"] ;
412 -> 422 ;
423 [label="gini = 0.0\nsamples = 91\nvalue = [91, 0]"] ;
422 -> 423 ;
424 [label="X[6] <= 167.23\ngini = 0.049\nsamples = 40\nvalue = [39, 1]"] ;
422 -> 424 ;
425 [label="X[8] <= 7.0\ngini = 0.5\nsamples = 2\nvalue = [1, 1]"] ;
424 -> 425 ;
426 [label="gini = 0.0\nsamples = 1\nvalue = [1, 0]"] ;
425 -> 426 ;
427 [label="gini = 0.0\nsamples = 1\nvalue = [0, 1]"] ;
425 -> 427 ;
428 [label="gini = 0.0\nsamples = 38\nvalue = [38, 0]"] ;
424 -> 428 ;
429 [label="X[6] <= 187.275\ngini = 0.185\nsamples = 58\nvalue = [52, 6]"] ;
407 -> 429 ;
430 [label="gini = 0.0\nsamples = 2\nvalue = [0, 2]"] ;
429 -> 430 ;
431 [label="X[0] <= 27.52\ngini = 0.133\nsamples = 56\nvalue = [52, 4]"] ;
429 -> 431 ;
432 [label="X[8] <= 7.5\ngini = 0.073\nsamples = 53\nvalue = [51, 2]"] ;
431 -> 432 ;
433 [label="gini = 0.0\nsamples = 34\nvalue = [34, 0]"] ;
432 -> 433 ;
434 [label="X[4] <= 61.5\ngini = 0.188\nsamples = 19\nvalue = [17, 2]"] ;
432 -> 434 ;
435 [label="X[0] <= 23.745\ngini = 0.5\nsamples = 2\nvalue = [1, 1]"] ;
434 -> 435 ;
436 [label="gini = 0.0\nsamples = 1\nvalue = [1, 0]"] ;
435 -> 436 ;
437 [label="gini = 0.0\nsamples = 1\nvalue = [0, 1]"] ;
435 -> 437 ;
438 [label="X[7] <= 325.3\ngini = 0.111\nsamples = 17\nvalue = [16, 1]"] ;
434 -> 438 ;
439 [label="gini = 0.0\nsamples = 11\nvalue = [11, 0]"] ;
438 -> 439 ;
440 [label="X[0] <= 25.25\ngini = 0.278\nsamples = 6\nvalue = [5, 1]"] ;
438 -> 440 ;
441 [label="gini = 0.0\nsamples = 5\nvalue = [5, 0]"] ;
440 -> 441 ;
442 [label="gini = 0.0\nsamples = 1\nvalue = [0, 1]"] ;
440 -> 442 ;
443 [label="X[4] <= 73.0\ngini = 0.444\nsamples = 3\nvalue = [1, 2]"] ;
431 -> 443 ;
444 [label="gini = 0.0\nsamples = 2\nvalue = [0, 2]"] ;
443 -> 444 ;
445 [label="gini = 0.0\nsamples = 1\nvalue = [1, 0]"] ;
443 -> 445 ;
446 [label="X[0] <= 33.895\ngini = 0.17\nsamples = 203\nvalue = [184, 19]"] ;
406 -> 446 ;
447 [label="X[0] <= 33.835\ngini = 0.254\nsamples = 114\nvalue = [97, 17]"] ;
446 -> 447 ;
448 [label="X[4] <= 48.5\ngini = 0.243\nsamples = 113\nvalue = [97, 16]"] ;
447 -> 448 ;
449 [label="X[2] <= 1322.895\ngini = 0.415\nsamples = 17\nvalue = [12, 5]"] ;
448 -> 449 ;
450 [label="X[1] <= 6.1\ngini = 0.165\nsamples = 11\nvalue = [10, 1]"] ;
449 -> 450 ;
451 [label="X[2] <= 1066.515\ngini = 0.375\nsamples = 4\nvalue = [3, 1]"] ;
450 -> 451 ;
452 [label="gini = 0.0\nsamples = 1\nvalue = [1, 0]"] ;
451 -> 452 ;
453 [label="gini = 0.444\nsamples = 3\nvalue = [2, 1]"] ;
451 -> 453 ;
454 [label="gini = 0.0\nsamples = 7\nvalue = [7, 0]"] ;
450 -> 454 ;
455 [label="X[4] <= 47.5\ngini = 0.444\nsamples = 6\nvalue = [2, 4]"] ;
449 -> 455 ;
456 [label="X[7] <= 218.15\ngini = 0.444\nsamples = 3\nvalue = [2, 1]"] ;
455 -> 456 ;
457 [label="gini = 0.5\nsamples = 2\nvalue = [1, 1]"] ;
456 -> 457 ;
458 [label="gini = 0.0\nsamples = 1\nvalue = [1, 0]"] ;
456 -> 458 ;
459 [label="gini = 0.0\nsamples = 3\nvalue = [0, 3]"] ;
455 -> 459 ;
460 [label="X[0] <= 28.495\ngini = 0.203\nsamples = 96\nvalue = [85, 11]"] ;
448 -> 460 ;
461 [label="X[1] <= 10.695\ngini = 0.48\nsamples = 5\nvalue = [3, 2]"] ;
460 -> 461 ;
462 [label="X[7] <= 256.91\ngini = 0.444\nsamples = 3\nvalue = [1, 2]"] ;
461 -> 462 ;
463 [label="gini = 0.0\nsamples = 1\nvalue = [0, 1]"] ;
462 -> 463 ;
464 [label="X[2] <= 2563.05\ngini = 0.5\nsamples = 2\nvalue = [1, 1]"] ;
462 -> 464 ;
465 [label="gini = 0.0\nsamples = 1\nvalue = [1, 0]"] ;
464 -> 465 ;
466 [label="gini = 0.0\nsamples = 1\nvalue = [0, 1]"] ;
464 -> 466 ;
467 [label="gini = 0.0\nsamples = 2\nvalue = [2, 0]"] ;
461 -> 467 ;
468 [label="X[1] <= 10.485\ngini = 0.178\nsamples = 91\nvalue = [82, 9]"] ;
460 -> 468 ;
469 [label="X[1] <= 9.485\ngini = 0.116\nsamples = 65\nvalue = [61, 4]"] ;
468 -> 469 ;
470 [label="X[2] <= 2769.02\ngini = 0.18\nsamples = 40\nvalue = [36, 4]"] ;
469 -> 470 ;
471 [label="X[2] <= 1945.61\ngini = 0.102\nsamples = 37\nvalue = [35, 2]"] ;
470 -> 471 ;
472 [label="X[2] <= 1916.065\ngini = 0.231\nsamples = 15\nvalue = [13, 2]"] ;
471 -> 472 ;
473 [label="X[0] <= 29.685\ngini = 0.133\nsamples = 14\nvalue = [13, 1]"] ;
472 -> 473 ;
474 [label="X[0] <= 28.865\ngini = 0.5\nsamples = 2\nvalue = [1, 1]"] ;
473 -> 474 ;
475 [label="gini = 0.0\nsamples = 1\nvalue = [1, 0]"] ;
474 -> 475 ;
476 [label="gini = 0.0\nsamples = 1\nvalue = [0, 1]"] ;
474 -> 476 ;
477 [label="gini = 0.0\nsamples = 12\nvalue = [12, 0]"] ;
473 -> 477 ;
478 [label="gini = 0.0\nsamples = 1\nvalue = [0, 1]"] ;
472 -> 478 ;
479 [label="gini = 0.0\nsamples = 22\nvalue = [22, 0]"] ;
471 -> 479 ;
480 [label="X[7] <= 306.375\ngini = 0.444\nsamples = 3\nvalue = [1, 2]"] ;
470 -> 480 ;
481 [label="gini = 0.0\nsamples = 2\nvalue = [0, 2]"] ;
480 -> 481 ;
482 [label="gini = 0.0\nsamples = 1\nvalue = [1, 0]"] ;
480 -> 482 ;
483 [label="gini = 0.0\nsamples = 25\nvalue = [25, 0]"] ;
469 -> 483 ;
484 [label="X[1] <= 10.96\ngini = 0.311\nsamples = 26\nvalue = [21, 5]"] ;
468 -> 484 ;
485 [label="X[2] <= 3840.235\ngini = 0.473\nsamples = 13\nvalue = [8, 5]"] ;
484 -> 485 ;
486 [label="X[8] <= 5.5\ngini = 0.397\nsamples = 11\nvalue = [8, 3]"] ;
485 -> 486 ;
487 [label="X[4] <= 65.0\ngini = 0.444\nsamples = 3\nvalue = [1, 2]"] ;
486 -> 487 ;
488 [label="gini = 0.0\nsamples = 2\nvalue = [0, 2]"] ;
487 -> 488 ;
489 [label="gini = 0.0\nsamples = 1\nvalue = [1, 0]"] ;
487 -> 489 ;
490 [label="X[1] <= 10.885\ngini = 0.219\nsamples = 8\nvalue = [7, 1]"] ;
486 -> 490 ;
491 [label="gini = 0.0\nsamples = 6\nvalue = [6, 0]"] ;
490 -> 491 ;
492 [label="X[6] <= 208.305\ngini = 0.5\nsamples = 2\nvalue = [1, 1]"] ;
490 -> 492 ;
493 [label="gini = 0.0\nsamples = 1\nvalue = [0, 1]"] ;
492 -> 493 ;
494 [label="gini = 0.0\nsamples = 1\nvalue = [1, 0]"] ;
492 -> 494 ;
495 [label="gini = 0.0\nsamples = 2\nvalue = [0, 2]"] ;
485 -> 495 ;
496 [label="gini = 0.0\nsamples = 13\nvalue = [13, 0]"] ;
484 -> 496 ;
497 [label="gini = 0.0\nsamples = 1\nvalue = [0, 1]"] ;
447 -> 497 ;
498 [label="X[0] <= 40.455\ngini = 0.044\nsamples = 89\nvalue = [87, 2]"] ;
446 -> 498 ;
499 [label="gini = 0.0\nsamples = 56\nvalue = [56, 0]"] ;
498 -> 499 ;
500 [label="X[0] <= 40.54\ngini = 0.114\nsamples = 33\nvalue = [31, 2]"] ;
498 -> 500 ;
501 [label="gini = 0.0\nsamples = 1\nvalue = [0, 1]"] ;
500 -> 501 ;
502 [label="X[0] <= 41.87\ngini = 0.061\nsamples = 32\nvalue = [31, 1]"] ;
500 -> 502 ;
503 [label="X[0] <= 41.695\ngini = 0.165\nsamples = 11\nvalue = [10, 1]"] ;
502 -> 503 ;
504 [label="gini = 0.0\nsamples = 10\nvalue = [10, 0]"] ;
503 -> 504 ;
505 [label="gini = 0.0\nsamples = 1\nvalue = [0, 1]"] ;
503 -> 505 ;
506 [label="gini = 0.0\nsamples = 21\nvalue = [21, 0]"] ;
502 -> 506 ;
507 [label="X[1] <= 13.585\ngini = 0.375\nsamples = 36\nvalue = [27, 9]"] ;
405 -> 507 ;
508 [label="X[0] <= 31.495\ngini = 0.252\nsamples = 27\nvalue = [23, 4]"] ;
507 -> 508 ;
509 [label="gini = 0.0\nsamples = 11\nvalue = [11, 0]"] ;
508 -> 509 ;
510 [label="X[6] <= 261.675\ngini = 0.375\nsamples = 16\nvalue = [12, 4]"] ;
508 -> 510 ;
511 [label="X[6] <= 204.035\ngini = 0.245\nsamples = 14\nvalue = [12, 2]"] ;
510 -> 511 ;
512 [label="X[4] <= 73.5\ngini = 0.48\nsamples = 5\nvalue = [3, 2]"] ;
511 -> 512 ;
513 [label="gini = 0.0\nsamples = 1\nvalue = [0, 1]"] ;
512 -> 513 ;
514 [label="X[4] <= 76.0\ngini = 0.375\nsamples = 4\nvalue = [3, 1]"] ;
512 -> 514 ;
515 [label="gini = 0.444\nsamples = 3\nvalue = [2, 1]"] ;
514 -> 515 ;
516 [label="gini = 0.0\nsamples = 1\nvalue = [1, 0]"] ;
514 -> 516 ;
517 [label="gini = 0.0\nsamples = 9\nvalue = [9, 0]"] ;
511 -> 517 ;
518 [label="gini = 0.0\nsamples = 2\nvalue = [0, 2]"] ;
510 -> 518 ;
519 [label="X[0] <= 24.23\ngini = 0.494\nsamples = 9\nvalue = [4, 5]"] ;
507 -> 519 ;
520 [label="gini = 0.0\nsamples = 4\nvalue = [4, 0]"] ;
519 -> 520 ;
521 [label="gini = 0.0\nsamples = 5\nvalue = [0, 5]"] ;
519 -> 521 ;
522 [label="gini = 0.0\nsamples = 63\nvalue = [63, 0]"] ;
404 -> 522 ;
523 [label="X[0] <= 50.555\ngini = 0.258\nsamples = 46\nvalue = [39, 7]"] ;
397 -> 523 ;
524 [label="gini = 0.0\nsamples = 1\nvalue = [0, 1]"] ;
523 -> 524 ;
525 [label="X[0] <= 64.345\ngini = 0.231\nsamples = 45\nvalue = [39, 6]"] ;
523 -> 525 ;
526 [label="X[1] <= 4.11\ngini = 0.312\nsamples = 31\nvalue = [25, 6]"] ;
525 -> 526 ;
527 [label="X[0] <= 59.525\ngini = 0.5\nsamples = 6\nvalue = [3, 3]"] ;
526 -> 527 ;
528 [label="gini = 0.0\nsamples = 3\nvalue = [3, 0]"] ;
527 -> 528 ;
529 [label="gini = 0.0\nsamples = 3\nvalue = [0, 3]"] ;
527 -> 529 ;
530 [label="X[6] <= 108.46\ngini = 0.211\nsamples = 25\nvalue = [22, 3]"] ;
526 -> 530 ;
531 [label="gini = 0.0\nsamples = 14\nvalue = [14, 0]"] ;
530 -> 531 ;
532 [label="X[1] <= 6.45\ngini = 0.397\nsamples = 11\nvalue = [8, 3]"] ;
530 -> 532 ;
533 [label="X[8] <= 4.0\ngini = 0.375\nsamples = 4\nvalue = [1, 3]"] ;
532 -> 533 ;
534 [label="gini = 0.0\nsamples = 1\nvalue = [1, 0]"] ;
533 -> 534 ;
535 [label="gini = 0.0\nsamples = 3\nvalue = [0, 3]"] ;
533 -> 535 ;
536 [label="gini = 0.0\nsamples = 7\nvalue = [7, 0]"] ;
532 -> 536 ;
537 [label="gini = 0.0\nsamples = 14\nvalue = [14, 0]"] ;
525 -> 537 ;
538 [label="X[7] <= 117.285\ngini = 0.183\nsamples = 502\nvalue = [451, 51]"] ;
342 -> 538 ;
539 [label="gini = 0.0\nsamples = 1\nvalue = [0, 1]"] ;
538 -> 539 ;
540 [label="X[2] <= 4474.035\ngini = 0.18\nsamples = 501\nvalue = [451, 50]"] ;
538 -> 540 ;
541 [label="X[2] <= 4189.995\ngini = 0.205\nsamples = 388\nvalue = [343, 45]"] ;
540 -> 541 ;
542 [label="X[7] <= 144.85\ngini = 0.183\nsamples = 374\nvalue = [336, 38]"] ;
541 -> 542 ;
543 [label="X[0] <= 34.72\ngini = 0.054\nsamples = 72\nvalue = [70, 2]"] ;
542 -> 543 ;
544 [label="X[0] <= 22.41\ngini = 0.028\nsamples = 71\nvalue = [70, 1]"] ;
543 -> 544 ;
545 [label="gini = 0.0\nsamples = 65\nvalue = [65, 0]"] ;
544 -> 545 ;
546 [label="X[5] <= 0.18\ngini = 0.278\nsamples = 6\nvalue = [5, 1]"] ;
544 -> 546 ;
547 [label="gini = 0.0\nsamples = 1\nvalue = [0, 1]"] ;
546 -> 547 ;
548 [label="gini = 0.0\nsamples = 5\nvalue = [5, 0]"] ;
546 -> 548 ;
549 [label="gini = 0.0\nsamples = 1\nvalue = [0, 1]"] ;
543 -> 549 ;
550 [label="X[7] <= 145.385\ngini = 0.21\nsamples = 302\nvalue = [266, 36]"] ;
542 -> 550 ;
551 [label="gini = 0.0\nsamples = 1\nvalue = [0, 1]"] ;
550 -> 551 ;
552 [label="X[4] <= 41.5\ngini = 0.206\nsamples = 301\nvalue = [266, 35]"] ;
550 -> 552 ;
553 [label="X[4] <= 37.5\ngini = 0.313\nsamples = 67\nvalue = [54, 13]"] ;
552 -> 553 ;
554 [label="X[7] <= 149.4\ngini = 0.062\nsamples = 31\nvalue = [30, 1]"] ;
553 -> 554 ;
555 [label="X[7] <= 148.34\ngini = 0.18\nsamples = 10\nvalue = [9, 1]"] ;
554 -> 555 ;
556 [label="gini = 0.0\nsamples = 9\nvalue = [9, 0]"] ;
555 -> 556 ;
557 [label="gini = 0.0\nsamples = 1\nvalue = [0, 1]"] ;
555 -> 557 ;
558 [label="gini = 0.0\nsamples = 21\nvalue = [21, 0]"] ;
554 -> 558 ;
559 [label="X[0] <= 19.02\ngini = 0.444\nsamples = 36\nvalue = [24, 12]"] ;
553 -> 559 ;
560 [label="X[2] <= 1710.49\ngini = 0.5\nsamples = 20\nvalue = [10, 10]"] ;
559 -> 560 ;
561 [label="X[0] <= 18.175\ngini = 0.278\nsamples = 6\nvalue = [1, 5]"] ;
560 -> 561 ;
562 [label="gini = 0.0\nsamples = 4\nvalue = [0, 4]"] ;
561 -> 562 ;
563 [label="X[0] <= 18.32\ngini = 0.5\nsamples = 2\nvalue = [1, 1]"] ;
561 -> 563 ;
564 [label="gini = 0.0\nsamples = 1\nvalue = [1, 0]"] ;
563 -> 564 ;
565 [label="gini = 0.0\nsamples = 1\nvalue = [0, 1]"] ;
563 -> 565 ;
566 [label="X[6] <= 180.87\ngini = 0.459\nsamples = 14\nvalue = [9, 5]"] ;
560 -> 566 ;
567 [label="X[0] <= 18.795\ngini = 0.426\nsamples = 13\nvalue = [9, 4]"] ;
566 -> 567 ;
568 [label="X[2] <= 1944.015\ngini = 0.375\nsamples = 12\nvalue = [9, 3]"] ;
567 -> 568 ;
569 [label="gini = 0.0\nsamples = 4\nvalue = [4, 0]"] ;
568 -> 569 ;
570 [label="X[7] <= 175.295\ngini = 0.469\nsamples = 8\nvalue = [5, 3]"] ;
568 -> 570 ;
571 [label="X[1] <= 12.56\ngini = 0.408\nsamples = 7\nvalue = [5, 2]"] ;
570 -> 571 ;
572 [label="gini = 0.0\nsamples = 2\nvalue = [2, 0]"] ;
571 -> 572 ;
573 [label="X[1] <= 16.395\ngini = 0.48\nsamples = 5\nvalue = [3, 2]"] ;
571 -> 573 ;
574 [label="X[0] <= 11.51\ngini = 0.444\nsamples = 3\nvalue = [1, 2]"] ;
573 -> 574 ;
575 [label="gini = 0.0\nsamples = 1\nvalue = [0, 1]"] ;
574 -> 575 ;
576 [label="X[1] <= 13.64\ngini = 0.5\nsamples = 2\nvalue = [1, 1]"] ;
574 -> 576 ;
577 [label="gini = 0.0\nsamples = 1\nvalue = [0, 1]"] ;
576 -> 577 ;
578 [label="gini = 0.0\nsamples = 1\nvalue = [1, 0]"] ;
576 -> 578 ;
579 [label="gini = 0.0\nsamples = 2\nvalue = [2, 0]"] ;
573 -> 579 ;
580 [label="gini = 0.0\nsamples = 1\nvalue = [0, 1]"] ;
570 -> 580 ;
581 [label="gini = 0.0\nsamples = 1\nvalue = [0, 1]"] ;
567 -> 581 ;
582 [label="gini = 0.0\nsamples = 1\nvalue = [0, 1]"] ;
566 -> 582 ;
583 [label="X[4] <= 38.5\ngini = 0.219\nsamples = 16\nvalue = [14, 2]"] ;
559 -> 583 ;
584 [label="X[1] <= 6.665\ngini = 0.5\nsamples = 4\nvalue = [2, 2]"] ;
583 -> 584 ;
585 [label="gini = 0.0\nsamples = 2\nvalue = [2, 0]"] ;
584 -> 585 ;
586 [label="gini = 0.0\nsamples = 2\nvalue = [0, 2]"] ;
584 -> 586 ;
587 [label="gini = 0.0\nsamples = 12\nvalue = [12, 0]"] ;
583 -> 587 ;
588 [label="X[7] <= 226.805\ngini = 0.17\nsamples = 234\nvalue = [212, 22]"] ;
552 -> 588 ;
589 [label="X[6] <= 54.03\ngini = 0.082\nsamples = 117\nvalue = [112, 5]"] ;
588 -> 589 ;
590 [label="X[7] <= 201.99\ngini = 0.48\nsamples = 5\nvalue = [3, 2]"] ;
589 -> 590 ;
591 [label="X[6] <= 45.725\ngini = 0.444\nsamples = 3\nvalue = [1, 2]"] ;
590 -> 591 ;
592 [label="gini = 0.0\nsamples = 1\nvalue = [1, 0]"] ;
591 -> 592 ;
593 [label="gini = 0.0\nsamples = 2\nvalue = [0, 2]"] ;
591 -> 593 ;
594 [label="gini = 0.0\nsamples = 2\nvalue = [2, 0]"] ;
590 -> 594 ;
595 [label="X[0] <= 17.08\ngini = 0.052\nsamples = 112\nvalue = [109, 3]"] ;
589 -> 595 ;
596 [label="X[0] <= 16.405\ngini = 0.161\nsamples = 34\nvalue = [31, 3]"] ;
595 -> 596 ;
597 [label="X[4] <= 42.5\ngini = 0.062\nsamples = 31\nvalue = [30, 1]"] ;
596 -> 597 ;
598 [label="X[6] <= 126.73\ngini = 0.5\nsamples = 2\nvalue = [1, 1]"] ;
597 -> 598 ;
599 [label="gini = 0.0\nsamples = 1\nvalue = [1, 0]"] ;
598 -> 599 ;
600 [label="gini = 0.0\nsamples = 1\nvalue = [0, 1]"] ;
598 -> 600 ;
601 [label="gini = 0.0\nsamples = 29\nvalue = [29, 0]"] ;
597 -> 601 ;
602 [label="X[2] <= 1799.48\ngini = 0.444\nsamples = 3\nvalue = [1, 2]"] ;
596 -> 602 ;
603 [label="gini = 0.0\nsamples = 1\nvalue = [1, 0]"] ;
602 -> 603 ;
604 [label="gini = 0.0\nsamples = 2\nvalue = [0, 2]"] ;
602 -> 604 ;
605 [label="gini = 0.0\nsamples = 78\nvalue = [78, 0]"] ;
595 -> 605 ;
606 [label="X[7] <= 228.875\ngini = 0.248\nsamples = 117\nvalue = [100, 17]"] ;
588 -> 606 ;
607 [label="gini = 0.0\nsamples = 2\nvalue = [0, 2]"] ;
606 -> 607 ;
608 [label="X[7] <= 260.435\ngini = 0.227\nsamples = 115\nvalue = [100, 15]"] ;
606 -> 608 ;
609 [label="X[6] <= 184.725\ngini = 0.388\nsamples = 38\nvalue = [28, 10]"] ;
608 -> 609 ;
610 [label="X[4] <= 51.5\ngini = 0.486\nsamples = 24\nvalue = [14, 10]"] ;
609 -> 610 ;
611 [label="gini = 0.0\nsamples = 9\nvalue = [9, 0]"] ;
610 -> 611 ;
612 [label="X[4] <= 54.5\ngini = 0.444\nsamples = 15\nvalue = [5, 10]"] ;
610 -> 612 ;
613 [label="gini = 0.0\nsamples = 4\nvalue = [0, 4]"] ;
612 -> 613 ;
614 [label="X[7] <= 239.955\ngini = 0.496\nsamples = 11\nvalue = [5, 6]"] ;
612 -> 614 ;
615 [label="X[6] <= 140.345\ngini = 0.375\nsamples = 4\nvalue = [3, 1]"] ;
614 -> 615 ;
616 [label="gini = 0.0\nsamples = 1\nvalue = [0, 1]"] ;
615 -> 616 ;
617 [label="gini = 0.0\nsamples = 3\nvalue = [3, 0]"] ;
615 -> 617 ;
618 [label="X[0] <= 20.775\ngini = 0.408\nsamples = 7\nvalue = [2, 5]"] ;
614 -> 618 ;
619 [label="gini = 0.0\nsamples = 3\nvalue = [0, 3]"] ;
618 -> 619 ;
620 [label="X[4] <= 56.5\ngini = 0.5\nsamples = 4\nvalue = [2, 2]"] ;
618 -> 620 ;
621 [label="gini = 0.0\nsamples = 2\nvalue = [0, 2]"] ;
620 -> 621 ;
622 [label="gini = 0.0\nsamples = 2\nvalue = [2, 0]"] ;
620 -> 622 ;
623 [label="gini = 0.0\nsamples = 14\nvalue = [14, 0]"] ;
609 -> 623 ;
624 [label="X[1] <= 13.215\ngini = 0.121\nsamples = 77\nvalue = [72, 5]"] ;
608 -> 624 ;
625 [label="X[7] <= 381.01\ngini = 0.06\nsamples = 65\nvalue = [63, 2]"] ;
624 -> 625 ;
626 [label="X[7] <= 329.345\ngini = 0.032\nsamples = 62\nvalue = [61, 1]"] ;
625 -> 626 ;
627 [label="gini = 0.0\nsamples = 50\nvalue = [50, 0]"] ;
626 -> 627 ;
628 [label="X[7] <= 335.355\ngini = 0.153\nsamples = 12\nvalue = [11, 1]"] ;
626 -> 628 ;
629 [label="gini = 0.0\nsamples = 1\nvalue = [0, 1]"] ;
628 -> 629 ;
630 [label="gini = 0.0\nsamples = 11\nvalue = [11, 0]"] ;
628 -> 630 ;
631 [label="X[5] <= 0.125\ngini = 0.444\nsamples = 3\nvalue = [2, 1]"] ;
625 -> 631 ;
632 [label="gini = 0.0\nsamples = 2\nvalue = [2, 0]"] ;
631 -> 632 ;
633 [label="gini = 0.0\nsamples = 1\nvalue = [0, 1]"] ;
631 -> 633 ;
634 [label="X[7] <= 277.655\ngini = 0.375\nsamples = 12\nvalue = [9, 3]"] ;
624 -> 634 ;
635 [label="gini = 0.0\nsamples = 8\nvalue = [8, 0]"] ;
634 -> 635 ;
636 [label="X[1] <= 13.655\ngini = 0.375\nsamples = 4\nvalue = [1, 3]"] ;
634 -> 636 ;
637 [label="gini = 0.0\nsamples = 2\nvalue = [0, 2]"] ;
636 -> 637 ;
638 [label="X[2] <= 4002.915\ngini = 0.5\nsamples = 2\nvalue = [1, 1]"] ;
636 -> 638 ;
639 [label="gini = 0.0\nsamples = 1\nvalue = [1, 0]"] ;
638 -> 639 ;
640 [label="gini = 0.0\nsamples = 1\nvalue = [0, 1]"] ;
638 -> 640 ;
641 [label="X[4] <= 64.5\ngini = 0.5\nsamples = 14\nvalue = [7, 7]"] ;
541 -> 641 ;
642 [label="gini = 0.0\nsamples = 3\nvalue = [3, 0]"] ;
641 -> 642 ;
643 [label="X[3] <= 0.115\ngini = 0.463\nsamples = 11\nvalue = [4, 7]"] ;
641 -> 643 ;
644 [label="X[4] <= 75.5\ngini = 0.346\nsamples = 9\nvalue = [2, 7]"] ;
643 -> 644 ;
645 [label="X[0] <= 21.575\ngini = 0.219\nsamples = 8\nvalue = [1, 7]"] ;
644 -> 645 ;
646 [label="X[6] <= 244.56\ngini = 0.5\nsamples = 2\nvalue = [1, 1]"] ;
645 -> 646 ;
647 [label="gini = 0.0\nsamples = 1\nvalue = [1, 0]"] ;
646 -> 647 ;
648 [label="gini = 0.0\nsamples = 1\nvalue = [0, 1]"] ;
646 -> 648 ;
649 [label="gini = 0.0\nsamples = 6\nvalue = [0, 6]"] ;
645 -> 649 ;
650 [label="gini = 0.0\nsamples = 1\nvalue = [1, 0]"] ;
644 -> 650 ;
651 [label="gini = 0.0\nsamples = 2\nvalue = [2, 0]"] ;
643 -> 651 ;
652 [label="X[7] <= 319.105\ngini = 0.085\nsamples = 113\nvalue = [108, 5]"] ;
540 -> 652 ;
653 [label="X[7] <= 308.265\ngini = 0.175\nsamples = 31\nvalue = [28, 3]"] ;
652 -> 653 ;
654 [label="gini = 0.0\nsamples = 24\nvalue = [24, 0]"] ;
653 -> 654 ;
655 [label="X[2] <= 5102.225\ngini = 0.49\nsamples = 7\nvalue = [4, 3]"] ;
653 -> 655 ;
656 [label="gini = 0.0\nsamples = 3\nvalue = [3, 0]"] ;
655 -> 656 ;
657 [label="X[0] <= 16.665\ngini = 0.375\nsamples = 4\nvalue = [1, 3]"] ;
655 -> 657 ;
658 [label="X[5] <= 0.045\ngini = 0.5\nsamples = 2\nvalue = [1, 1]"] ;
657 -> 658 ;
659 [label="gini = 0.0\nsamples = 1\nvalue = [0, 1]"] ;
658 -> 659 ;
660 [label="gini = 0.0\nsamples = 1\nvalue = [1, 0]"] ;
658 -> 660 ;
661 [label="gini = 0.0\nsamples = 2\nvalue = [0, 2]"] ;
657 -> 661 ;
662 [label="X[7] <= 412.455\ngini = 0.048\nsamples = 82\nvalue = [80, 2]"] ;
652 -> 662 ;
663 [label="gini = 0.0\nsamples = 65\nvalue = [65, 0]"] ;
662 -> 663 ;
664 [label="X[6] <= 494.74\ngini = 0.208\nsamples = 17\nvalue = [15, 2]"] ;
662 -> 664 ;
665 [label="gini = 0.0\nsamples = 10\nvalue = [10, 0]"] ;
664 -> 665 ;
666 [label="X[2] <= 9666.17\ngini = 0.408\nsamples = 7\nvalue = [5, 2]"] ;
664 -> 666 ;
667 [label="gini = 0.0\nsamples = 2\nvalue = [0, 2]"] ;
666 -> 667 ;
668 [label="gini = 0.0\nsamples = 5\nvalue = [5, 0]"] ;
666 -> 668 ;
669 [label="X[0] <= 13.865\ngini = 0.243\nsamples = 1061\nvalue = [911, 150]"] ;
341 -> 669 ;
670 [label="X[8] <= 7.0\ngini = 0.041\nsamples = 239\nvalue = [234, 5]"] ;
669 -> 670 ;
671 [label="X[0] <= 10.99\ngini = 0.444\nsamples = 6\nvalue = [4, 2]"] ;
670 -> 671 ;
672 [label="gini = 0.0\nsamples = 3\nvalue = [3, 0]"] ;
671 -> 672 ;
673 [label="X[6] <= 117.6\ngini = 0.444\nsamples = 3\nvalue = [1, 2]"] ;
671 -> 673 ;
674 [label="gini = 0.0\nsamples = 1\nvalue = [1, 0]"] ;
673 -> 674 ;
675 [label="gini = 0.0\nsamples = 2\nvalue = [0, 2]"] ;
673 -> 675 ;
676 [label="X[1] <= 11.34\ngini = 0.025\nsamples = 233\nvalue = [230, 3]"] ;
670 -> 676 ;
677 [label="X[1] <= 11.125\ngini = 0.245\nsamples = 7\nvalue = [6, 1]"] ;
676 -> 677 ;
678 [label="gini = 0.0\nsamples = 5\nvalue = [5, 0]"] ;
677 -> 678 ;
679 [label="X[0] <= 12.505\ngini = 0.5\nsamples = 2\nvalue = [1, 1]"] ;
677 -> 679 ;
680 [label="gini = 0.0\nsamples = 1\nvalue = [0, 1]"] ;
679 -> 680 ;
681 [label="gini = 0.0\nsamples = 1\nvalue = [1, 0]"] ;
679 -> 681 ;
682 [label="X[4] <= 58.0\ngini = 0.018\nsamples = 226\nvalue = [224, 2]"] ;
676 -> 682 ;
683 [label="gini = 0.0\nsamples = 170\nvalue = [170, 0]"] ;
682 -> 683 ;
684 [label="X[6] <= 332.81\ngini = 0.069\nsamples = 56\nvalue = [54, 2]"] ;
682 -> 684 ;
685 [label="gini = 0.0\nsamples = 2\nvalue = [0, 2]"] ;
684 -> 685 ;
686 [label="gini = 0.0\nsamples = 54\nvalue = [54, 0]"] ;
684 -> 686 ;
687 [label="X[7] <= 123.43\ngini = 0.291\nsamples = 822\nvalue = [677, 145]"] ;
669 -> 687 ;
688 [label="X[1] <= 6.5\ngini = 0.346\nsamples = 9\nvalue = [2, 7]"] ;
687 -> 688 ;
689 [label="gini = 0.0\nsamples = 1\nvalue = [1, 0]"] ;
688 -> 689 ;
690 [label="X[1] <= 7.835\ngini = 0.219\nsamples = 8\nvalue = [1, 7]"] ;
688 -> 690 ;
691 [label="gini = 0.0\nsamples = 7\nvalue = [0, 7]"] ;
690 -> 691 ;
692 [label="gini = 0.0\nsamples = 1\nvalue = [1, 0]"] ;
690 -> 692 ;
693 [label="X[1] <= 11.225\ngini = 0.282\nsamples = 813\nvalue = [675, 138]"] ;
687 -> 693 ;
694 [label="X[1] <= 8.09\ngini = 0.239\nsamples = 620\nvalue = [534, 86]"] ;
693 -> 694 ;
695 [label="X[1] <= 7.28\ngini = 0.361\nsamples = 216\nvalue = [165, 51]"] ;
694 -> 695 ;
696 [label="X[7] <= 205.725\ngini = 0.261\nsamples = 162\nvalue = [137, 25]"] ;
695 -> 696 ;
697 [label="X[7] <= 186.5\ngini = 0.18\nsamples = 130\nvalue = [117, 13]"] ;
696 -> 697 ;
698 [label="X[2] <= 983.57\ngini = 0.259\nsamples = 85\nvalue = [72, 13]"] ;
697 -> 698 ;
699 [label="X[4] <= 43.5\ngini = 0.123\nsamples = 61\nvalue = [57, 4]"] ;
698 -> 699 ;
700 [label="X[6] <= 44.89\ngini = 0.097\nsamples = 59\nvalue = [56, 3]"] ;
699 -> 700 ;
701 [label="X[6] <= 43.94\ngini = 0.204\nsamples = 26\nvalue = [23, 3]"] ;
700 -> 701 ;
702 [label="X[7] <= 139.575\ngini = 0.08\nsamples = 24\nvalue = [23, 1]"] ;
701 -> 702 ;
703 [label="gini = 0.0\nsamples = 14\nvalue = [14, 0]"] ;
702 -> 703 ;
704 [label="X[7] <= 140.98\ngini = 0.18\nsamples = 10\nvalue = [9, 1]"] ;
702 -> 704 ;
705 [label="gini = 0.0\nsamples = 1\nvalue = [0, 1]"] ;
704 -> 705 ;
706 [label="gini = 0.0\nsamples = 9\nvalue = [9, 0]"] ;
704 -> 706 ;
707 [label="gini = 0.0\nsamples = 2\nvalue = [0, 2]"] ;
701 -> 707 ;
708 [label="gini = 0.0\nsamples = 33\nvalue = [33, 0]"] ;
700 -> 708 ;
709 [label="X[6] <= 40.055\ngini = 0.5\nsamples = 2\nvalue = [1, 1]"] ;
699 -> 709 ;
710 [label="gini = 0.0\nsamples = 1\nvalue = [0, 1]"] ;
709 -> 710 ;
711 [label="gini = 0.0\nsamples = 1\nvalue = [1, 0]"] ;
709 -> 711 ;
712 [label="X[1] <= 7.175\ngini = 0.469\nsamples = 24\nvalue = [15, 9]"] ;
698 -> 712 ;
713 [label="X[1] <= 6.865\ngini = 0.49\nsamples = 21\nvalue = [12, 9]"] ;
712 -> 713 ;
714 [label="X[1] <= 6.165\ngini = 0.43\nsamples = 16\nvalue = [11, 5]"] ;
713 -> 714 ;
715 [label="X[0] <= 30.75\ngini = 0.48\nsamples = 5\nvalue = [2, 3]"] ;
714 -> 715 ;
716 [label="gini = 0.0\nsamples = 3\nvalue = [0, 3]"] ;
715 -> 716 ;
717 [label="gini = 0.0\nsamples = 2\nvalue = [2, 0]"] ;
715 -> 717 ;
718 [label="X[8] <= 7.0\ngini = 0.298\nsamples = 11\nvalue = [9, 2]"] ;
714 -> 718 ;
719 [label="X[5] <= 0.155\ngini = 0.5\nsamples = 4\nvalue = [2, 2]"] ;
718 -> 719 ;
720 [label="X[8] <= 2.5\ngini = 0.444\nsamples = 3\nvalue = [1, 2]"] ;
719 -> 720 ;
721 [label="gini = 0.0\nsamples = 1\nvalue = [0, 1]"] ;
720 -> 721 ;
722 [label="gini = 0.5\nsamples = 2\nvalue = [1, 1]"] ;
720 -> 722 ;
723 [label="gini = 0.0\nsamples = 1\nvalue = [1, 0]"] ;
719 -> 723 ;
724 [label="gini = 0.0\nsamples = 7\nvalue = [7, 0]"] ;
718 -> 724 ;
725 [label="X[6] <= 56.52\ngini = 0.32\nsamples = 5\nvalue = [1, 4]"] ;
713 -> 725 ;
726 [label="gini = 0.5\nsamples = 2\nvalue = [1, 1]"] ;
725 -> 726 ;
727 [label="gini = 0.0\nsamples = 3\nvalue = [0, 3]"] ;
725 -> 727 ;
728 [label="gini = 0.0\nsamples = 3\nvalue = [3, 0]"] ;
712 -> 728 ;
729 [label="gini = 0.0\nsamples = 45\nvalue = [45, 0]"] ;
697 -> 729 ;
730 [label="X[4] <= 52.5\ngini = 0.469\nsamples = 32\nvalue = [20, 12]"] ;
696 -> 730 ;
731 [label="X[8] <= 7.0\ngini = 0.42\nsamples = 10\nvalue = [3, 7]"] ;
730 -> 731 ;
732 [label="gini = 0.0\nsamples = 2\nvalue = [2, 0]"] ;
731 -> 732 ;
733 [label="X[0] <= 33.025\ngini = 0.219\nsamples = 8\nvalue = [1, 7]"] ;
731 -> 733 ;
734 [label="X[6] <= 77.59\ngini = 0.444\nsamples = 3\nvalue = [1, 2]"] ;
733 -> 734 ;
735 [label="gini = 0.0\nsamples = 1\nvalue = [1, 0]"] ;
734 -> 735 ;
736 [label="gini = 0.0\nsamples = 2\nvalue = [0, 2]"] ;
734 -> 736 ;
737 [label="gini = 0.0\nsamples = 5\nvalue = [0, 5]"] ;
733 -> 737 ;
738 [label="X[6] <= 127.92\ngini = 0.351\nsamples = 22\nvalue = [17, 5]"] ;
730 -> 738 ;
739 [label="X[4] <= 59.0\ngini = 0.255\nsamples = 20\nvalue = [17, 3]"] ;
738 -> 739 ;
740 [label="X[1] <= 7.075\ngini = 0.375\nsamples = 12\nvalue = [9, 3]"] ;
739 -> 740 ;
741 [label="X[2] <= 1514.605\ngini = 0.298\nsamples = 11\nvalue = [9, 2]"] ;
740 -> 741 ;
742 [label="X[6] <= 71.21\ngini = 0.5\nsamples = 4\nvalue = [2, 2]"] ;
741 -> 742 ;
743 [label="gini = 0.0\nsamples = 2\nvalue = [2, 0]"] ;
742 -> 743 ;
744 [label="gini = 0.0\nsamples = 2\nvalue = [0, 2]"] ;
742 -> 744 ;
745 [label="gini = 0.0\nsamples = 7\nvalue = [7, 0]"] ;
741 -> 745 ;
746 [label="gini = 0.0\nsamples = 1\nvalue = [0, 1]"] ;
740 -> 746 ;
747 [label="gini = 0.0\nsamples = 8\nvalue = [8, 0]"] ;
739 -> 747 ;
748 [label="gini = 0.0\nsamples = 2\nvalue = [0, 2]"] ;
738 -> 748 ;
749 [label="X[6] <= 61.26\ngini = 0.499\nsamples = 54\nvalue = [28, 26]"] ;
695 -> 749 ;
750 [label="X[0] <= 17.46\ngini = 0.305\nsamples = 16\nvalue = [3, 13]"] ;
749 -> 750 ;
751 [label="X[0] <= 16.63\ngini = 0.375\nsamples = 4\nvalue = [3, 1]"] ;
750 -> 751 ;
752 [label="gini = 0.0\nsamples = 1\nvalue = [0, 1]"] ;
751 -> 752 ;
753 [label="gini = 0.0\nsamples = 3\nvalue = [3, 0]"] ;
751 -> 753 ;
754 [label="gini = 0.0\nsamples = 12\nvalue = [0, 12]"] ;
750 -> 754 ;
755 [label="X[0] <= 45.24\ngini = 0.45\nsamples = 38\nvalue = [25, 13]"] ;
749 -> 755 ;
756 [label="X[2] <= 1743.615\ngini = 0.424\nsamples = 36\nvalue = [25, 11]"] ;
755 -> 756 ;
757 [label="X[0] <= 20.45\ngini = 0.486\nsamples = 24\nvalue = [14, 10]"] ;
756 -> 757 ;
758 [label="gini = 0.0\nsamples = 5\nvalue = [5, 0]"] ;
757 -> 758 ;
759 [label="X[3] <= 0.055\ngini = 0.499\nsamples = 19\nvalue = [9, 10]"] ;
757 -> 759 ;
760 [label="gini = 0.278\nsamples = 6\nvalue = [1, 5]"] ;
759 -> 760 ;
761 [label="X[2] <= 1621.28\ngini = 0.473\nsamples = 13\nvalue = [8, 5]"] ;
759 -> 761 ;
762 [label="X[0] <= 23.025\ngini = 0.219\nsamples = 8\nvalue = [7, 1]"] ;
761 -> 762 ;
763 [label="X[7] <= 169.105\ngini = 0.5\nsamples = 2\nvalue = [1, 1]"] ;
762 -> 763 ;
764 [label="gini = 0.0\nsamples = 1\nvalue = [1, 0]"] ;
763 -> 764 ;
765 [label="gini = 0.0\nsamples = 1\nvalue = [0, 1]"] ;
763 -> 765 ;
766 [label="gini = 0.0\nsamples = 6\nvalue = [6, 0]"] ;
762 -> 766 ;
767 [label="X[7] <= 211.065\ngini = 0.32\nsamples = 5\nvalue = [1, 4]"] ;
761 -> 767 ;
768 [label="gini = 0.444\nsamples = 3\nvalue = [1, 2]"] ;
767 -> 768 ;
769 [label="gini = 0.0\nsamples = 2\nvalue = [0, 2]"] ;
767 -> 769 ;
770 [label="X[1] <= 7.31\ngini = 0.153\nsamples = 12\nvalue = [11, 1]"] ;
756 -> 770 ;
771 [label="gini = 0.0\nsamples = 1\nvalue = [0, 1]"] ;
770 -> 771 ;
772 [label="gini = 0.0\nsamples = 11\nvalue = [11, 0]"] ;
770 -> 772 ;
773 [label="gini = 0.0\nsamples = 2\nvalue = [0, 2]"] ;
755 -> 773 ;
774 [label="X[7] <= 136.425\ngini = 0.158\nsamples = 404\nvalue = [369, 35]"] ;
694 -> 774 ;
775 [label="X[2] <= 1127.025\ngini = 0.444\nsamples = 3\nvalue = [1, 2]"] ;
774 -> 775 ;
776 [label="gini = 0.0\nsamples = 1\nvalue = [1, 0]"] ;
775 -> 776 ;
777 [label="gini = 0.0\nsamples = 2\nvalue = [0, 2]"] ;
775 -> 777 ;
778 [label="X[0] <= 29.87\ngini = 0.151\nsamples = 401\nvalue = [368, 33]"] ;
774 -> 778 ;
779 [label="X[0] <= 28.46\ngini = 0.194\nsamples = 276\nvalue = [246, 30]"] ;
778 -> 779 ;
780 [label="X[2] <= 3347.045\ngini = 0.165\nsamples = 264\nvalue = [240, 24]"] ;
779 -> 780 ;
781 [label="X[1] <= 10.92\ngini = 0.154\nsamples = 262\nvalue = [240, 22]"] ;
780 -> 781 ;
782 [label="X[1] <= 10.8\ngini = 0.188\nsamples = 209\nvalue = [187, 22]"] ;
781 -> 782 ;
783 [label="X[7] <= 217.55\ngini = 0.163\nsamples = 201\nvalue = [183, 18]"] ;
782 -> 783 ;
784 [label="X[7] <= 190.66\ngini = 0.105\nsamples = 144\nvalue = [136, 8]"] ;
783 -> 784 ;
785 [label="X[4] <= 37.5\ngini = 0.245\nsamples = 49\nvalue = [42, 7]"] ;
784 -> 785 ;
786 [label="X[0] <= 15.125\ngini = 0.069\nsamples = 28\nvalue = [27, 1]"] ;
785 -> 786 ;
787 [label="X[1] <= 9.715\ngini = 0.375\nsamples = 4\nvalue = [3, 1]"] ;
786 -> 787 ;
788 [label="gini = 0.0\nsamples = 1\nvalue = [0, 1]"] ;
787 -> 788 ;
789 [label="gini = 0.0\nsamples = 3\nvalue = [3, 0]"] ;
787 -> 789 ;
790 [label="gini = 0.0\nsamples = 24\nvalue = [24, 0]"] ;
786 -> 790 ;
791 [label="X[7] <= 171.57\ngini = 0.408\nsamples = 21\nvalue = [15, 6]"] ;
785 -> 791 ;
792 [label="X[6] <= 76.2\ngini = 0.5\nsamples = 10\nvalue = [5, 5]"] ;
791 -> 792 ;
793 [label="gini = 0.0\nsamples = 3\nvalue = [3, 0]"] ;
792 -> 793 ;
794 [label="X[8] <= 2.5\ngini = 0.408\nsamples = 7\nvalue = [2, 5]"] ;
792 -> 794 ;
795 [label="gini = 0.0\nsamples = 1\nvalue = [1, 0]"] ;
794 -> 795 ;
796 [label="X[4] <= 42.5\ngini = 0.278\nsamples = 6\nvalue = [1, 5]"] ;
794 -> 796 ;
797 [label="gini = 0.0\nsamples = 4\nvalue = [0, 4]"] ;
796 -> 797 ;
798 [label="gini = 0.5\nsamples = 2\nvalue = [1, 1]"] ;
796 -> 798 ;
799 [label="X[7] <= 189.515\ngini = 0.165\nsamples = 11\nvalue = [10, 1]"] ;
791 -> 799 ;
800 [label="gini = 0.0\nsamples = 9\nvalue = [9, 0]"] ;
799 -> 800 ;
801 [label="X[5] <= 0.11\ngini = 0.5\nsamples = 2\nvalue = [1, 1]"] ;
799 -> 801 ;
802 [label="gini = 0.0\nsamples = 1\nvalue = [0, 1]"] ;
801 -> 802 ;
803 [label="gini = 0.0\nsamples = 1\nvalue = [1, 0]"] ;
801 -> 803 ;
804 [label="X[7] <= 200.39\ngini = 0.021\nsamples = 95\nvalue = [94, 1]"] ;
784 -> 804 ;
805 [label="gini = 0.0\nsamples = 84\nvalue = [84, 0]"] ;
804 -> 805 ;
806 [label="X[7] <= 201.895\ngini = 0.165\nsamples = 11\nvalue = [10, 1]"] ;
804 -> 806 ;
807 [label="gini = 0.0\nsamples = 1\nvalue = [0, 1]"] ;
806 -> 807 ;
808 [label="gini = 0.0\nsamples = 10\nvalue = [10, 0]"] ;
806 -> 808 ;
809 [label="X[7] <= 219.065\ngini = 0.289\nsamples = 57\nvalue = [47, 10]"] ;
783 -> 809 ;
810 [label="gini = 0.0\nsamples = 2\nvalue = [0, 2]"] ;
809 -> 810 ;
811 [label="X[0] <= 23.655\ngini = 0.249\nsamples = 55\nvalue = [47, 8]"] ;
809 -> 811 ;
812 [label="X[4] <= 49.0\ngini = 0.5\nsamples = 6\nvalue = [3, 3]"] ;
811 -> 812 ;
813 [label="gini = 0.0\nsamples = 2\nvalue = [2, 0]"] ;
812 -> 813 ;
814 [label="X[9] <= 2.0\ngini = 0.375\nsamples = 4\nvalue = [1, 3]"] ;
812 -> 814 ;
815 [label="gini = 0.0\nsamples = 1\nvalue = [1, 0]"] ;
814 -> 815 ;
816 [label="gini = 0.0\nsamples = 3\nvalue = [0, 3]"] ;
814 -> 816 ;
817 [label="X[1] <= 10.48\ngini = 0.183\nsamples = 49\nvalue = [44, 5]"] ;
811 -> 817 ;
818 [label="X[4] <= 53.5\ngini = 0.108\nsamples = 35\nvalue = [33, 2]"] ;
817 -> 818 ;
819 [label="X[6] <= 132.595\ngini = 0.278\nsamples = 12\nvalue = [10, 2]"] ;
818 -> 819 ;
820 [label="X[1] <= 8.925\ngini = 0.165\nsamples = 11\nvalue = [10, 1]"] ;
819 -> 820 ;
821 [label="X[5] <= 0.115\ngini = 0.375\nsamples = 4\nvalue = [3, 1]"] ;
820 -> 821 ;
822 [label="gini = 0.0\nsamples = 1\nvalue = [0, 1]"] ;
821 -> 822 ;
823 [label="gini = 0.0\nsamples = 3\nvalue = [3, 0]"] ;
821 -> 823 ;
824 [label="gini = 0.0\nsamples = 7\nvalue = [7, 0]"] ;
820 -> 824 ;
825 [label="gini = 0.0\nsamples = 1\nvalue = [0, 1]"] ;
819 -> 825 ;
826 [label="gini = 0.0\nsamples = 23\nvalue = [23, 0]"] ;
818 -> 826 ;
827 [label="X[0] <= 24.945\ngini = 0.337\nsamples = 14\nvalue = [11, 3]"] ;
817 -> 827 ;
828 [label="gini = 0.0\nsamples = 1\nvalue = [0, 1]"] ;
827 -> 828 ;
829 [label="X[0] <= 25.075\ngini = 0.26\nsamples = 13\nvalue = [11, 2]"] ;
827 -> 829 ;
830 [label="gini = 0.0\nsamples = 7\nvalue = [7, 0]"] ;
829 -> 830 ;
831 [label="X[1] <= 10.61\ngini = 0.444\nsamples = 6\nvalue = [4, 2]"] ;
829 -> 831 ;
832 [label="gini = 0.0\nsamples = 2\nvalue = [0, 2]"] ;
831 -> 832 ;
833 [label="gini = 0.0\nsamples = 4\nvalue = [4, 0]"] ;
831 -> 833 ;
834 [label="X[4] <= 43.0\ngini = 0.5\nsamples = 8\nvalue = [4, 4]"] ;
782 -> 834 ;
835 [label="gini = 0.0\nsamples = 1\nvalue = [1, 0]"] ;
834 -> 835 ;
836 [label="X[6] <= 130.225\ngini = 0.49\nsamples = 7\nvalue = [3, 4]"] ;
834 -> 836 ;
837 [label="gini = 0.0\nsamples = 2\nvalue = [0, 2]"] ;
836 -> 837 ;
838 [label="X[4] <= 52.5\ngini = 0.48\nsamples = 5\nvalue = [3, 2]"] ;
836 -> 838 ;
839 [label="gini = 0.0\nsamples = 2\nvalue = [2, 0]"] ;
838 -> 839 ;
840 [label="X[6] <= 163.005\ngini = 0.444\nsamples = 3\nvalue = [1, 2]"] ;
838 -> 840 ;
841 [label="gini = 0.0\nsamples = 2\nvalue = [0, 2]"] ;
840 -> 841 ;
842 [label="gini = 0.0\nsamples = 1\nvalue = [1, 0]"] ;
840 -> 842 ;
843 [label="gini = 0.0\nsamples = 53\nvalue = [53, 0]"] ;
781 -> 843 ;
844 [label="gini = 0.0\nsamples = 2\nvalue = [0, 2]"] ;
780 -> 844 ;
845 [label="X[1] <= 10.755\ngini = 0.5\nsamples = 12\nvalue = [6, 6]"] ;
779 -> 845 ;
846 [label="X[8] <= 7.0\ngini = 0.444\nsamples = 9\nvalue = [3, 6]"] ;
845 -> 846 ;
847 [label="gini = 0.0\nsamples = 4\nvalue = [0, 4]"] ;
846 -> 847 ;
848 [label="X[7] <= 283.2\ngini = 0.48\nsamples = 5\nvalue = [3, 2]"] ;
846 -> 848 ;
849 [label="X[2] <= 2399.59\ngini = 0.375\nsamples = 4\nvalue = [3, 1]"] ;
848 -> 849 ;
850 [label="X[4] <= 58.0\ngini = 0.5\nsamples = 2\nvalue = [1, 1]"] ;
849 -> 850 ;
851 [label="gini = 0.0\nsamples = 1\nvalue = [1, 0]"] ;
850 -> 851 ;
852 [label="gini = 0.0\nsamples = 1\nvalue = [0, 1]"] ;
850 -> 852 ;
853 [label="gini = 0.0\nsamples = 2\nvalue = [2, 0]"] ;
849 -> 853 ;
854 [label="gini = 0.0\nsamples = 1\nvalue = [0, 1]"] ;
848 -> 854 ;
855 [label="gini = 0.0\nsamples = 3\nvalue = [3, 0]"] ;
845 -> 855 ;
856 [label="X[1] <= 11.11\ngini = 0.047\nsamples = 125\nvalue = [122, 3]"] ;
778 -> 856 ;
857 [label="X[2] <= 3824.56\ngini = 0.032\nsamples = 123\nvalue = [121, 2]"] ;
856 -> 857 ;
858 [label="X[4] <= 60.0\ngini = 0.017\nsamples = 114\nvalue = [113, 1]"] ;
857 -> 858 ;
859 [label="X[6] <= 155.975\ngini = 0.198\nsamples = 9\nvalue = [8, 1]"] ;
858 -> 859 ;
860 [label="gini = 0.0\nsamples = 8\nvalue = [8, 0]"] ;
859 -> 860 ;
861 [label="gini = 0.0\nsamples = 1\nvalue = [0, 1]"] ;
859 -> 861 ;
862 [label="gini = 0.0\nsamples = 105\nvalue = [105, 0]"] ;
858 -> 862 ;
863 [label="X[2] <= 3849.955\ngini = 0.198\nsamples = 9\nvalue = [8, 1]"] ;
857 -> 863 ;
864 [label="gini = 0.0\nsamples = 1\nvalue = [0, 1]"] ;
863 -> 864 ;
865 [label="gini = 0.0\nsamples = 8\nvalue = [8, 0]"] ;
863 -> 865 ;
866 [label="X[7] <= 372.145\ngini = 0.5\nsamples = 2\nvalue = [1, 1]"] ;
856 -> 866 ;
867 [label="gini = 0.0\nsamples = 1\nvalue = [1, 0]"] ;
866 -> 867 ;
868 [label="gini = 0.0\nsamples = 1\nvalue = [0, 1]"] ;
866 -> 868 ;
869 [label="X[0] <= 32.375\ngini = 0.394\nsamples = 193\nvalue = [141, 52]"] ;
693 -> 869 ;
870 [label="X[4] <= 74.5\ngini = 0.38\nsamples = 188\nvalue = [140, 48]"] ;
869 -> 870 ;
871 [label="X[1] <= 17.355\ngini = 0.427\nsamples = 136\nvalue = [94, 42]"] ;
870 -> 871 ;
872 [label="X[1] <= 12.67\ngini = 0.401\nsamples = 119\nvalue = [86, 33]"] ;
871 -> 872 ;
873 [label="X[9] <= 2.0\ngini = 0.483\nsamples = 44\nvalue = [26, 18]"] ;
872 -> 873 ;
874 [label="X[6] <= 208.325\ngini = 0.198\nsamples = 9\nvalue = [8, 1]"] ;
873 -> 874 ;
875 [label="gini = 0.0\nsamples = 8\nvalue = [8, 0]"] ;
874 -> 875 ;
876 [label="gini = 0.0\nsamples = 1\nvalue = [0, 1]"] ;
874 -> 876 ;
877 [label="X[4] <= 68.5\ngini = 0.5\nsamples = 35\nvalue = [18, 17]"] ;
873 -> 877 ;
878 [label="X[0] <= 24.93\ngini = 0.495\nsamples = 29\nvalue = [13, 16]"] ;
877 -> 878 ;
879 [label="X[1] <= 12.125\ngini = 0.499\nsamples = 25\nvalue = [13, 12]"] ;
878 -> 879 ;
880 [label="X[1] <= 11.94\ngini = 0.457\nsamples = 17\nvalue = [11, 6]"] ;
879 -> 880 ;
881 [label="X[0] <= 18.75\ngini = 0.497\nsamples = 13\nvalue = [7, 6]"] ;
880 -> 881 ;
882 [label="gini = 0.0\nsamples = 3\nvalue = [0, 3]"] ;
881 -> 882 ;
883 [label="X[2] <= 2948.71\ngini = 0.42\nsamples = 10\nvalue = [7, 3]"] ;
881 -> 883 ;
884 [label="gini = 0.0\nsamples = 5\nvalue = [5, 0]"] ;
883 -> 884 ;
885 [label="X[1] <= 11.565\ngini = 0.48\nsamples = 5\nvalue = [2, 3]"] ;
883 -> 885 ;
886 [label="gini = 0.0\nsamples = 2\nvalue = [2, 0]"] ;
885 -> 886 ;
887 [label="gini = 0.0\nsamples = 3\nvalue = [0, 3]"] ;
885 -> 887 ;
888 [label="gini = 0.0\nsamples = 4\nvalue = [4, 0]"] ;
880 -> 888 ;
889 [label="X[2] <= 3222.74\ngini = 0.375\nsamples = 8\nvalue = [2, 6]"] ;
879 -> 889 ;
890 [label="X[4] <= 49.5\ngini = 0.245\nsamples = 7\nvalue = [1, 6]"] ;
889 -> 890 ;
891 [label="X[3] <= 0.075\ngini = 0.444\nsamples = 3\nvalue = [1, 2]"] ;
890 -> 891 ;
892 [label="gini = 0.0\nsamples = 2\nvalue = [0, 2]"] ;
891 -> 892 ;
893 [label="gini = 0.0\nsamples = 1\nvalue = [1, 0]"] ;
891 -> 893 ;
894 [label="gini = 0.0\nsamples = 4\nvalue = [0, 4]"] ;
890 -> 894 ;
895 [label="gini = 0.0\nsamples = 1\nvalue = [1, 0]"] ;
889 -> 895 ;
896 [label="gini = 0.0\nsamples = 4\nvalue = [0, 4]"] ;
878 -> 896 ;
897 [label="X[2] <= 4049.23\ngini = 0.278\nsamples = 6\nvalue = [5, 1]"] ;
877 -> 897 ;
898 [label="gini = 0.0\nsamples = 5\nvalue = [5, 0]"] ;
897 -> 898 ;
899 [label="gini = 0.0\nsamples = 1\nvalue = [0, 1]"] ;
897 -> 899 ;
900 [label="X[0] <= 18.305\ngini = 0.32\nsamples = 75\nvalue = [60, 15]"] ;
872 -> 900 ;
901 [label="gini = 0.0\nsamples = 24\nvalue = [24, 0]"] ;
900 -> 901 ;
902 [label="X[0] <= 20.815\ngini = 0.415\nsamples = 51\nvalue = [36, 15]"] ;
900 -> 902 ;
903 [label="X[0] <= 19.79\ngini = 0.48\nsamples = 15\nvalue = [6, 9]"] ;
902 -> 903 ;
904 [label="X[4] <= 58.0\ngini = 0.375\nsamples = 8\nvalue = [6, 2]"] ;
903 -> 904 ;
905 [label="X[1] <= 13.94\ngini = 0.444\nsamples = 3\nvalue = [1, 2]"] ;
904 -> 905 ;
906 [label="gini = 0.0\nsamples = 1\nvalue = [0, 1]"] ;
905 -> 906 ;
907 [label="gini = 0.5\nsamples = 2\nvalue = [1, 1]"] ;
905 -> 907 ;
908 [label="gini = 0.0\nsamples = 5\nvalue = [5, 0]"] ;
904 -> 908 ;
909 [label="gini = 0.0\nsamples = 7\nvalue = [0, 7]"] ;
903 -> 909 ;
910 [label="X[8] <= 5.5\ngini = 0.278\nsamples = 36\nvalue = [30, 6]"] ;
902 -> 910 ;
911 [label="X[7] <= 356.97\ngini = 0.444\nsamples = 3\nvalue = [1, 2]"] ;
910 -> 911 ;
912 [label="gini = 0.0\nsamples = 2\nvalue = [0, 2]"] ;
911 -> 912 ;
913 [label="gini = 0.0\nsamples = 1\nvalue = [1, 0]"] ;
911 -> 913 ;
914 [label="X[4] <= 72.5\ngini = 0.213\nsamples = 33\nvalue = [29, 4]"] ;
910 -> 914 ;
915 [label="X[1] <= 13.76\ngini = 0.133\nsamples = 28\nvalue = [26, 2]"] ;
914 -> 915 ;
916 [label="gini = 0.0\nsamples = 18\nvalue = [18, 0]"] ;
915 -> 916 ;
917 [label="X[4] <= 65.0\ngini = 0.32\nsamples = 10\nvalue = [8, 2]"] ;
915 -> 917 ;
918 [label="gini = 0.0\nsamples = 1\nvalue = [0, 1]"] ;
917 -> 918 ;
919 [label="X[1] <= 13.965\ngini = 0.198\nsamples = 9\nvalue = [8, 1]"] ;
917 -> 919 ;
920 [label="gini = 0.0\nsamples = 1\nvalue = [0, 1]"] ;
919 -> 920 ;
921 [label="gini = 0.0\nsamples = 8\nvalue = [8, 0]"] ;
919 -> 921 ;
922 [label="X[7] <= 349.435\ngini = 0.48\nsamples = 5\nvalue = [3, 2]"] ;
914 -> 922 ;
923 [label="gini = 0.0\nsamples = 2\nvalue = [0, 2]"] ;
922 -> 923 ;
924 [label="gini = 0.0\nsamples = 3\nvalue = [3, 0]"] ;
922 -> 924 ;
925 [label="X[3] <= 0.095\ngini = 0.498\nsamples = 17\nvalue = [8, 9]"] ;
871 -> 925 ;
926 [label="gini = 0.0\nsamples = 5\nvalue = [0, 5]"] ;
925 -> 926 ;
927 [label="X[7] <= 336.335\ngini = 0.444\nsamples = 12\nvalue = [8, 4]"] ;
925 -> 927 ;
928 [label="gini = 0.0\nsamples = 6\nvalue = [6, 0]"] ;
927 -> 928 ;
929 [label="X[7] <= 348.225\ngini = 0.444\nsamples = 6\nvalue = [2, 4]"] ;
927 -> 929 ;
930 [label="X[8] <= 2.5\ngini = 0.32\nsamples = 5\nvalue = [1, 4]"] ;
929 -> 930 ;
931 [label="gini = 0.5\nsamples = 2\nvalue = [1, 1]"] ;
930 -> 931 ;
932 [label="gini = 0.0\nsamples = 3\nvalue = [0, 3]"] ;
930 -> 932 ;
933 [label="gini = 0.0\nsamples = 1\nvalue = [1, 0]"] ;
929 -> 933 ;
934 [label="X[1] <= 16.595\ngini = 0.204\nsamples = 52\nvalue = [46, 6]"] ;
870 -> 934 ;
935 [label="X[4] <= 79.5\ngini = 0.1\nsamples = 38\nvalue = [36, 2]"] ;
934 -> 935 ;
936 [label="gini = 0.0\nsamples = 20\nvalue = [20, 0]"] ;
935 -> 936 ;
937 [label="X[0] <= 31.815\ngini = 0.198\nsamples = 18\nvalue = [16, 2]"] ;
935 -> 937 ;
938 [label="X[4] <= 80.5\ngini = 0.117\nsamples = 16\nvalue = [15, 1]"] ;
937 -> 938 ;
939 [label="X[2] <= 5093.48\ngini = 0.375\nsamples = 4\nvalue = [3, 1]"] ;
938 -> 939 ;
940 [label="gini = 0.0\nsamples = 3\nvalue = [3, 0]"] ;
939 -> 940 ;
941 [label="gini = 0.0\nsamples = 1\nvalue = [0, 1]"] ;
939 -> 941 ;
942 [label="gini = 0.0\nsamples = 12\nvalue = [12, 0]"] ;
938 -> 942 ;
943 [label="gini = 0.5\nsamples = 2\nvalue = [1, 1]"] ;
937 -> 943 ;
944 [label="X[4] <= 84.5\ngini = 0.408\nsamples = 14\nvalue = [10, 4]"] ;
934 -> 944 ;
945 [label="X[4] <= 76.5\ngini = 0.49\nsamples = 7\nvalue = [3, 4]"] ;
944 -> 945 ;
946 [label="gini = 0.0\nsamples = 1\nvalue = [1, 0]"] ;
945 -> 946 ;
947 [label="X[9] <= 2.0\ngini = 0.444\nsamples = 6\nvalue = [2, 4]"] ;
945 -> 947 ;
948 [label="gini = 0.0\nsamples = 1\nvalue = [1, 0]"] ;
947 -> 948 ;
949 [label="X[4] <= 82.5\ngini = 0.32\nsamples = 5\nvalue = [1, 4]"] ;
947 -> 949 ;
950 [label="gini = 0.0\nsamples = 3\nvalue = [0, 3]"] ;
949 -> 950 ;
951 [label="X[3] <= 0.125\ngini = 0.5\nsamples = 2\nvalue = [1, 1]"] ;
949 -> 951 ;
952 [label="gini = 0.0\nsamples = 1\nvalue = [1, 0]"] ;
951 -> 952 ;
953 [label="gini = 0.0\nsamples = 1\nvalue = [0, 1]"] ;
951 -> 953 ;
954 [label="gini = 0.0\nsamples = 7\nvalue = [7, 0]"] ;
944 -> 954 ;
955 [label="X[4] <= 84.5\ngini = 0.32\nsamples = 5\nvalue = [1, 4]"] ;
869 -> 955 ;
956 [label="gini = 0.0\nsamples = 4\nvalue = [0, 4]"] ;
955 -> 956 ;
957 [label="gini = 0.0\nsamples = 1\nvalue = [1, 0]"] ;
955 -> 957 ;
958 [label="X[9] <= 2.0\ngini = 0.38\nsamples = 2950\nvalue = [2198, 752]"] ;
0 -> 958 [labeldistance=2.5, labelangle=-45, headlabel="False"] ;
959 [label="X[0] <= 50.91\ngini = 0.305\nsamples = 2107\nvalue = [1712, 395]"] ;
958 -> 959 ;
960 [label="X[4] <= 85.5\ngini = 0.255\nsamples = 1320\nvalue = [1122, 198]"] ;
959 -> 960 ;
961 [label="X[0] <= 34.09\ngini = 0.5\nsamples = 16\nvalue = [8, 8]"] ;
960 -> 961 ;
962 [label="gini = 0.0\nsamples = 5\nvalue = [5, 0]"] ;
961 -> 962 ;
963 [label="X[0] <= 42.515\ngini = 0.397\nsamples = 11\nvalue = [3, 8]"] ;
961 -> 963 ;
964 [label="X[7] <= 437.76\ngini = 0.219\nsamples = 8\nvalue = [1, 7]"] ;
963 -> 964 ;
965 [label="X[8] <= 8.5\ngini = 0.5\nsamples = 2\nvalue = [1, 1]"] ;
964 -> 965 ;
966 [label="gini = 0.0\nsamples = 1\nvalue = [1, 0]"] ;
965 -> 966 ;
967 [label="gini = 0.0\nsamples = 1\nvalue = [0, 1]"] ;
965 -> 967 ;
968 [label="gini = 0.0\nsamples = 6\nvalue = [0, 6]"] ;
964 -> 968 ;
969 [label="X[6] <= 240.585\ngini = 0.444\nsamples = 3\nvalue = [2, 1]"] ;
963 -> 969 ;
970 [label="gini = 0.0\nsamples = 1\nvalue = [0, 1]"] ;
969 -> 970 ;
971 [label="gini = 0.0\nsamples = 2\nvalue = [2, 0]"] ;
969 -> 971 ;
972 [label="X[8] <= 8.5\ngini = 0.249\nsamples = 1304\nvalue = [1114, 190]"] ;
960 -> 972 ;
973 [label="X[8] <= 5.5\ngini = 0.218\nsamples = 910\nvalue = [797, 113]"] ;
972 -> 973 ;
974 [label="X[2] <= 114268.352\ngini = 0.327\nsamples = 199\nvalue = [158, 41]"] ;
973 -> 974 ;
975 [label="X[7] <= 440.46\ngini = 0.282\nsamples = 188\nvalue = [156, 32]"] ;
974 -> 975 ;
976 [label="gini = 0.0\nsamples = 2\nvalue = [0, 2]"] ;
975 -> 976 ;
977 [label="X[8] <= 3.0\ngini = 0.271\nsamples = 186\nvalue = [156, 30]"] ;
975 -> 977 ;
978 [label="X[0] <= 46.875\ngini = 0.206\nsamples = 146\nvalue = [129, 17]"] ;
977 -> 978 ;
979 [label="X[0] <= 46.14\ngini = 0.24\nsamples = 122\nvalue = [105, 17]"] ;
978 -> 979 ;
980 [label="X[1] <= 11.195\ngini = 0.199\nsamples = 116\nvalue = [103, 13]"] ;
979 -> 980 ;
981 [label="X[0] <= 42.35\ngini = 0.5\nsamples = 2\nvalue = [1, 1]"] ;
980 -> 981 ;
982 [label="gini = 0.0\nsamples = 1\nvalue = [1, 0]"] ;
981 -> 982 ;
983 [label="gini = 0.0\nsamples = 1\nvalue = [0, 1]"] ;
981 -> 983 ;
984 [label="X[1] <= 15.235\ngini = 0.188\nsamples = 114\nvalue = [102, 12]"] ;
980 -> 984 ;
985 [label="gini = 0.0\nsamples = 29\nvalue = [29, 0]"] ;
984 -> 985 ;
986 [label="X[1] <= 15.955\ngini = 0.242\nsamples = 85\nvalue = [73, 12]"] ;
984 -> 986 ;
987 [label="X[8] <= 0.5\ngini = 0.375\nsamples = 4\nvalue = [1, 3]"] ;
986 -> 987 ;
988 [label="gini = 0.0\nsamples = 3\nvalue = [0, 3]"] ;
987 -> 988 ;
989 [label="gini = 0.0\nsamples = 1\nvalue = [1, 0]"] ;
987 -> 989 ;
990 [label="X[0] <= 44.59\ngini = 0.198\nsamples = 81\nvalue = [72, 9]"] ;
986 -> 990 ;
991 [label="X[0] <= 38.955\ngini = 0.171\nsamples = 74\nvalue = [67, 7]"] ;
990 -> 991 ;
992 [label="X[0] <= 38.22\ngini = 0.212\nsamples = 58\nvalue = [51, 7]"] ;
991 -> 992 ;
993 [label="X[6] <= 1427.87\ngini = 0.188\nsamples = 57\nvalue = [51, 6]"] ;
992 -> 993 ;
994 [label="X[2] <= 13063.03\ngini = 0.147\nsamples = 50\nvalue = [46, 4]"] ;
993 -> 994 ;
995 [label="X[4] <= 116.5\ngini = 0.252\nsamples = 27\nvalue = [23, 4]"] ;
994 -> 995 ;
996 [label="X[0] <= 27.69\ngini = 0.147\nsamples = 25\nvalue = [23, 2]"] ;
995 -> 996 ;
997 [label="gini = 0.0\nsamples = 12\nvalue = [12, 0]"] ;
996 -> 997 ;
998 [label="X[0] <= 28.38\ngini = 0.26\nsamples = 13\nvalue = [11, 2]"] ;
996 -> 998 ;
999 [label="gini = 0.0\nsamples = 1\nvalue = [0, 1]"] ;
998 -> 999 ;
1000 [label="X[1] <= 18.96\ngini = 0.153\nsamples = 12\nvalue = [11, 1]"] ;
998 -> 1000 ;
1001 [label="gini = 0.0\nsamples = 11\nvalue = [11, 0]"] ;
1000 -> 1001 ;
1002 [label="gini = 0.0\nsamples = 1\nvalue = [0, 1]"] ;
1000 -> 1002 ;
1003 [label="gini = 0.0\nsamples = 2\nvalue = [0, 2]"] ;
995 -> 1003 ;
1004 [label="gini = 0.0\nsamples = 23\nvalue = [23, 0]"] ;
994 -> 1004 ;
1005 [label="X[7] <= 1054.13\ngini = 0.408\nsamples = 7\nvalue = [5, 2]"] ;
993 -> 1005 ;
1006 [label="gini = 0.0\nsamples = 2\nvalue = [0, 2]"] ;
1005 -> 1006 ;
1007 [label="gini = 0.0\nsamples = 5\nvalue = [5, 0]"] ;
1005 -> 1007 ;
1008 [label="gini = 0.0\nsamples = 1\nvalue = [0, 1]"] ;
992 -> 1008 ;
1009 [label="gini = 0.0\nsamples = 16\nvalue = [16, 0]"] ;
991 -> 1009 ;
1010 [label="X[0] <= 45.2\ngini = 0.408\nsamples = 7\nvalue = [5, 2]"] ;
990 -> 1010 ;
1011 [label="gini = 0.0\nsamples = 2\nvalue = [0, 2]"] ;
1010 -> 1011 ;
1012 [label="gini = 0.0\nsamples = 5\nvalue = [5, 0]"] ;
1010 -> 1012 ;
1013 [label="X[7] <= 690.855\ngini = 0.444\nsamples = 6\nvalue = [2, 4]"] ;
979 -> 1013 ;
1014 [label="gini = 0.0\nsamples = 3\nvalue = [0, 3]"] ;
1013 -> 1014 ;
1015 [label="X[5] <= 0.045\ngini = 0.444\nsamples = 3\nvalue = [2, 1]"] ;
1013 -> 1015 ;
1016 [label="gini = 0.0\nsamples = 1\nvalue = [0, 1]"] ;
1015 -> 1016 ;
1017 [label="gini = 0.0\nsamples = 2\nvalue = [2, 0]"] ;
1015 -> 1017 ;
1018 [label="gini = 0.0\nsamples = 24\nvalue = [24, 0]"] ;
978 -> 1018 ;
1019 [label="X[0] <= 28.28\ngini = 0.439\nsamples = 40\nvalue = [27, 13]"] ;
977 -> 1019 ;
1020 [label="X[2] <= 20045.85\ngini = 0.291\nsamples = 17\nvalue = [14, 3]"] ;
1019 -> 1020 ;
1021 [label="gini = 0.0\nsamples = 7\nvalue = [7, 0]"] ;
1020 -> 1021 ;
1022 [label="X[3] <= 0.265\ngini = 0.42\nsamples = 10\nvalue = [7, 3]"] ;
1020 -> 1022 ;
1023 [label="X[4] <= 116.5\ngini = 0.5\nsamples = 6\nvalue = [3, 3]"] ;
1022 -> 1023 ;
1024 [label="gini = 0.0\nsamples = 1\nvalue = [1, 0]"] ;
1023 -> 1024 ;
1025 [label="X[1] <= 35.39\ngini = 0.48\nsamples = 5\nvalue = [2, 3]"] ;
1023 -> 1025 ;
1026 [label="X[0] <= 23.68\ngini = 0.444\nsamples = 3\nvalue = [2, 1]"] ;
1025 -> 1026 ;
1027 [label="gini = 0.0\nsamples = 2\nvalue = [2, 0]"] ;
1026 -> 1027 ;
1028 [label="gini = 0.0\nsamples = 1\nvalue = [0, 1]"] ;
1026 -> 1028 ;
1029 [label="gini = 0.0\nsamples = 2\nvalue = [0, 2]"] ;
1025 -> 1029 ;
1030 [label="gini = 0.0\nsamples = 4\nvalue = [4, 0]"] ;
1022 -> 1030 ;
1031 [label="X[4] <= 100.0\ngini = 0.491\nsamples = 23\nvalue = [13, 10]"] ;
1019 -> 1031 ;
1032 [label="gini = 0.0\nsamples = 3\nvalue = [3, 0]"] ;
1031 -> 1032 ;
1033 [label="X[4] <= 104.5\ngini = 0.5\nsamples = 20\nvalue = [10, 10]"] ;
1031 -> 1033 ;
1034 [label="gini = 0.0\nsamples = 2\nvalue = [0, 2]"] ;
1033 -> 1034 ;
1035 [label="X[6] <= 3775.205\ngini = 0.494\nsamples = 18\nvalue = [10, 8]"] ;
1033 -> 1035 ;
1036 [label="X[7] <= 1155.0\ngini = 0.5\nsamples = 16\nvalue = [8, 8]"] ;
1035 -> 1036 ;
1037 [label="X[4] <= 171.0\ngini = 0.473\nsamples = 13\nvalue = [8, 5]"] ;
1036 -> 1037 ;
1038 [label="X[1] <= 20.955\ngini = 0.494\nsamples = 9\nvalue = [4, 5]"] ;
1037 -> 1038 ;
1039 [label="X[1] <= 17.195\ngini = 0.32\nsamples = 5\nvalue = [4, 1]"] ;
1038 -> 1039 ;
1040 [label="gini = 0.0\nsamples = 1\nvalue = [0, 1]"] ;
1039 -> 1040 ;
1041 [label="gini = 0.0\nsamples = 4\nvalue = [4, 0]"] ;
1039 -> 1041 ;
1042 [label="gini = 0.0\nsamples = 4\nvalue = [0, 4]"] ;
1038 -> 1042 ;
1043 [label="gini = 0.0\nsamples = 4\nvalue = [4, 0]"] ;
1037 -> 1043 ;
1044 [label="gini = 0.0\nsamples = 3\nvalue = [0, 3]"] ;
1036 -> 1044 ;
1045 [label="gini = 0.0\nsamples = 2\nvalue = [2, 0]"] ;
1035 -> 1045 ;
1046 [label="X[0] <= 46.0\ngini = 0.298\nsamples = 11\nvalue = [2, 9]"] ;
974 -> 1046 ;
1047 [label="gini = 0.0\nsamples = 8\nvalue = [0, 8]"] ;
1046 -> 1047 ;
1048 [label="X[6] <= 7874.235\ngini = 0.444\nsamples = 3\nvalue = [2, 1]"] ;
1046 -> 1048 ;
1049 [label="gini = 0.0\nsamples = 1\nvalue = [0, 1]"] ;
1048 -> 1049 ;
1050 [label="gini = 0.0\nsamples = 2\nvalue = [2, 0]"] ;
1048 -> 1050 ;
1051 [label="X[0] <= 34.785\ngini = 0.182\nsamples = 711\nvalue = [639, 72]"] ;
973 -> 1051 ;
1052 [label="X[4] <= 86.5\ngini = 0.092\nsamples = 353\nvalue = [336, 17]"] ;
1051 -> 1052 ;
1053 [label="X[1] <= 14.615\ngini = 0.5\nsamples = 4\nvalue = [2, 2]"] ;
1052 -> 1053 ;
1054 [label="gini = 0.0\nsamples = 2\nvalue = [2, 0]"] ;
1053 -> 1054 ;
1055 [label="gini = 0.0\nsamples = 2\nvalue = [0, 2]"] ;
1053 -> 1055 ;
1056 [label="X[7] <= 812.525\ngini = 0.082\nsamples = 349\nvalue = [334, 15]"] ;
1052 -> 1056 ;
1057 [label="X[4] <= 96.5\ngini = 0.052\nsamples = 261\nvalue = [254, 7]"] ;
1056 -> 1057 ;
1058 [label="X[7] <= 505.76\ngini = 0.131\nsamples = 71\nvalue = [66, 5]"] ;
1057 -> 1058 ;
1059 [label="X[8] <= 7.5\ngini = 0.083\nsamples = 69\nvalue = [66, 3]"] ;
1058 -> 1059 ;
1060 [label="gini = 0.0\nsamples = 40\nvalue = [40, 0]"] ;
1059 -> 1060 ;
1061 [label="X[7] <= 455.735\ngini = 0.185\nsamples = 29\nvalue = [26, 3]"] ;
1059 -> 1061 ;
1062 [label="gini = 0.0\nsamples = 12\nvalue = [12, 0]"] ;
1061 -> 1062 ;
1063 [label="X[2] <= 6791.415\ngini = 0.291\nsamples = 17\nvalue = [14, 3]"] ;
1061 -> 1063 ;
1064 [label="gini = 0.0\nsamples = 1\nvalue = [0, 1]"] ;
1063 -> 1064 ;
1065 [label="X[7] <= 458.99\ngini = 0.219\nsamples = 16\nvalue = [14, 2]"] ;
1063 -> 1065 ;
1066 [label="gini = 0.0\nsamples = 1\nvalue = [0, 1]"] ;
1065 -> 1066 ;
1067 [label="X[7] <= 473.03\ngini = 0.124\nsamples = 15\nvalue = [14, 1]"] ;
1065 -> 1067 ;
1068 [label="X[2] <= 9675.86\ngini = 0.32\nsamples = 5\nvalue = [4, 1]"] ;
1067 -> 1068 ;
1069 [label="gini = 0.0\nsamples = 1\nvalue = [0, 1]"] ;
1068 -> 1069 ;
1070 [label="gini = 0.0\nsamples = 4\nvalue = [4, 0]"] ;
1068 -> 1070 ;
1071 [label="gini = 0.0\nsamples = 10\nvalue = [10, 0]"] ;
1067 -> 1071 ;
1072 [label="gini = 0.0\nsamples = 2\nvalue = [0, 2]"] ;
1058 -> 1072 ;
1073 [label="X[7] <= 649.79\ngini = 0.021\nsamples = 190\nvalue = [188, 2]"] ;
1057 -> 1073 ;
1074 [label="gini = 0.0\nsamples = 128\nvalue = [128, 0]"] ;
1073 -> 1074 ;
1075 [label="X[1] <= 20.39\ngini = 0.062\nsamples = 62\nvalue = [60, 2]"] ;
1073 -> 1075 ;
1076 [label="gini = 0.0\nsamples = 1\nvalue = [0, 1]"] ;
1075 -> 1076 ;
1077 [label="X[7] <= 772.415\ngini = 0.032\nsamples = 61\nvalue = [60, 1]"] ;
1075 -> 1077 ;
1078 [label="gini = 0.0\nsamples = 39\nvalue = [39, 0]"] ;
1077 -> 1078 ;
1079 [label="X[7] <= 778.33\ngini = 0.087\nsamples = 22\nvalue = [21, 1]"] ;
1077 -> 1079 ;
1080 [label="gini = 0.5\nsamples = 2\nvalue = [1, 1]"] ;
1079 -> 1080 ;
1081 [label="gini = 0.0\nsamples = 20\nvalue = [20, 0]"] ;
1079 -> 1081 ;
1082 [label="X[7] <= 817.17\ngini = 0.165\nsamples = 88\nvalue = [80, 8]"] ;
1056 -> 1082 ;
1083 [label="gini = 0.0\nsamples = 1\nvalue = [0, 1]"] ;
1082 -> 1083 ;
1084 [label="X[6] <= 1138.81\ngini = 0.148\nsamples = 87\nvalue = [80, 7]"] ;
1082 -> 1084 ;
1085 [label="gini = 0.0\nsamples = 1\nvalue = [0, 1]"] ;
1084 -> 1085 ;
1086 [label="X[0] <= 28.925\ngini = 0.13\nsamples = 86\nvalue = [80, 6]"] ;
1084 -> 1086 ;
1087 [label="X[0] <= 28.81\ngini = 0.229\nsamples = 38\nvalue = [33, 5]"] ;
1086 -> 1087 ;
1088 [label="X[4] <= 218.5\ngini = 0.193\nsamples = 37\nvalue = [33, 4]"] ;
1087 -> 1088 ;
1089 [label="X[4] <= 190.0\ngini = 0.346\nsamples = 18\nvalue = [14, 4]"] ;
1088 -> 1089 ;
1090 [label="X[0] <= 27.945\ngini = 0.133\nsamples = 14\nvalue = [13, 1]"] ;
1089 -> 1090 ;
1091 [label="gini = 0.0\nsamples = 11\nvalue = [11, 0]"] ;
1090 -> 1091 ;
1092 [label="X[0] <= 28.34\ngini = 0.444\nsamples = 3\nvalue = [2, 1]"] ;
1090 -> 1092 ;
1093 [label="gini = 0.0\nsamples = 1\nvalue = [0, 1]"] ;
1092 -> 1093 ;
1094 [label="gini = 0.0\nsamples = 2\nvalue = [2, 0]"] ;
1092 -> 1094 ;
1095 [label="X[1] <= 45.18\ngini = 0.375\nsamples = 4\nvalue = [1, 3]"] ;
1089 -> 1095 ;
1096 [label="gini = 0.0\nsamples = 3\nvalue = [0, 3]"] ;
1095 -> 1096 ;
1097 [label="gini = 0.0\nsamples = 1\nvalue = [1, 0]"] ;
1095 -> 1097 ;
1098 [label="gini = 0.0\nsamples = 19\nvalue = [19, 0]"] ;
1088 -> 1098 ;
1099 [label="gini = 0.0\nsamples = 1\nvalue = [0, 1]"] ;
1087 -> 1099 ;
1100 [label="X[7] <= 1473.645\ngini = 0.041\nsamples = 48\nvalue = [47, 1]"] ;
1086 -> 1100 ;
1101 [label="gini = 0.0\nsamples = 44\nvalue = [44, 0]"] ;
1100 -> 1101 ;
1102 [label="X[2] <= 68950.547\ngini = 0.375\nsamples = 4\nvalue = [3, 1]"] ;
1100 -> 1102 ;
1103 [label="gini = 0.0\nsamples = 1\nvalue = [0, 1]"] ;
1102 -> 1103 ;
1104 [label="gini = 0.0\nsamples = 3\nvalue = [3, 0]"] ;
1102 -> 1104 ;
1105 [label="X[8] <= 7.5\ngini = 0.26\nsamples = 358\nvalue = [303, 55]"] ;
1051 -> 1105 ;
1106 [label="X[3] <= 2.37\ngini = 0.195\nsamples = 183\nvalue = [163, 20]"] ;
1105 -> 1106 ;
1107 [label="X[0] <= 34.81\ngini = 0.187\nsamples = 182\nvalue = [163, 19]"] ;
1106 -> 1107 ;
1108 [label="gini = 0.0\nsamples = 1\nvalue = [0, 1]"] ;
1107 -> 1108 ;
1109 [label="X[4] <= 121.0\ngini = 0.179\nsamples = 181\nvalue = [163, 18]"] ;
1107 -> 1109 ;
1110 [label="X[7] <= 526.4\ngini = 0.278\nsamples = 66\nvalue = [55, 11]"] ;
1109 -> 1110 ;
1111 [label="X[4] <= 90.5\ngini = 0.083\nsamples = 23\nvalue = [22, 1]"] ;
1110 -> 1111 ;
1112 [label="X[7] <= 480.575\ngini = 0.32\nsamples = 5\nvalue = [4, 1]"] ;
1111 -> 1112 ;
1113 [label="gini = 0.0\nsamples = 4\nvalue = [4, 0]"] ;
1112 -> 1113 ;
1114 [label="gini = 0.0\nsamples = 1\nvalue = [0, 1]"] ;
1112 -> 1114 ;
1115 [label="gini = 0.0\nsamples = 18\nvalue = [18, 0]"] ;
1111 -> 1115 ;
1116 [label="X[4] <= 104.5\ngini = 0.357\nsamples = 43\nvalue = [33, 10]"] ;
1110 -> 1116 ;
1117 [label="X[2] <= 6865.38\ngini = 0.5\nsamples = 10\nvalue = [5, 5]"] ;
1116 -> 1117 ;
1118 [label="gini = 0.0\nsamples = 2\nvalue = [0, 2]"] ;
1117 -> 1118 ;
1119 [label="X[0] <= 40.885\ngini = 0.469\nsamples = 8\nvalue = [5, 3]"] ;
1117 -> 1119 ;
1120 [label="X[7] <= 545.88\ngini = 0.5\nsamples = 6\nvalue = [3, 3]"] ;
1119 -> 1120 ;
1121 [label="X[1] <= 13.935\ngini = 0.48\nsamples = 5\nvalue = [3, 2]"] ;
1120 -> 1121 ;
1122 [label="gini = 0.0\nsamples = 1\nvalue = [1, 0]"] ;
1121 -> 1122 ;
1123 [label="X[0] <= 37.79\ngini = 0.5\nsamples = 4\nvalue = [2, 2]"] ;
1121 -> 1123 ;
1124 [label="gini = 0.5\nsamples = 2\nvalue = [1, 1]"] ;
1123 -> 1124 ;
1125 [label="gini = 0.5\nsamples = 2\nvalue = [1, 1]"] ;
1123 -> 1125 ;
1126 [label="gini = 0.0\nsamples = 1\nvalue = [0, 1]"] ;
1120 -> 1126 ;
1127 [label="gini = 0.0\nsamples = 2\nvalue = [2, 0]"] ;
1119 -> 1127 ;
1128 [label="X[0] <= 49.76\ngini = 0.257\nsamples = 33\nvalue = [28, 5]"] ;
1116 -> 1128 ;
1129 [label="X[0] <= 37.22\ngini = 0.219\nsamples = 32\nvalue = [28, 4]"] ;
1128 -> 1129 ;
1130 [label="X[0] <= 35.94\ngini = 0.469\nsamples = 8\nvalue = [5, 3]"] ;
1129 -> 1130 ;
1131 [label="gini = 0.0\nsamples = 5\nvalue = [5, 0]"] ;
1130 -> 1131 ;
1132 [label="gini = 0.0\nsamples = 3\nvalue = [0, 3]"] ;
1130 -> 1132 ;
1133 [label="X[7] <= 602.625\ngini = 0.08\nsamples = 24\nvalue = [23, 1]"] ;
1129 -> 1133 ;
1134 [label="gini = 0.0\nsamples = 19\nvalue = [19, 0]"] ;
1133 -> 1134 ;
1135 [label="X[2] <= 8695.11\ngini = 0.32\nsamples = 5\nvalue = [4, 1]"] ;
1133 -> 1135 ;
1136 [label="gini = 0.0\nsamples = 1\nvalue = [0, 1]"] ;
1135 -> 1136 ;
1137 [label="gini = 0.0\nsamples = 4\nvalue = [4, 0]"] ;
1135 -> 1137 ;
1138 [label="gini = 0.0\nsamples = 1\nvalue = [0, 1]"] ;
1128 -> 1138 ;
1139 [label="X[0] <= 44.87\ngini = 0.114\nsamples = 115\nvalue = [108, 7]"] ;
1109 -> 1139 ;
1140 [label="X[0] <= 44.595\ngini = 0.182\nsamples = 69\nvalue = [62, 7]"] ;
1139 -> 1140 ;
1141 [label="X[0] <= 43.77\ngini = 0.161\nsamples = 68\nvalue = [62, 6]"] ;
1140 -> 1141 ;
1142 [label="X[4] <= 165.5\ngini = 0.103\nsamples = 55\nvalue = [52, 3]"] ;
1141 -> 1142 ;
1143 [label="gini = 0.0\nsamples = 29\nvalue = [29, 0]"] ;
1142 -> 1143 ;
1144 [label="X[4] <= 167.0\ngini = 0.204\nsamples = 26\nvalue = [23, 3]"] ;
1142 -> 1144 ;
1145 [label="gini = 0.0\nsamples = 1\nvalue = [0, 1]"] ;
1144 -> 1145 ;
1146 [label="X[4] <= 189.5\ngini = 0.147\nsamples = 25\nvalue = [23, 2]"] ;
1144 -> 1146 ;
1147 [label="X[2] <= 28295.63\ngini = 0.346\nsamples = 9\nvalue = [7, 2]"] ;
1146 -> 1147 ;
1148 [label="gini = 0.0\nsamples = 7\nvalue = [7, 0]"] ;
1147 -> 1148 ;
1149 [label="gini = 0.0\nsamples = 2\nvalue = [0, 2]"] ;
1147 -> 1149 ;
1150 [label="gini = 0.0\nsamples = 16\nvalue = [16, 0]"] ;
1146 -> 1150 ;
1151 [label="X[0] <= 43.95\ngini = 0.355\nsamples = 13\nvalue = [10, 3]"] ;
1141 -> 1151 ;
1152 [label="X[4] <= 252.5\ngini = 0.375\nsamples = 4\nvalue = [1, 3]"] ;
1151 -> 1152 ;
1153 [label="gini = 0.0\nsamples = 3\nvalue = [0, 3]"] ;
1152 -> 1153 ;
1154 [label="gini = 0.0\nsamples = 1\nvalue = [1, 0]"] ;
1152 -> 1154 ;
1155 [label="gini = 0.0\nsamples = 9\nvalue = [9, 0]"] ;
1151 -> 1155 ;
1156 [label="gini = 0.0\nsamples = 1\nvalue = [0, 1]"] ;
1140 -> 1156 ;
1157 [label="gini = 0.0\nsamples = 46\nvalue = [46, 0]"] ;
1139 -> 1157 ;
1158 [label="gini = 0.0\nsamples = 1\nvalue = [0, 1]"] ;
1106 -> 1158 ;
1159 [label="X[0] <= 35.62\ngini = 0.32\nsamples = 175\nvalue = [140, 35]"] ;
1105 -> 1159 ;
1160 [label="X[0] <= 35.325\ngini = 0.497\nsamples = 13\nvalue = [7, 6]"] ;
1159 -> 1160 ;
1161 [label="X[2] <= 9594.575\ngini = 0.346\nsamples = 9\nvalue = [7, 2]"] ;
1160 -> 1161 ;
1162 [label="gini = 0.0\nsamples = 3\nvalue = [3, 0]"] ;
1161 -> 1162 ;
1163 [label="X[4] <= 116.0\ngini = 0.444\nsamples = 6\nvalue = [4, 2]"] ;
1161 -> 1163 ;
1164 [label="gini = 0.0\nsamples = 1\nvalue = [0, 1]"] ;
1163 -> 1164 ;
1165 [label="X[2] <= 26038.795\ngini = 0.32\nsamples = 5\nvalue = [4, 1]"] ;
1163 -> 1165 ;
1166 [label="gini = 0.0\nsamples = 3\nvalue = [3, 0]"] ;
1165 -> 1166 ;
1167 [label="X[1] <= 35.755\ngini = 0.5\nsamples = 2\nvalue = [1, 1]"] ;
1165 -> 1167 ;
1168 [label="gini = 0.0\nsamples = 1\nvalue = [0, 1]"] ;
1167 -> 1168 ;
1169 [label="gini = 0.0\nsamples = 1\nvalue = [1, 0]"] ;
1167 -> 1169 ;
1170 [label="gini = 0.0\nsamples = 4\nvalue = [0, 4]"] ;
1160 -> 1170 ;
1171 [label="X[0] <= 44.095\ngini = 0.294\nsamples = 162\nvalue = [133, 29]"] ;
1159 -> 1171 ;
1172 [label="X[1] <= 15.165\ngini = 0.229\nsamples = 91\nvalue = [79, 12]"] ;
1171 -> 1172 ;
1173 [label="X[4] <= 114.5\ngini = 0.366\nsamples = 29\nvalue = [22, 7]"] ;
1172 -> 1173 ;
1174 [label="X[4] <= 103.5\ngini = 0.278\nsamples = 24\nvalue = [20, 4]"] ;
1173 -> 1174 ;
1175 [label="X[1] <= 13.435\ngini = 0.426\nsamples = 13\nvalue = [9, 4]"] ;
1174 -> 1175 ;
1176 [label="X[0] <= 41.88\ngini = 0.18\nsamples = 10\nvalue = [9, 1]"] ;
1175 -> 1176 ;
1177 [label="gini = 0.0\nsamples = 7\nvalue = [7, 0]"] ;
1176 -> 1177 ;
1178 [label="X[1] <= 11.36\ngini = 0.444\nsamples = 3\nvalue = [2, 1]"] ;
1176 -> 1178 ;
1179 [label="gini = 0.0\nsamples = 2\nvalue = [2, 0]"] ;
1178 -> 1179 ;
1180 [label="gini = 0.0\nsamples = 1\nvalue = [0, 1]"] ;
1178 -> 1180 ;
1181 [label="gini = 0.0\nsamples = 3\nvalue = [0, 3]"] ;
1175 -> 1181 ;
1182 [label="gini = 0.0\nsamples = 11\nvalue = [11, 0]"] ;
1174 -> 1182 ;
1183 [label="X[3] <= 0.185\ngini = 0.48\nsamples = 5\nvalue = [2, 3]"] ;
1173 -> 1183 ;
1184 [label="gini = 0.0\nsamples = 2\nvalue = [2, 0]"] ;
1183 -> 1184 ;
1185 [label="gini = 0.0\nsamples = 3\nvalue = [0, 3]"] ;
1183 -> 1185 ;
1186 [label="X[0] <= 42.45\ngini = 0.148\nsamples = 62\nvalue = [57, 5]"] ;
1172 -> 1186 ;
1187 [label="X[0] <= 42.415\ngini = 0.19\nsamples = 47\nvalue = [42, 5]"] ;
1186 -> 1187 ;
1188 [label="X[0] <= 41.67\ngini = 0.159\nsamples = 46\nvalue = [42, 4]"] ;
1187 -> 1188 ;
1189 [label="X[1] <= 27.26\ngini = 0.097\nsamples = 39\nvalue = [37, 2]"] ;
1188 -> 1189 ;
1190 [label="gini = 0.0\nsamples = 26\nvalue = [26, 0]"] ;
1189 -> 1190 ;
1191 [label="X[2] <= 28310.435\ngini = 0.26\nsamples = 13\nvalue = [11, 2]"] ;
1189 -> 1191 ;
1192 [label="gini = 0.0\nsamples = 1\nvalue = [0, 1]"] ;
1191 -> 1192 ;
1193 [label="X[0] <= 39.095\ngini = 0.153\nsamples = 12\nvalue = [11, 1]"] ;
1191 -> 1193 ;
1194 [label="gini = 0.0\nsamples = 8\nvalue = [8, 0]"] ;
1193 -> 1194 ;
1195 [label="X[0] <= 39.85\ngini = 0.375\nsamples = 4\nvalue = [3, 1]"] ;
1193 -> 1195 ;
1196 [label="gini = 0.0\nsamples = 1\nvalue = [0, 1]"] ;
1195 -> 1196 ;
1197 [label="gini = 0.0\nsamples = 3\nvalue = [3, 0]"] ;
1195 -> 1197 ;
1198 [label="X[0] <= 41.74\ngini = 0.408\nsamples = 7\nvalue = [5, 2]"] ;
1188 -> 1198 ;
1199 [label="gini = 0.0\nsamples = 1\nvalue = [0, 1]"] ;
1198 -> 1199 ;
1200 [label="X[0] <= 42.05\ngini = 0.278\nsamples = 6\nvalue = [5, 1]"] ;
1198 -> 1200 ;
1201 [label="gini = 0.0\nsamples = 3\nvalue = [3, 0]"] ;
1200 -> 1201 ;
1202 [label="X[4] <= 140.5\ngini = 0.444\nsamples = 3\nvalue = [2, 1]"] ;
1200 -> 1202 ;
1203 [label="gini = 0.0\nsamples = 2\nvalue = [2, 0]"] ;
1202 -> 1203 ;
1204 [label="gini = 0.0\nsamples = 1\nvalue = [0, 1]"] ;
1202 -> 1204 ;
1205 [label="gini = 0.0\nsamples = 1\nvalue = [0, 1]"] ;
1187 -> 1205 ;
1206 [label="gini = 0.0\nsamples = 15\nvalue = [15, 0]"] ;
1186 -> 1206 ;
1207 [label="X[4] <= 134.5\ngini = 0.364\nsamples = 71\nvalue = [54, 17]"] ;
1171 -> 1207 ;
1208 [label="X[7] <= 566.455\ngini = 0.133\nsamples = 28\nvalue = [26, 2]"] ;
1207 -> 1208 ;
1209 [label="X[6] <= 314.695\ngini = 0.32\nsamples = 10\nvalue = [8, 2]"] ;
1208 -> 1209 ;
1210 [label="gini = 0.0\nsamples = 8\nvalue = [8, 0]"] ;
1209 -> 1210 ;
1211 [label="gini = 0.0\nsamples = 2\nvalue = [0, 2]"] ;
1209 -> 1211 ;
1212 [label="gini = 0.0\nsamples = 18\nvalue = [18, 0]"] ;
1208 -> 1212 ;
1213 [label="X[4] <= 156.0\ngini = 0.454\nsamples = 43\nvalue = [28, 15]"] ;
1207 -> 1213 ;
1214 [label="X[1] <= 17.305\ngini = 0.42\nsamples = 10\nvalue = [3, 7]"] ;
1213 -> 1214 ;
1215 [label="X[4] <= 135.5\ngini = 0.5\nsamples = 6\nvalue = [3, 3]"] ;
1214 -> 1215 ;
1216 [label="gini = 0.0\nsamples = 3\nvalue = [0, 3]"] ;
1215 -> 1216 ;
1217 [label="gini = 0.0\nsamples = 3\nvalue = [3, 0]"] ;
1215 -> 1217 ;
1218 [label="gini = 0.0\nsamples = 4\nvalue = [0, 4]"] ;
1214 -> 1218 ;
1219 [label="X[0] <= 46.895\ngini = 0.367\nsamples = 33\nvalue = [25, 8]"] ;
1213 -> 1219 ;
1220 [label="X[6] <= 3205.64\ngini = 0.496\nsamples = 11\nvalue = [5, 6]"] ;
1219 -> 1220 ;
1221 [label="X[7] <= 958.05\ngini = 0.278\nsamples = 6\nvalue = [1, 5]"] ;
1220 -> 1221 ;
1222 [label="gini = 0.0\nsamples = 1\nvalue = [1, 0]"] ;
1221 -> 1222 ;
1223 [label="gini = 0.0\nsamples = 5\nvalue = [0, 5]"] ;
1221 -> 1223 ;
1224 [label="X[0] <= 45.655\ngini = 0.32\nsamples = 5\nvalue = [4, 1]"] ;
1220 -> 1224 ;
1225 [label="gini = 0.0\nsamples = 3\nvalue = [3, 0]"] ;
1224 -> 1225 ;
1226 [label="X[6] <= 23344.65\ngini = 0.5\nsamples = 2\nvalue = [1, 1]"] ;
1224 -> 1226 ;
1227 [label="gini = 0.0\nsamples = 1\nvalue = [0, 1]"] ;
1226 -> 1227 ;
1228 [label="gini = 0.0\nsamples = 1\nvalue = [1, 0]"] ;
1226 -> 1228 ;
1229 [label="X[0] <= 47.915\ngini = 0.165\nsamples = 22\nvalue = [20, 2]"] ;
1219 -> 1229 ;
1230 [label="gini = 0.0\nsamples = 7\nvalue = [7, 0]"] ;
1229 -> 1230 ;
1231 [label="X[0] <= 48.07\ngini = 0.231\nsamples = 15\nvalue = [13, 2]"] ;
1229 -> 1231 ;
1232 [label="gini = 0.0\nsamples = 1\nvalue = [0, 1]"] ;
1231 -> 1232 ;
1233 [label="X[4] <= 180.5\ngini = 0.133\nsamples = 14\nvalue = [13, 1]"] ;
1231 -> 1233 ;
1234 [label="X[7] <= 1021.93\ngini = 0.32\nsamples = 5\nvalue = [4, 1]"] ;
1233 -> 1234 ;
1235 [label="gini = 0.0\nsamples = 4\nvalue = [4, 0]"] ;
1234 -> 1235 ;
1236 [label="gini = 0.0\nsamples = 1\nvalue = [0, 1]"] ;
1234 -> 1236 ;
1237 [label="gini = 0.0\nsamples = 9\nvalue = [9, 0]"] ;
1233 -> 1237 ;
1238 [label="X[1] <= 16.945\ngini = 0.314\nsamples = 394\nvalue = [317, 77]"] ;
972 -> 1238 ;
1239 [label="X[1] <= 15.895\ngini = 0.478\nsamples = 38\nvalue = [23, 15]"] ;
1238 -> 1239 ;
1240 [label="X[0] <= 40.555\ngini = 0.408\nsamples = 28\nvalue = [20, 8]"] ;
1239 -> 1240 ;
1241 [label="X[0] <= 30.575\ngini = 0.266\nsamples = 19\nvalue = [16, 3]"] ;
1240 -> 1241 ;
1242 [label="X[5] <= 0.065\ngini = 0.444\nsamples = 3\nvalue = [1, 2]"] ;
1241 -> 1242 ;
1243 [label="gini = 0.0\nsamples = 1\nvalue = [1, 0]"] ;
1242 -> 1243 ;
1244 [label="gini = 0.0\nsamples = 2\nvalue = [0, 2]"] ;
1242 -> 1244 ;
1245 [label="X[1] <= 15.175\ngini = 0.117\nsamples = 16\nvalue = [15, 1]"] ;
1241 -> 1245 ;
1246 [label="gini = 0.0\nsamples = 12\nvalue = [12, 0]"] ;
1245 -> 1246 ;
1247 [label="X[4] <= 93.5\ngini = 0.375\nsamples = 4\nvalue = [3, 1]"] ;
1245 -> 1247 ;
1248 [label="gini = 0.0\nsamples = 1\nvalue = [0, 1]"] ;
1247 -> 1248 ;
1249 [label="gini = 0.0\nsamples = 3\nvalue = [3, 0]"] ;
1247 -> 1249 ;
1250 [label="X[0] <= 44.67\ngini = 0.494\nsamples = 9\nvalue = [4, 5]"] ;
1240 -> 1250 ;
1251 [label="gini = 0.0\nsamples = 3\nvalue = [0, 3]"] ;
1250 -> 1251 ;
1252 [label="X[0] <= 47.445\ngini = 0.444\nsamples = 6\nvalue = [4, 2]"] ;
1250 -> 1252 ;
1253 [label="gini = 0.0\nsamples = 3\nvalue = [3, 0]"] ;
1252 -> 1253 ;
1254 [label="X[5] <= 0.105\ngini = 0.444\nsamples = 3\nvalue = [1, 2]"] ;
1252 -> 1254 ;
1255 [label="gini = 0.0\nsamples = 2\nvalue = [0, 2]"] ;
1254 -> 1255 ;
1256 [label="gini = 0.0\nsamples = 1\nvalue = [1, 0]"] ;
1254 -> 1256 ;
1257 [label="X[0] <= 41.79\ngini = 0.42\nsamples = 10\nvalue = [3, 7]"] ;
1239 -> 1257 ;
1258 [label="X[4] <= 101.5\ngini = 0.219\nsamples = 8\nvalue = [1, 7]"] ;
1257 -> 1258 ;
