digraph Tree {
node [shape=box, style="filled, rounded", color="black", fontname=helvetica] ;
edge [fontname=helvetica] ;
0 [label=<McCabe_loc &le; 40.5<br/>gini = 0.289<br/>samples = 14596<br/>value = [12041, 2555]<br/>class = OK>, fillcolor="#eb9c63"] ;
1 [label=<Halstead_lOBlank &le; 1.5<br/>gini = 0.201<br/>samples = 10885<br/>value = [9652, 1233]<br/>class = OK>, fillcolor="#e89152"] ;
0 -> 1 [labeldistance=2.5, labelangle=45, headlabel="True"] ;
2 [label=<McCabe_loc &le; 19.5<br/>gini = 0.139<br/>samples = 6560<br/>value = [6067, 493]<br/>class = OK>, fillcolor="#e78b49"] ;
1 -> 2 ;
3 [label=<Halstead_b &le; 0.805<br/>gini = 0.117<br/>samples = 5518<br/>value = [5174, 344]<br/>class = OK>, fillcolor="#e78946"] ;
2 -> 3 ;
4 [label=<McCabe_loc &le; 5.5<br/>gini = 0.115<br/>samples = 5512<br/>value = [5173, 339]<br/>class = OK>, fillcolor="#e78946"] ;
3 -> 4 ;
5 [label=<Halstead_t &le; 2.055<br/>gini = 0.069<br/>samples = 2334<br/>value = [2251, 83]<br/>class = OK>, fillcolor="#e68640"] ;
4 -> 5 ;
6 [label=<Halstead_lOCode &le; 0.5<br/>gini = 0.035<br/>samples = 1231<br/>value = [1209, 22]<br/>class = OK>, fillcolor="#e5833d"] ;
5 -> 6 ;
7 [label=<Halstead_d &le; 1.75<br/>gini = 0.007<br/>samples = 536<br/>value = [534, 2]<br/>class = OK>, fillcolor="#e5813a"] ;
6 -> 7 ;
8 [label=<Halstead_l &le; 0.835<br/>gini = 0.004<br/>samples = 513<br/>value = [512, 1]<br/>class = OK>, fillcolor="#e58139"] ;
7 -> 8 ;
9 [label=<gini = 0.0<br/>samples = 469<br/>value = [469, 0]<br/>class = OK>, fillcolor="#e58139"] ;
8 -> 9 ;
10 [label=<McCabe_loc &le; 3.0<br/>gini = 0.044<br/>samples = 44<br/>value = [43, 1]<br/>class = OK>, fillcolor="#e6843e"] ;
8 -> 10 ;
11 [label=<Halstead_i &le; 12.715<br/>gini = 0.083<br/>samples = 23<br/>value = [22, 1]<br/>class = OK>, fillcolor="#e68742"] ;
10 -> 11 ;
12 [label=<gini = 0.087<br/>samples = 22<br/>value = [21, 1]<br/>class = OK>, fillcolor="#e68742"] ;
11 -> 12 ;
13 [label=<gini = 0.0<br/>samples = 1<br/>value = [1, 0]<br/>class = OK>, fillcolor="#e58139"] ;
11 -> 13 ;
14 [label=<gini = 0.0<br/>samples = 21<br/>value = [21, 0]<br/>class = OK>, fillcolor="#e58139"] ;
10 -> 14 ;
15 [label=<Language &le; 0.5<br/>gini = 0.083<br/>samples = 23<br/>value = [22, 1]<br/>class = OK>, fillcolor="#e68742"] ;
7 -> 15 ;
16 [label=<gini = 0.0<br/>samples = 5<br/>value = [5, 0]<br/>class = OK>, fillcolor="#e58139"] ;
15 -> 16 ;
17 [label=<Halstead_v &le; 13.56<br/>gini = 0.105<br/>samples = 18<br/>value = [17, 1]<br/>class = OK>, fillcolor="#e78845"] ;
15 -> 17 ;
18 [label=<McCabe_loc &le; 1.5<br/>gini = 0.133<br/>samples = 14<br/>value = [13, 1]<br/>class = OK>, fillcolor="#e78b48"] ;
17 -> 18 ;
19 [label=<gini = 0.0<br/>samples = 1<br/>value = [1, 0]<br/>class = OK>, fillcolor="#e58139"] ;
18 -> 19 ;
20 [label=<gini = 0.142<br/>samples = 13<br/>value = [12, 1]<br/>class = OK>, fillcolor="#e78c49"] ;
18 -> 20 ;
21 [label=<gini = 0.0<br/>samples = 4<br/>value = [4, 0]<br/>class = OK>, fillcolor="#e58139"] ;
17 -> 21 ;
22 [label=<Halstead_lOBlank &le; 0.5<br/>gini = 0.056<br/>samples = 695<br/>value = [675, 20]<br/>class = OK>, fillcolor="#e6853f"] ;
6 -> 22 ;
23 [label=<Language &le; 0.5<br/>gini = 0.05<br/>samples = 665<br/>value = [648, 17]<br/>class = OK>, fillcolor="#e6843e"] ;
22 -> 23 ;
24 [label=<uniq_Opnd &le; 1.5<br/>gini = 0.028<br/>samples = 427<br/>value = [421, 6]<br/>class = OK>, fillcolor="#e5833c"] ;
23 -> 24 ;
25 [label=<Halstead_l &le; 0.585<br/>gini = 0.009<br/>samples = 219<br/>value = [218, 1]<br/>class = OK>, fillcolor="#e5823a"] ;
24 -> 25 ;
26 [label=<gini = 0.0<br/>samples = 35<br/>value = [35, 0]<br/>class = OK>, fillcolor="#e58139"] ;
25 -> 26 ;
27 [label=<SOFTWARE &le; 2.0<br/>gini = 0.011<br/>samples = 184<br/>value = [183, 1]<br/>class = OK>, fillcolor="#e5823a"] ;
25 -> 27 ;
28 [label=<McCabe_loc &le; 4.5<br/>gini = 0.011<br/>samples = 177<br/>value = [176, 1]<br/>class = OK>, fillcolor="#e5823a"] ;
27 -> 28 ;
29 [label=<gini = 0.011<br/>samples = 173<br/>value = [172, 1]<br/>class = OK>, fillcolor="#e5823a"] ;
28 -> 29 ;
30 [label=<gini = 0.0<br/>samples = 4<br/>value = [4, 0]<br/>class = OK>, fillcolor="#e58139"] ;
28 -> 30 ;
31 [label=<gini = 0.0<br/>samples = 7<br/>value = [7, 0]<br/>class = OK>, fillcolor="#e58139"] ;
27 -> 31 ;
32 [label=<Halstead_i &le; 9.945<br/>gini = 0.047<br/>samples = 208<br/>value = [203, 5]<br/>class = OK>, fillcolor="#e6843e"] ;
24 -> 32 ;
33 [label=<Halstead_lOCode &le; 2.5<br/>gini = 0.041<br/>samples = 189<br/>value = [185, 4]<br/>class = OK>, fillcolor="#e6843d"] ;
32 -> 33 ;
34 [label=<McCabe_loc &le; 4.5<br/>gini = 0.046<br/>samples = 170<br/>value = [166, 4]<br/>class = OK>, fillcolor="#e6843e"] ;
33 -> 34 ;
35 [label=<Halstead_i &le; 7.875<br/>gini = 0.048<br/>samples = 162<br/>value = [158, 4]<br/>class = OK>, fillcolor="#e6843e"] ;
34 -> 35 ;
36 [label=<McCabe_loc &le; 3.5<br/>gini = 0.049<br/>samples = 160<br/>value = [156, 4]<br/>class = OK>, fillcolor="#e6843e"] ;
35 -> 36 ;
37 [label=<gini = 0.0<br/>samples = 1<br/>value = [1, 0]<br/>class = OK>, fillcolor="#e58139"] ;
36 -> 37 ;
38 [label=<Halstead_n &le; 5.5<br/>gini = 0.049<br/>samples = 159<br/>value = [155, 4]<br/>class = OK>, fillcolor="#e6843e"] ;
36 -> 38 ;
39 [label=<gini = 0.047<br/>samples = 125<br/>value = [122, 3]<br/>class = OK>, fillcolor="#e6843e"] ;
38 -> 39 ;
40 [label=<gini = 0.057<br/>samples = 34<br/>value = [33, 1]<br/>class = OK>, fillcolor="#e6853f"] ;
38 -> 40 ;
41 [label=<gini = 0.0<br/>samples = 2<br/>value = [2, 0]<br/>class = OK>, fillcolor="#e58139"] ;
35 -> 41 ;
42 [label=<gini = 0.0<br/>samples = 8<br/>value = [8, 0]<br/>class = OK>, fillcolor="#e58139"] ;
34 -> 42 ;
43 [label=<gini = 0.0<br/>samples = 19<br/>value = [19, 0]<br/>class = OK>, fillcolor="#e58139"] ;
33 -> 43 ;
44 [label=<uniq_Opnd &le; 2.5<br/>gini = 0.1<br/>samples = 19<br/>value = [18, 1]<br/>class = OK>, fillcolor="#e68844"] ;
32 -> 44 ;
45 [label=<gini = 0.198<br/>samples = 9<br/>value = [8, 1]<br/>class = OK>, fillcolor="#e89152"] ;
44 -> 45 ;
46 [label=<gini = 0.0<br/>samples = 10<br/>value = [10, 0]<br/>class = OK>, fillcolor="#e58139"] ;
44 -> 46 ;
47 [label=<Halstead_lOComment &le; 0.5<br/>gini = 0.088<br/>samples = 238<br/>value = [227, 11]<br/>class = OK>, fillcolor="#e68743"] ;
23 -> 47 ;
48 [label=<Halstead_e &le; 6.375<br/>gini = 0.082<br/>samples = 234<br/>value = [224, 10]<br/>class = OK>, fillcolor="#e68742"] ;
47 -> 48 ;
49 [label=<uniq_Opnd &le; 0.5<br/>gini = 0.044<br/>samples = 89<br/>value = [87, 2]<br/>class = OK>, fillcolor="#e6843e"] ;
48 -> 49 ;
50 [label=<Halstead_n &le; 3.0<br/>gini = 0.052<br/>samples = 75<br/>value = [73, 2]<br/>class = OK>, fillcolor="#e6843e"] ;
49 -> 50 ;
51 [label=<gini = 0.053<br/>samples = 73<br/>value = [71, 2]<br/>class = OK>, fillcolor="#e6853f"] ;
50 -> 51 ;
52 [label=<gini = 0.0<br/>samples = 2<br/>value = [2, 0]<br/>class = OK>, fillcolor="#e58139"] ;
50 -> 52 ;
53 [label=<gini = 0.0<br/>samples = 14<br/>value = [14, 0]<br/>class = OK>, fillcolor="#e58139"] ;
49 -> 53 ;
54 [label=<Halstead_b &le; 0.005<br/>gini = 0.104<br/>samples = 145<br/>value = [137, 8]<br/>class = OK>, fillcolor="#e78845"] ;
48 -> 54 ;
55 [label=<McCabe_loc &le; 2.5<br/>gini = 0.118<br/>samples = 127<br/>value = [119, 8]<br/>class = OK>, fillcolor="#e78946"] ;
54 -> 55 ;
56 [label=<gini = 0.0<br/>samples = 10<br/>value = [10, 0]<br/>class = OK>, fillcolor="#e58139"] ;
55 -> 56 ;
57 [label=<Halstead_lOCode &le; 1.5<br/>gini = 0.127<br/>samples = 117<br/>value = [109, 8]<br/>class = OK>, fillcolor="#e78a48"] ;
55 -> 57 ;
58 [label=<Halstead_d &le; 1.25<br/>gini = 0.278<br/>samples = 6<br/>value = [5, 1]<br/>class = OK>, fillcolor="#ea9a61"] ;
57 -> 58 ;
59 [label=<gini = 0.32<br/>samples = 5<br/>value = [4, 1]<br/>class = OK>, fillcolor="#eca06a"] ;
58 -> 59 ;
60 [label=<gini = 0.0<br/>samples = 1<br/>value = [1, 0]<br/>class = OK>, fillcolor="#e58139"] ;
58 -> 60 ;
61 [label=<McCabe_loc &le; 4.5<br/>gini = 0.118<br/>samples = 111<br/>value = [104, 7]<br/>class = OK>, fillcolor="#e78946"] ;
57 -> 61 ;
62 [label=<Halstead_e &le; 10.0<br/>gini = 0.124<br/>samples = 105<br/>value = [98, 7]<br/>class = OK>, fillcolor="#e78a47"] ;
61 -> 62 ;
63 [label=<gini = 0.219<br/>samples = 8<br/>value = [7, 1]<br/>class = OK>, fillcolor="#e99355"] ;
62 -> 63 ;
64 [label=<McCabe_loc &le; 3.5<br/>gini = 0.116<br/>samples = 97<br/>value = [91, 6]<br/>class = OK>, fillcolor="#e78946"] ;
62 -> 64 ;
65 [label=<gini = 0.0<br/>samples = 5<br/>value = [5, 0]<br/>class = OK>, fillcolor="#e58139"] ;
64 -> 65 ;
66 [label=<uniq_Op &le; 3.5<br/>gini = 0.122<br/>samples = 92<br/>value = [86, 6]<br/>class = OK>, fillcolor="#e78a47"] ;
64 -> 66 ;
67 [label=<total_Opnd &le; 1.5<br/>gini = 0.129<br/>samples = 72<br/>value = [67, 5]<br/>class = OK>, fillcolor="#e78a48"] ;
66 -> 67 ;
68 [label=<gini = 0.126<br/>samples = 59<br/>value = [55, 4]<br/>class = OK>, fillcolor="#e78a47"] ;
67 -> 68 ;
69 [label=<gini = 0.142<br/>samples = 13<br/>value = [12, 1]<br/>class = OK>, fillcolor="#e78c49"] ;
67 -> 69 ;
70 [label=<gini = 0.095<br/>samples = 20<br/>value = [19, 1]<br/>class = OK>, fillcolor="#e68843"] ;
66 -> 70 ;
71 [label=<gini = 0.0<br/>samples = 6<br/>value = [6, 0]<br/>class = OK>, fillcolor="#e58139"] ;
61 -> 71 ;
72 [label=<gini = 0.0<br/>samples = 18<br/>value = [18, 0]<br/>class = OK>, fillcolor="#e58139"] ;
54 -> 72 ;
73 [label=<McCabe_loc &le; 4.5<br/>gini = 0.375<br/>samples = 4<br/>value = [3, 1]<br/>class = OK>, fillcolor="#eeab7b"] ;
47 -> 73 ;
74 [label=<gini = 0.444<br/>samples = 3<br/>value = [2, 1]<br/>class = OK>, fillcolor="#f2c09c"] ;
73 -> 74 ;
75 [label=<gini = 0.0<br/>samples = 1<br/>value = [1, 0]<br/>class = OK>, fillcolor="#e58139"] ;
73 -> 75 ;
76 [label=<Halstead_l &le; 0.585<br/>gini = 0.18<br/>samples = 30<br/>value = [27, 3]<br/>class = OK>, fillcolor="#e88f4f"] ;
22 -> 76 ;
77 [label=<gini = 0.0<br/>samples = 11<br/>value = [11, 0]<br/>class = OK>, fillcolor="#e58139"] ;
76 -> 77 ;
78 [label=<total_Opnd &le; 1.5<br/>gini = 0.266<br/>samples = 19<br/>value = [16, 3]<br/>class = OK>, fillcolor="#ea995e"] ;
76 -> 78 ;
79 [label=<gini = 0.245<br/>samples = 14<br/>value = [12, 2]<br/>class = OK>, fillcolor="#e9965a"] ;
78 -> 79 ;
80 [label=<gini = 0.32<br/>samples = 5<br/>value = [4, 1]<br/>class = OK>, fillcolor="#eca06a"] ;
78 -> 80 ;
81 [label=<Halstead_e &le; 73.5<br/>gini = 0.104<br/>samples = 1103<br/>value = [1042, 61]<br/>class = OK>, fillcolor="#e78845"] ;
5 -> 81 ;
82 [label=<Halstead_lOCode &le; 4.5<br/>gini = 0.162<br/>samples = 474<br/>value = [432, 42]<br/>class = OK>, fillcolor="#e88d4c"] ;
81 -> 82 ;
83 [label=<Halstead_i &le; 8.49<br/>gini = 0.149<br/>samples = 467<br/>value = [429, 38]<br/>class = OK>, fillcolor="#e78c4b"] ;
82 -> 83 ;
84 [label=<Halstead_lOBlank &le; 0.5<br/>gini = 0.216<br/>samples = 122<br/>value = [107, 15]<br/>class = OK>, fillcolor="#e99355"] ;
83 -> 84 ;
85 [label=<Halstead_e &le; 63.165<br/>gini = 0.188<br/>samples = 114<br/>value = [102, 12]<br/>class = OK>, fillcolor="#e89050"] ;
84 -> 85 ;
86 [label=<Halstead_t &le; 3.19<br/>gini = 0.211<br/>samples = 92<br/>value = [81, 11]<br/>class = OK>, fillcolor="#e99254"] ;
85 -> 86 ;
87 [label=<Halstead_i &le; 7.55<br/>gini = 0.187<br/>samples = 86<br/>value = [77, 9]<br/>class = OK>, fillcolor="#e89050"] ;
86 -> 87 ;
88 [label=<Language &le; 0.5<br/>gini = 0.117<br/>samples = 32<br/>value = [30, 2]<br/>class = OK>, fillcolor="#e78946"] ;
87 -> 88 ;
89 [label=<gini = 0.0<br/>samples = 22<br/>value = [22, 0]<br/>class = OK>, fillcolor="#e58139"] ;
88 -> 89 ;
90 [label=<McCabe_loc &le; 3.0<br/>gini = 0.32<br/>samples = 10<br/>value = [8, 2]<br/>class = OK>, fillcolor="#eca06a"] ;
88 -> 90 ;
91 [label=<gini = 0.245<br/>samples = 7<br/>value = [6, 1]<br/>class = OK>, fillcolor="#e9965a"] ;
90 -> 91 ;
92 [label=<Halstead_v &le; 16.8<br/>gini = 0.444<br/>samples = 3<br/>value = [2, 1]<br/>class = OK>, fillcolor="#f2c09c"] ;
90 -> 92 ;
93 [label=<gini = 0.5<br/>samples = 2<br/>value = [1, 1]<br/>class = OK>, fillcolor="#ffffff"] ;
92 -> 93 ;
94 [label=<gini = 0.0<br/>samples = 1<br/>value = [1, 0]<br/>class = OK>, fillcolor="#e58139"] ;
92 -> 94 ;
95 [label=<SOFTWARE &le; 1.5<br/>gini = 0.226<br/>samples = 54<br/>value = [47, 7]<br/>class = OK>, fillcolor="#e99456"] ;
87 -> 95 ;
96 [label=<Halstead_lOCode &le; 1.0<br/>gini = 0.32<br/>samples = 30<br/>value = [24, 6]<br/>class = OK>, fillcolor="#eca06a"] ;
95 -> 96 ;
97 [label=<gini = 0.0<br/>samples = 4<br/>value = [4, 0]<br/>class = OK>, fillcolor="#e58139"] ;
96 -> 97 ;
98 [label=<McCabe_loc &le; 4.5<br/>gini = 0.355<br/>samples = 26<br/>value = [20, 6]<br/>class = OK>, fillcolor="#eda774"] ;
96 -> 98 ;
99 [label=<gini = 0.397<br/>samples = 22<br/>value = [16, 6]<br/>class = OK>, fillcolor="#efb083"] ;
98 -> 99 ;
100 [label=<gini = 0.0<br/>samples = 4<br/>value = [4, 0]<br/>class = OK>, fillcolor="#e58139"] ;
98 -> 100 ;
101 [label=<Halstead_lOCode &le; 1.0<br/>gini = 0.08<br/>samples = 24<br/>value = [23, 1]<br/>class = OK>, fillcolor="#e68642"] ;
95 -> 101 ;
102 [label=<McCabe_loc &le; 3.0<br/>gini = 0.375<br/>samples = 4<br/>value = [3, 1]<br/>class = OK>, fillcolor="#eeab7b"] ;
101 -> 102 ;
103 [label=<gini = 0.0<br/>samples = 2<br/>value = [2, 0]<br/>class = OK>, fillcolor="#e58139"] ;
102 -> 103 ;
104 [label=<McCabe_loc &le; 4.5<br/>gini = 0.5<br/>samples = 2<br/>value = [1, 1]<br/>class = OK>, fillcolor="#ffffff"] ;
102 -> 104 ;
105 [label=<gini = 0.0<br/>samples = 1<br/>value = [0, 1]<br/>class = Defeito>, fillcolor="#399de5"] ;
104 -> 105 ;
106 [label=<gini = 0.0<br/>samples = 1<br/>value = [1, 0]<br/>class = OK>, fillcolor="#e58139"] ;
104 -> 106 ;
107 [label=<gini = 0.0<br/>samples = 20<br/>value = [20, 0]<br/>class = OK>, fillcolor="#e58139"] ;
101 -> 107 ;
108 [label=<Language &le; 0.5<br/>gini = 0.444<br/>samples = 6<br/>value = [4, 2]<br/>class = OK>, fillcolor="#f2c09c"] ;
86 -> 108 ;
109 [label=<gini = 0.32<br/>samples = 5<br/>value = [4, 1]<br/>class = OK>, fillcolor="#eca06a"] ;
108 -> 109 ;
110 [label=<gini = 0.0<br/>samples = 1<br/>value = [0, 1]<br/>class = Defeito>, fillcolor="#399de5"] ;
108 -> 110 ;
111 [label=<Halstead_lOCode &le; 2.5<br/>gini = 0.087<br/>samples = 22<br/>value = [21, 1]<br/>class = OK>, fillcolor="#e68742"] ;
85 -> 111 ;
112 [label=<gini = 0.0<br/>samples = 21<br/>value = [21, 0]<br/>class = OK>, fillcolor="#e58139"] ;
111 -> 112 ;
113 [label=<gini = 0.0<br/>samples = 1<br/>value = [0, 1]<br/>class = Defeito>, fillcolor="#399de5"] ;
111 -> 113 ;
114 [label=<Halstead_v &le; 21.825<br/>gini = 0.469<br/>samples = 8<br/>value = [5, 3]<br/>class = OK>, fillcolor="#f5cdb0"] ;
84 -> 114 ;
115 [label=<total_Op &le; 5.5<br/>gini = 0.408<br/>samples = 7<br/>value = [5, 2]<br/>class = OK>, fillcolor="#efb388"] ;
114 -> 115 ;
116 [label=<gini = 0.444<br/>samples = 6<br/>value = [4, 2]<br/>class = OK>, fillcolor="#f2c09c"] ;
115 -> 116 ;
117 [label=<gini = 0.0<br/>samples = 1<br/>value = [1, 0]<br/>class = OK>, fillcolor="#e58139"] ;
115 -> 117 ;
118 [label=<gini = 0.0<br/>samples = 1<br/>value = [0, 1]<br/>class = Defeito>, fillcolor="#399de5"] ;
114 -> 118 ;
119 [label=<Halstead_v &le; 29.265<br/>gini = 0.124<br/>samples = 345<br/>value = [322, 23]<br/>class = OK>, fillcolor="#e78a47"] ;
83 -> 119 ;
120 [label=<Halstead_n &le; 8.5<br/>gini = 0.104<br/>samples = 309<br/>value = [292, 17]<br/>class = OK>, fillcolor="#e78845"] ;
119 -> 120 ;
121 [label=<SOFTWARE &le; 1.5<br/>gini = 0.151<br/>samples = 182<br/>value = [167, 15]<br/>class = OK>, fillcolor="#e78c4b"] ;
120 -> 121 ;
122 [label=<Halstead_lOCode &le; 2.5<br/>gini = 0.188<br/>samples = 143<br/>value = [128, 15]<br/>class = OK>, fillcolor="#e89050"] ;
121 -> 122 ;
123 [label=<Halstead_i &le; 10.785<br/>gini = 0.198<br/>samples = 135<br/>value = [120, 15]<br/>class = OK>, fillcolor="#e89152"] ;
122 -> 123 ;
124 [label=<McCabe_loc &le; 4.5<br/>gini = 0.188<br/>samples = 133<br/>value = [119, 14]<br/>class = OK>, fillcolor="#e89050"] ;
123 -> 124 ;
125 [label=<Halstead_v &le; 21.825<br/>gini = 0.181<br/>samples = 119<br/>value = [107, 12]<br/>class = OK>, fillcolor="#e88f4f"] ;
124 -> 125 ;
126 [label=<Halstead_lOCode &le; 1.5<br/>gini = 0.191<br/>samples = 103<br/>value = [92, 11]<br/>class = OK>, fillcolor="#e89051"] ;
125 -> 126 ;
127 [label=<gini = 0.0<br/>samples = 1<br/>value = [1, 0]<br/>class = OK>, fillcolor="#e58139"] ;
126 -> 127 ;
128 [label=<gini = 0.192<br/>samples = 102<br/>value = [91, 11]<br/>class = OK>, fillcolor="#e89051"] ;
126 -> 128 ;
129 [label=<gini = 0.117<br/>samples = 16<br/>value = [15, 1]<br/>class = OK>, fillcolor="#e78946"] ;
125 -> 129 ;
130 [label=<Halstead_e &le; 50.68<br/>gini = 0.245<br/>samples = 14<br/>value = [12, 2]<br/>class = OK>, fillcolor="#e9965a"] ;
124 -> 130 ;
131 [label=<Halstead_lOBlank &le; 0.5<br/>gini = 0.153<br/>samples = 12<br/>value = [11, 1]<br/>class = OK>, fillcolor="#e78c4b"] ;
130 -> 131 ;
132 [label=<Halstead_lOComment &le; 0.5<br/>gini = 0.32<br/>samples = 5<br/>value = [4, 1]<br/>class = OK>, fillcolor="#eca06a"] ;
131 -> 132 ;
133 [label=<gini = 0.375<br/>samples = 4<br/>value = [3, 1]<br/>class = OK>, fillcolor="#eeab7b"] ;
132 -> 133 ;
134 [label=<gini = 0.0<br/>samples = 1<br/>value = [1, 0]<br/>class = OK>, fillcolor="#e58139"] ;
132 -> 134 ;
135 [label=<gini = 0.0<br/>samples = 7<br/>value = [7, 0]<br/>class = OK>, fillcolor="#e58139"] ;
131 -> 135 ;
136 [label=<Halstead_lOBlank &le; 0.5<br/>gini = 0.5<br/>samples = 2<br/>value = [1, 1]<br/>class = OK>, fillcolor="#ffffff"] ;
130 -> 136 ;
137 [label=<gini = 0.0<br/>samples = 1<br/>value = [1, 0]<br/>class = OK>, fillcolor="#e58139"] ;
136 -> 137 ;
138 [label=<gini = 0.0<br/>samples = 1<br/>value = [0, 1]<br/>class = Defeito>, fillcolor="#399de5"] ;
136 -> 138 ;
139 [label=<McCabe_loc &le; 4.5<br/>gini = 0.5<br/>samples = 2<br/>value = [1, 1]<br/>class = OK>, fillcolor="#ffffff"] ;
123 -> 139 ;
140 [label=<gini = 0.0<br/>samples = 1<br/>value = [0, 1]<br/>class = Defeito>, fillcolor="#399de5"] ;
139 -> 140 ;
141 [label=<gini = 0.0<br/>samples = 1<br/>value = [1, 0]<br/>class = OK>, fillcolor="#e58139"] ;
139 -> 141 ;
142 [label=<gini = 0.0<br/>samples = 8<br/>value = [8, 0]<br/>class = OK>, fillcolor="#e58139"] ;
122 -> 142 ;
143 [label=<gini = 0.0<br/>samples = 39<br/>value = [39, 0]<br/>class = OK>, fillcolor="#e58139"] ;
121 -> 143 ;
144 [label=<Halstead_d &le; 1.75<br/>gini = 0.031<br/>samples = 127<br/>value = [125, 2]<br/>class = OK>, fillcolor="#e5833c"] ;
120 -> 144 ;
145 [label=<SOFTWARE &le; 1.5<br/>gini = 0.133<br/>samples = 14<br/>value = [13, 1]<br/>class = OK>, fillcolor="#e78b48"] ;
144 -> 145 ;
146 [label=<gini = 0.18<br/>samples = 10<br/>value = [9, 1]<br/>class = OK>, fillcolor="#e88f4f"] ;
145 -> 146 ;
147 [label=<gini = 0.0<br/>samples = 4<br/>value = [4, 0]<br/>class = OK>, fillcolor="#e58139"] ;
145 -> 147 ;
148 [label=<total_Op &le; 5.5<br/>gini = 0.018<br/>samples = 113<br/>value = [112, 1]<br/>class = OK>, fillcolor="#e5823b"] ;
144 -> 148 ;
149 [label=<gini = 0.0<br/>samples = 85<br/>value = [85, 0]<br/>class = OK>, fillcolor="#e58139"] ;
148 -> 149 ;
150 [label=<Halstead_lOCode &le; 2.5<br/>gini = 0.069<br/>samples = 28<br/>value = [27, 1]<br/>class = OK>, fillcolor="#e68640"] ;
148 -> 150 ;
151 [label=<gini = 0.091<br/>samples = 21<br/>value = [20, 1]<br/>class = OK>, fillcolor="#e68743"] ;
150 -> 151 ;
152 [label=<gini = 0.0<br/>samples = 7<br/>value = [7, 0]<br/>class = OK>, fillcolor="#e58139"] ;
150 -> 152 ;
153 [label=<Halstead_v &le; 31.5<br/>gini = 0.278<br/>samples = 36<br/>value = [30, 6]<br/>class = OK>, fillcolor="#ea9a61"] ;
119 -> 153 ;
154 [label=<McCabe_loc &le; 4.5<br/>gini = 0.48<br/>samples = 10<br/>value = [4, 6]<br/>class = Defeito>, fillcolor="#bddef6"] ;
153 -> 154 ;
155 [label=<gini = 0.469<br/>samples = 8<br/>value = [3, 5]<br/>class = Defeito>, fillcolor="#b0d8f5"] ;
154 -> 155 ;
156 [label=<gini = 0.5<br/>samples = 2<br/>value = [1, 1]<br/>class = OK>, fillcolor="#ffffff"] ;
154 -> 156 ;
157 [label=<gini = 0.0<br/>samples = 26<br/>value = [26, 0]<br/>class = OK>, fillcolor="#e58139"] ;
153 -> 157 ;
158 [label=<Halstead_v &le; 27.775<br/>gini = 0.49<br/>samples = 7<br/>value = [3, 4]<br/>class = Defeito>, fillcolor="#cee6f8"] ;
82 -> 158 ;
159 [label=<gini = 0.0<br/>samples = 2<br/>value = [2, 0]<br/>class = OK>, fillcolor="#e58139"] ;
158 -> 159 ;
160 [label=<SOFTWARE &le; 2.0<br/>gini = 0.32<br/>samples = 5<br/>value = [1, 4]<br/>class = Defeito>, fillcolor="#6ab6ec"] ;
158 -> 160 ;
161 [label=<gini = 0.0<br/>samples = 1<br/>value = [1, 0]<br/>class = OK>, fillcolor="#e58139"] ;
160 -> 161 ;
162 [label=<gini = 0.0<br/>samples = 4<br/>value = [0, 4]<br/>class = Defeito>, fillcolor="#399de5"] ;
160 -> 162 ;
163 [label=<McCabe_ev(g) &le; 2.0<br/>gini = 0.059<br/>samples = 629<br/>value = [610, 19]<br/>class = OK>, fillcolor="#e6853f"] ;
81 -> 163 ;
164 [label=<Halstead_i &le; 15.26<br/>gini = 0.054<br/>samples = 617<br/>value = [600, 17]<br/>class = OK>, fillcolor="#e6853f"] ;
163 -> 164 ;
165 [label=<Halstead_i &le; 15.215<br/>gini = 0.073<br/>samples = 423<br/>value = [407, 16]<br/>class = OK>, fillcolor="#e68641"] ;
164 -> 165 ;
166 [label=<total_Opnd &le; 5.5<br/>gini = 0.069<br/>samples = 422<br/>value = [407, 15]<br/>class = OK>, fillcolor="#e68640"] ;
165 -> 166 ;
167 [label=<Halstead_v &le; 23.23<br/>gini = 0.046<br/>samples = 339<br/>value = [331, 8]<br/>class = OK>, fillcolor="#e6843e"] ;
166 -> 167 ;
168 [label=<Halstead_e &le; 87.345<br/>gini = 0.278<br/>samples = 6<br/>value = [5, 1]<br/>class = OK>, fillcolor="#ea9a61"] ;
167 -> 168 ;
169 [label=<Language &le; 0.5<br/>gini = 0.5<br/>samples = 2<br/>value = [1, 1]<br/>class = OK>, fillcolor="#ffffff"] ;
168 -> 169 ;
170 [label=<gini = 0.0<br/>samples = 1<br/>value = [0, 1]<br/>class = Defeito>, fillcolor="#399de5"] ;
169 -> 170 ;
171 [label=<gini = 0.0<br/>samples = 1<br/>value = [1, 0]<br/>class = OK>, fillcolor="#e58139"] ;
169 -> 171 ;
172 [label=<gini = 0.0<br/>samples = 4<br/>value = [4, 0]<br/>class = OK>, fillcolor="#e58139"] ;
168 -> 172 ;
173 [label=<Halstead_e &le; 134.96<br/>gini = 0.041<br/>samples = 333<br/>value = [326, 7]<br/>class = OK>, fillcolor="#e6843d"] ;
167 -> 173 ;
174 [label=<Halstead_t &le; 7.075<br/>gini = 0.062<br/>samples = 220<br/>value = [213, 7]<br/>class = OK>, fillcolor="#e68540"] ;
173 -> 174 ;
175 [label=<Halstead_t &le; 4.795<br/>gini = 0.04<br/>samples = 197<br/>value = [193, 4]<br/>class = OK>, fillcolor="#e6843d"] ;
174 -> 175 ;
176 [label=<gini = 0.0<br/>samples = 103<br/>value = [103, 0]<br/>class = OK>, fillcolor="#e58139"] ;
175 -> 176 ;
177 [label=<Halstead_t &le; 5.95<br/>gini = 0.081<br/>samples = 94<br/>value = [90, 4]<br/>class = OK>, fillcolor="#e68742"] ;
175 -> 177 ;
178 [label=<Halstead_e &le; 104.945<br/>gini = 0.156<br/>samples = 47<br/>value = [43, 4]<br/>class = OK>, fillcolor="#e78d4b"] ;
177 -> 178 ;
179 [label=<uniq_Opnd &le; 3.5<br/>gini = 0.122<br/>samples = 46<br/>value = [43, 3]<br/>class = OK>, fillcolor="#e78a47"] ;
178 -> 179 ;
180 [label=<gini = 0.0<br/>samples = 30<br/>value = [30, 0]<br/>class = OK>, fillcolor="#e58139"] ;
179 -> 180 ;
181 [label=<Halstead_i &le; 12.51<br/>gini = 0.305<br/>samples = 16<br/>value = [13, 3]<br/>class = OK>, fillcolor="#eb9e67"] ;
179 -> 181 ;
182 [label=<McCabe_loc &le; 4.5<br/>gini = 0.444<br/>samples = 3<br/>value = [1, 2]<br/>class = Defeito>, fillcolor="#9ccef2"] ;
181 -> 182 ;
183 [label=<gini = 0.0<br/>samples = 2<br/>value = [0, 2]<br/>class = Defeito>, fillcolor="#399de5"] ;
182 -> 183 ;
184 [label=<gini = 0.0<br/>samples = 1<br/>value = [1, 0]<br/>class = OK>, fillcolor="#e58139"] ;
182 -> 184 ;
185 [label=<McCabe_loc &le; 4.5<br/>gini = 0.142<br/>samples = 13<br/>value = [12, 1]<br/>class = OK>, fillcolor="#e78c49"] ;
181 -> 185 ;
186 [label=<gini = 0.0<br/>samples = 8<br/>value = [8, 0]<br/>class = OK>, fillcolor="#e58139"] ;
185 -> 186 ;
187 [label=<Halstead_e &le; 89.26<br/>gini = 0.32<br/>samples = 5<br/>value = [4, 1]<br/>class = OK>, fillcolor="#eca06a"] ;
185 -> 187 ;
188 [label=<gini = 0.444<br/>samples = 3<br/>value = [2, 1]<br/>class = OK>, fillcolor="#f2c09c"] ;
187 -> 188 ;
189 [label=<gini = 0.0<br/>samples = 2<br/>value = [2, 0]<br/>class = OK>, fillcolor="#e58139"] ;
187 -> 189 ;
190 [label=<gini = 0.0<br/>samples = 1<br/>value = [0, 1]<br/>class = Defeito>, fillcolor="#399de5"] ;
178 -> 190 ;
191 [label=<gini = 0.0<br/>samples = 47<br/>value = [47, 0]<br/>class = OK>, fillcolor="#e58139"] ;
177 -> 191 ;
192 [label=<Halstead_lOComment &le; 0.5<br/>gini = 0.227<br/>samples = 23<br/>value = [20, 3]<br/>class = OK>, fillcolor="#e99457"] ;
174 -> 192 ;
193 [label=<SOFTWARE &le; 1.5<br/>gini = 0.165<br/>samples = 22<br/>value = [20, 2]<br/>class = OK>, fillcolor="#e88e4d"] ;
192 -> 193 ;
194 [label=<total_Opnd &le; 3.5<br/>gini = 0.219<br/>samples = 16<br/>value = [14, 2]<br/>class = OK>, fillcolor="#e99355"] ;
193 -> 194 ;
195 [label=<McCabe_loc &le; 4.5<br/>gini = 0.375<br/>samples = 4<br/>value = [3, 1]<br/>class = OK>, fillcolor="#eeab7b"] ;
194 -> 195 ;
196 [label=<gini = 0.444<br/>samples = 3<br/>value = [2, 1]<br/>class = OK>, fillcolor="#f2c09c"] ;
195 -> 196 ;
197 [label=<gini = 0.0<br/>samples = 1<br/>value = [1, 0]<br/>class = OK>, fillcolor="#e58139"] ;
195 -> 197 ;
198 [label=<McCabe_loc &le; 4.5<br/>gini = 0.153<br/>samples = 12<br/>value = [11, 1]<br/>class = OK>, fillcolor="#e78c4b"] ;
194 -> 198 ;
199 [label=<gini = 0.0<br/>samples = 4<br/>value = [4, 0]<br/>class = OK>, fillcolor="#e58139"] ;
198 -> 199 ;
200 [label=<Halstead_n &le; 12.0<br/>gini = 0.219<br/>samples = 8<br/>value = [7, 1]<br/>class = OK>, fillcolor="#e99355"] ;
198 -> 200 ;
201 [label=<gini = 0.0<br/>samples = 1<br/>value = [1, 0]<br/>class = OK>, fillcolor="#e58139"] ;
200 -> 201 ;
202 [label=<gini = 0.245<br/>samples = 7<br/>value = [6, 1]<br/>class = OK>, fillcolor="#e9965a"] ;
200 -> 202 ;
203 [label=<gini = 0.0<br/>samples = 6<br/>value = [6, 0]<br/>class = OK>, fillcolor="#e58139"] ;
193 -> 203 ;
204 [label=<gini = 0.0<br/>samples = 1<br/>value = [0, 1]<br/>class = Defeito>, fillcolor="#399de5"] ;
192 -> 204 ;
205 [label=<gini = 0.0<br/>samples = 113<br/>value = [113, 0]<br/>class = OK>, fillcolor="#e58139"] ;
173 -> 205 ;
206 [label=<Halstead_n &le; 15.5<br/>gini = 0.154<br/>samples = 83<br/>value = [76, 7]<br/>class = OK>, fillcolor="#e78d4b"] ;
166 -> 206 ;
207 [label=<Halstead_v &le; 52.83<br/>gini = 0.35<br/>samples = 31<br/>value = [24, 7]<br/>class = OK>, fillcolor="#eda673"] ;
206 -> 207 ;
208 [label=<Halstead_i &le; 9.555<br/>gini = 0.153<br/>samples = 24<br/>value = [22, 2]<br/>class = OK>, fillcolor="#e78c4b"] ;
207 -> 208 ;
209 [label=<Halstead_lOCode &le; 3.5<br/>gini = 0.408<br/>samples = 7<br/>value = [5, 2]<br/>class = OK>, fillcolor="#efb388"] ;
208 -> 209 ;
210 [label=<gini = 0.0<br/>samples = 2<br/>value = [0, 2]<br/>class = Defeito>, fillcolor="#399de5"] ;
209 -> 210 ;
211 [label=<gini = 0.0<br/>samples = 5<br/>value = [5, 0]<br/>class = OK>, fillcolor="#e58139"] ;
209 -> 211 ;
212 [label=<gini = 0.0<br/>samples = 17<br/>value = [17, 0]<br/>class = OK>, fillcolor="#e58139"] ;
208 -> 212 ;
213 [label=<Halstead_i &le; 10.88<br/>gini = 0.408<br/>samples = 7<br/>value = [2, 5]<br/>class = Defeito>, fillcolor="#88c4ef"] ;
207 -> 213 ;
214 [label=<gini = 0.0<br/>samples = 2<br/>value = [2, 0]<br/>class = OK>, fillcolor="#e58139"] ;
213 -> 214 ;
215 [label=<gini = 0.0<br/>samples = 5<br/>value = [0, 5]<br/>class = Defeito>, fillcolor="#399de5"] ;
213 -> 215 ;
216 [label=<gini = 0.0<br/>samples = 52<br/>value = [52, 0]<br/>class = OK>, fillcolor="#e58139"] ;
206 -> 216 ;
217 [label=<gini = 0.0<br/>samples = 1<br/>value = [0, 1]<br/>class = Defeito>, fillcolor="#399de5"] ;
165 -> 217 ;
218 [label=<Halstead_v &le; 52.83<br/>gini = 0.01<br/>samples = 194<br/>value = [193, 1]<br/>class = OK>, fillcolor="#e5823a"] ;
164 -> 218 ;
219 [label=<Halstead_v &le; 51.04<br/>gini = 0.027<br/>samples = 72<br/>value = [71, 1]<br/>class = OK>, fillcolor="#e5833c"] ;
218 -> 219 ;
220 [label=<gini = 0.0<br/>samples = 40<br/>value = [40, 0]<br/>class = OK>, fillcolor="#e58139"] ;
219 -> 220 ;
221 [label=<Halstead_lOCode &le; 2.5<br/>gini = 0.061<br/>samples = 32<br/>value = [31, 1]<br/>class = OK>, fillcolor="#e6853f"] ;
219 -> 221 ;
222 [label=<gini = 0.0<br/>samples = 1<br/>value = [1, 0]<br/>class = OK>, fillcolor="#e58139"] ;
221 -> 222 ;
223 [label=<gini = 0.062<br/>samples = 31<br/>value = [30, 1]<br/>class = OK>, fillcolor="#e68540"] ;
221 -> 223 ;
224 [label=<gini = 0.0<br/>samples = 122<br/>value = [122, 0]<br/>class = OK>, fillcolor="#e58139"] ;
218 -> 224 ;
225 [label=<Halstead_i &le; 13.335<br/>gini = 0.278<br/>samples = 12<br/>value = [10, 2]<br/>class = OK>, fillcolor="#ea9a61"] ;
163 -> 225 ;
226 [label=<Halstead_d &le; 7.6<br/>gini = 0.165<br/>samples = 11<br/>value = [10, 1]<br/>class = OK>, fillcolor="#e88e4d"] ;
225 -> 226 ;
227 [label=<gini = 0.0<br/>samples = 9<br/>value = [9, 0]<br/>class = OK>, fillcolor="#e58139"] ;
226 -> 227 ;
228 [label=<Halstead_e &le; 843.805<br/>gini = 0.5<br/>samples = 2<br/>value = [1, 1]<br/>class = OK>, fillcolor="#ffffff"] ;
226 -> 228 ;
229 [label=<gini = 0.0<br/>samples = 1<br/>value = [0, 1]<br/>class = Defeito>, fillcolor="#399de5"] ;
228 -> 229 ;
230 [label=<gini = 0.0<br/>samples = 1<br/>value = [1, 0]<br/>class = OK>, fillcolor="#e58139"] ;
228 -> 230 ;
231 [label=<gini = 0.0<br/>samples = 1<br/>value = [0, 1]<br/>class = Defeito>, fillcolor="#399de5"] ;
225 -> 231 ;
232 [label=<Language &le; 0.5<br/>gini = 0.148<br/>samples = 3178<br/>value = [2922, 256]<br/>class = OK>, fillcolor="#e78c4a"] ;
4 -> 232 ;
233 [label=<Halstead_e &le; 228.94<br/>gini = 0.129<br/>samples = 2705<br/>value = [2517, 188]<br/>class = OK>, fillcolor="#e78a48"] ;
232 -> 233 ;
234 [label=<Halstead_t &le; 12.57<br/>gini = 0.188<br/>samples = 865<br/>value = [774, 91]<br/>class = OK>, fillcolor="#e89050"] ;
233 -> 234 ;
235 [label=<McCabe_loc &le; 17.5<br/>gini = 0.181<br/>samples = 857<br/>value = [771, 86]<br/>class = OK>, fillcolor="#e88f4f"] ;
234 -> 235 ;
236 [label=<Halstead_lOCode &le; 4.5<br/>gini = 0.169<br/>samples = 795<br/>value = [721, 74]<br/>class = OK>, fillcolor="#e88e4d"] ;
235 -> 236 ;
237 [label=<Halstead_lOComment &le; 5.5<br/>gini = 0.14<br/>samples = 595<br/>value = [550, 45]<br/>class = OK>, fillcolor="#e78b49"] ;
236 -> 237 ;
238 [label=<McCabe_iv(g) &le; 11.5<br/>gini = 0.137<br/>samples = 593<br/>value = [549, 44]<br/>class = OK>, fillcolor="#e78b49"] ;
237 -> 238 ;
239 [label=<Halstead_t &le; 8.985<br/>gini = 0.135<br/>samples = 591<br/>value = [548, 43]<br/>class = OK>, fillcolor="#e78b49"] ;
238 -> 239 ;
240 [label=<McCabe_v(g) &le; 1.5<br/>gini = 0.15<br/>samples = 514<br/>value = [472, 42]<br/>class = OK>, fillcolor="#e78c4b"] ;
239 -> 240 ;
241 [label=<SOFTWARE &le; 0.5<br/>gini = 0.188<br/>samples = 295<br/>value = [264, 31]<br/>class = OK>, fillcolor="#e89050"] ;
240 -> 241 ;
242 [label=<gini = 0.0<br/>samples = 30<br/>value = [30, 0]<br/>class = OK>, fillcolor="#e58139"] ;
241 -> 242 ;
243 [label=<Halstead_lOComment &le; 0.5<br/>gini = 0.207<br/>samples = 265<br/>value = [234, 31]<br/>class = OK>, fillcolor="#e89253"] ;
241 -> 243 ;
244 [label=<uniq_Op &le; 5.5<br/>gini = 0.226<br/>samples = 231<br/>value = [201, 30]<br/>class = OK>, fillcolor="#e99457"] ;
243 -> 244 ;
245 [label=<uniq_Opnd &le; 6.5<br/>gini = 0.207<br/>samples = 213<br/>value = [188, 25]<br/>class = OK>, fillcolor="#e89253"] ;
244 -> 245 ;
246 [label=<total_Opnd &le; 5.5<br/>gini = 0.22<br/>samples = 199<br/>value = [174, 25]<br/>class = OK>, fillcolor="#e99355"] ;
245 -> 246 ;
247 [label=<McCabe_loc &le; 10.5<br/>gini = 0.192<br/>samples = 167<br/>value = [149, 18]<br/>class = OK>, fillcolor="#e89051"] ;
246 -> 247 ;
248 [label=<McCabe_loc &le; 8.5<br/>gini = 0.152<br/>samples = 121<br/>value = [111, 10]<br/>class = OK>, fillcolor="#e78c4b"] ;
247 -> 248 ;
249 [label=<uniq_Op &le; 3.5<br/>gini = 0.175<br/>samples = 103<br/>value = [93, 10]<br/>class = OK>, fillcolor="#e88f4e"] ;
248 -> 249 ;
250 [label=<total_Op &le; 6.5<br/>gini = 0.231<br/>samples = 60<br/>value = [52, 8]<br/>class = OK>, fillcolor="#e99457"] ;
249 -> 250 ;
251 [label=<Halstead_d &le; 1.75<br/>gini = 0.209<br/>samples = 59<br/>value = [52, 7]<br/>class = OK>, fillcolor="#e89254"] ;
250 -> 251 ;
252 [label=<McCabe_loc &le; 6.5<br/>gini = 0.188<br/>samples = 57<br/>value = [51, 6]<br/>class = OK>, fillcolor="#e89050"] ;
251 -> 252 ;
253 [label=<Halstead_lOBlank &le; 0.5<br/>gini = 0.095<br/>samples = 20<br/>value = [19, 1]<br/>class = OK>, fillcolor="#e68843"] ;
252 -> 253 ;
254 [label=<gini = 0.0<br/>samples = 14<br/>value = [14, 0]<br/>class = OK>, fillcolor="#e58139"] ;
253 -> 254 ;
255 [label=<Halstead_t &le; 1.195<br/>gini = 0.278<br/>samples = 6<br/>value = [5, 1]<br/>class = OK>, fillcolor="#ea9a61"] ;
253 -> 255 ;
256 [label=<total_Op &le; 2.5<br/>gini = 0.5<br/>samples = 2<br/>value = [1, 1]<br/>class = OK>, fillcolor="#ffffff"] ;
255 -> 256 ;
257 [label=<gini = 0.0<br/>samples = 1<br/>value = [1, 0]<br/>class = OK>, fillcolor="#e58139"] ;
256 -> 257 ;
258 [label=<gini = 0.0<br/>samples = 1<br/>value = [0, 1]<br/>class = Defeito>, fillcolor="#399de5"] ;
256 -> 258 ;
259 [label=<gini = 0.0<br/>samples = 4<br/>value = [4, 0]<br/>class = OK>, fillcolor="#e58139"] ;
255 -> 259 ;
260 [label=<McCabe_loc &le; 7.5<br/>gini = 0.234<br/>samples = 37<br/>value = [32, 5]<br/>class = OK>, fillcolor="#e99558"] ;
252 -> 260 ;
261 [label=<total_Op &le; 1.5<br/>gini = 0.278<br/>samples = 24<br/>value = [20, 4]<br/>class = OK>, fillcolor="#ea9a61"] ;
260 -> 261 ;
262 [label=<gini = 0.308<br/>samples = 21<br/>value = [17, 4]<br/>class = OK>, fillcolor="#eb9f68"] ;
261 -> 262 ;
263 [label=<gini = 0.0<br/>samples = 3<br/>value = [3, 0]<br/>class = OK>, fillcolor="#e58139"] ;
261 -> 263 ;
264 [label=<gini = 0.142<br/>samples = 13<br/>value = [12, 1]<br/>class = OK>, fillcolor="#e78c49"] ;
260 -> 264 ;
265 [label=<gini = 0.5<br/>samples = 2<br/>value = [1, 1]<br/>class = OK>, fillcolor="#ffffff"] ;
251 -> 265 ;
266 [label=<gini = 0.0<br/>samples = 1<br/>value = [0, 1]<br/>class = Defeito>, fillcolor="#399de5"] ;
250 -> 266 ;
267 [label=<uniq_Op &le; 4.5<br/>gini = 0.089<br/>samples = 43<br/>value = [41, 2]<br/>class = OK>, fillcolor="#e68743"] ;
249 -> 267 ;
268 [label=<gini = 0.0<br/>samples = 30<br/>value = [30, 0]<br/>class = OK>, fillcolor="#e58139"] ;
267 -> 268 ;
269 [label=<total_Op &le; 6.5<br/>gini = 0.26<br/>samples = 13<br/>value = [11, 2]<br/>class = OK>, fillcolor="#ea985d"] ;
267 -> 269 ;
270 [label=<Halstead_t &le; 5.805<br/>gini = 0.48<br/>samples = 5<br/>value = [3, 2]<br/>class = OK>, fillcolor="#f6d5bd"] ;
269 -> 270 ;
271 [label=<Halstead_t &le; 4.98<br/>gini = 0.375<br/>samples = 4<br/>value = [3, 1]<br/>class = OK>, fillcolor="#eeab7b"] ;
270 -> 271 ;
272 [label=<Halstead_lOBlank &le; 0.5<br/>gini = 0.444<br/>samples = 3<br/>value = [2, 1]<br/>class = OK>, fillcolor="#f2c09c"] ;
271 -> 272 ;
273 [label=<gini = 0.0<br/>samples = 1<br/>value = [1, 0]<br/>class = OK>, fillcolor="#e58139"] ;
272 -> 273 ;
274 [label=<gini = 0.5<br/>samples = 2<br/>value = [1, 1]<br/>class = OK>, fillcolor="#ffffff"] ;
272 -> 274 ;
275 [label=<gini = 0.0<br/>samples = 1<br/>value = [1, 0]<br/>class = OK>, fillcolor="#e58139"] ;
271 -> 275 ;
276 [label=<gini = 0.0<br/>samples = 1<br/>value = [0, 1]<br/>class = Defeito>, fillcolor="#399de5"] ;
270 -> 276 ;
277 [label=<gini = 0.0<br/>samples = 8<br/>value = [8, 0]<br/>class = OK>, fillcolor="#e58139"] ;
269 -> 277 ;
278 [label=<gini = 0.0<br/>samples = 18<br/>value = [18, 0]<br/>class = OK>, fillcolor="#e58139"] ;
248 -> 278 ;
279 [label=<McCabe_loc &le; 11.5<br/>gini = 0.287<br/>samples = 46<br/>value = [38, 8]<br/>class = OK>, fillcolor="#ea9c63"] ;
247 -> 279 ;
280 [label=<Halstead_l &le; 0.335<br/>gini = 0.49<br/>samples = 7<br/>value = [4, 3]<br/>class = OK>, fillcolor="#f8e0ce"] ;
279 -> 280 ;
281 [label=<gini = 0.5<br/>samples = 6<br/>value = [3, 3]<br/>class = OK>, fillcolor="#ffffff"] ;
280 -> 281 ;
282 [label=<gini = 0.0<br/>samples = 1<br/>value = [1, 0]<br/>class = OK>, fillcolor="#e58139"] ;
280 -> 282 ;
283 [label=<McCabe_loc &le; 14.5<br/>gini = 0.224<br/>samples = 39<br/>value = [34, 5]<br/>class = OK>, fillcolor="#e99456"] ;
279 -> 283 ;
284 [label=<McCabe_loc &le; 12.5<br/>gini = 0.264<br/>samples = 32<br/>value = [27, 5]<br/>class = OK>, fillcolor="#ea985e"] ;
283 -> 284 ;
285 [label=<gini = 0.198<br/>samples = 9<br/>value = [8, 1]<br/>class = OK>, fillcolor="#e89152"] ;
284 -> 285 ;
286 [label=<McCabe_loc &le; 13.5<br/>gini = 0.287<br/>samples = 23<br/>value = [19, 4]<br/>class = OK>, fillcolor="#ea9c63"] ;
284 -> 286 ;
287 [label=<gini = 0.337<br/>samples = 14<br/>value = [11, 3]<br/>class = OK>, fillcolor="#eca36f"] ;
286 -> 287 ;
288 [label=<gini = 0.198<br/>samples = 9<br/>value = [8, 1]<br/>class = OK>, fillcolor="#e89152"] ;
286 -> 288 ;
289 [label=<gini = 0.0<br/>samples = 7<br/>value = [7, 0]<br/>class = OK>, fillcolor="#e58139"] ;
283 -> 289 ;
290 [label=<McCabe_loc &le; 6.5<br/>gini = 0.342<br/>samples = 32<br/>value = [25, 7]<br/>class = OK>, fillcolor="#eca470"] ;
246 -> 290 ;
291 [label=<Halstead_d &le; 1.9<br/>gini = 0.432<br/>samples = 19<br/>value = [13, 6]<br/>class = OK>, fillcolor="#f1bb94"] ;
290 -> 291 ;
292 [label=<gini = 0.0<br/>samples = 3<br/>value = [3, 0]<br/>class = OK>, fillcolor="#e58139"] ;
291 -> 292 ;
293 [label=<Halstead_d &le; 2.65<br/>gini = 0.469<br/>samples = 16<br/>value = [10, 6]<br/>class = OK>, fillcolor="#f5cdb0"] ;
291 -> 293 ;
294 [label=<Halstead_lOCode &le; 3.5<br/>gini = 0.5<br/>samples = 10<br/>value = [5, 5]<br/>class = OK>, fillcolor="#ffffff"] ;
293 -> 294 ;
295 [label=<Halstead_n &le; 13.5<br/>gini = 0.444<br/>samples = 3<br/>value = [2, 1]<br/>class = OK>, fillcolor="#f2c09c"] ;
294 -> 295 ;
296 [label=<gini = 0.0<br/>samples = 1<br/>value = [0, 1]<br/>class = Defeito>, fillcolor="#399de5"] ;
295 -> 296 ;
297 [label=<gini = 0.0<br/>samples = 2<br/>value = [2, 0]<br/>class = OK>, fillcolor="#e58139"] ;
295 -> 297 ;
298 [label=<Halstead_v &le; 47.47<br/>gini = 0.49<br/>samples = 7<br/>value = [3, 4]<br/>class = Defeito>, fillcolor="#cee6f8"] ;
294 -> 298 ;
299 [label=<total_Op &le; 7.5<br/>gini = 0.5<br/>samples = 6<br/>value = [3, 3]<br/>class = OK>, fillcolor="#ffffff"] ;
298 -> 299 ;
300 [label=<gini = 0.5<br/>samples = 4<br/>value = [2, 2]<br/>class = OK>, fillcolor="#ffffff"] ;
299 -> 300 ;
301 [label=<gini = 0.5<br/>samples = 2<br/>value = [1, 1]<br/>class = OK>, fillcolor="#ffffff"] ;
299 -> 301 ;
302 [label=<gini = 0.0<br/>samples = 1<br/>value = [0, 1]<br/>class = Defeito>, fillcolor="#399de5"] ;
298 -> 302 ;
303 [label=<Halstead_lOBlank &le; 0.5<br/>gini = 0.278<br/>samples = 6<br/>value = [5, 1]<br/>class = OK>, fillcolor="#ea9a61"] ;
293 -> 303 ;
304 [label=<gini = 0.0<br/>samples = 2<br/>value = [2, 0]<br/>class = OK>, fillcolor="#e58139"] ;
303 -> 304 ;
305 [label=<Halstead_i &le; 16.645<br/>gini = 0.375<br/>samples = 4<br/>value = [3, 1]<br/>class = OK>, fillcolor="#eeab7b"] ;
303 -> 305 ;
306 [label=<gini = 0.444<br/>samples = 3<br/>value = [2, 1]<br/>class = OK>, fillcolor="#f2c09c"] ;
305 -> 306 ;
307 [label=<gini = 0.0<br/>samples = 1<br/>value = [1, 0]<br/>class = OK>, fillcolor="#e58139"] ;
305 -> 307 ;
308 [label=<Halstead_v &le; 51.89<br/>gini = 0.142<br/>samples = 13<br/>value = [12, 1]<br/>class = OK>, fillcolor="#e78c49"] ;
290 -> 308 ;
309 [label=<gini = 0.0<br/>samples = 8<br/>value = [8, 0]<br/>class = OK>, fillcolor="#e58139"] ;
308 -> 309 ;
310 [label=<gini = 0.32<br/>samples = 5<br/>value = [4, 1]<br/>class = OK>, fillcolor="#eca06a"] ;
308 -> 310 ;
311 [label=<gini = 0.0<br/>samples = 14<br/>value = [14, 0]<br/>class = OK>, fillcolor="#e58139"] ;
245 -> 311 ;
312 [label=<Halstead_lOCode &le; 2.5<br/>gini = 0.401<br/>samples = 18<br/>value = [13, 5]<br/>class = OK>, fillcolor="#efb185"] ;
244 -> 312 ;
313 [label=<gini = 0.0<br/>samples = 1<br/>value = [0, 1]<br/>class = Defeito>, fillcolor="#399de5"] ;
312 -> 313 ;
314 [label=<Halstead_v &le; 38.955<br/>gini = 0.36<br/>samples = 17<br/>value = [13, 4]<br/>class = OK>, fillcolor="#eda876"] ;
312 -> 314 ;
315 [label=<gini = 0.0<br/>samples = 5<br/>value = [5, 0]<br/>class = OK>, fillcolor="#e58139"] ;
314 -> 315 ;
316 [label=<Halstead_e &le; 127.05<br/>gini = 0.444<br/>samples = 12<br/>value = [8, 4]<br/>class = OK>, fillcolor="#f2c09c"] ;
314 -> 316 ;
317 [label=<gini = 0.0<br/>samples = 2<br/>value = [0, 2]<br/>class = Defeito>, fillcolor="#399de5"] ;
316 -> 317 ;
318 [label=<Halstead_d &le; 3.25<br/>gini = 0.32<br/>samples = 10<br/>value = [8, 2]<br/>class = OK>, fillcolor="#eca06a"] ;
316 -> 318 ;
319 [label=<gini = 0.0<br/>samples = 5<br/>value = [5, 0]<br/>class = OK>, fillcolor="#e58139"] ;
318 -> 319 ;
320 [label=<Halstead_t &le; 8.185<br/>gini = 0.48<br/>samples = 5<br/>value = [3, 2]<br/>class = OK>, fillcolor="#f6d5bd"] ;
318 -> 320 ;
321 [label=<gini = 0.0<br/>samples = 2<br/>value = [2, 0]<br/>class = OK>, fillcolor="#e58139"] ;
320 -> 321 ;
322 [label=<Halstead_l &le; 0.28<br/>gini = 0.444<br/>samples = 3<br/>value = [1, 2]<br/>class = Defeito>, fillcolor="#9ccef2"] ;
320 -> 322 ;
323 [label=<McCabe_loc &le; 6.5<br/>gini = 0.5<br/>samples = 2<br/>value = [1, 1]<br/>class = OK>, fillcolor="#ffffff"] ;
322 -> 323 ;
324 [label=<gini = 0.0<br/>samples = 1<br/>value = [0, 1]<br/>class = Defeito>, fillcolor="#399de5"] ;
323 -> 324 ;
325 [label=<gini = 0.0<br/>samples = 1<br/>value = [1, 0]<br/>class = OK>, fillcolor="#e58139"] ;
323 -> 325 ;
326 [label=<gini = 0.0<br/>samples = 1<br/>value = [0, 1]<br/>class = Defeito>, fillcolor="#399de5"] ;
322 -> 326 ;
327 [label=<Halstead_l &le; 0.45<br/>gini = 0.057<br/>samples = 34<br/>value = [33, 1]<br/>class = OK>, fillcolor="#e6853f"] ;
243 -> 327 ;
328 [label=<gini = 0.0<br/>samples = 18<br/>value = [18, 0]<br/>class = OK>, fillcolor="#e58139"] ;
327 -> 328 ;
329 [label=<uniq_Op &le; 3.5<br/>gini = 0.117<br/>samples = 16<br/>value = [15, 1]<br/>class = OK>, fillcolor="#e78946"] ;
327 -> 329 ;
330 [label=<gini = 0.0<br/>samples = 8<br/>value = [8, 0]<br/>class = OK>, fillcolor="#e58139"] ;
329 -> 330 ;
331 [label=<Halstead_i &le; 10.19<br/>gini = 0.219<br/>samples = 8<br/>value = [7, 1]<br/>class = OK>, fillcolor="#e99355"] ;
329 -> 331 ;
332 [label=<McCabe_loc &le; 6.5<br/>gini = 0.375<br/>samples = 4<br/>value = [3, 1]<br/>class = OK>, fillcolor="#eeab7b"] ;
331 -> 332 ;
333 [label=<gini = 0.0<br/>samples = 1<br/>value = [1, 0]<br/>class = OK>, fillcolor="#e58139"] ;
332 -> 333 ;
334 [label=<gini = 0.444<br/>samples = 3<br/>value = [2, 1]<br/>class = OK>, fillcolor="#f2c09c"] ;
332 -> 334 ;
335 [label=<gini = 0.0<br/>samples = 4<br/>value = [4, 0]<br/>class = OK>, fillcolor="#e58139"] ;
331 -> 335 ;
336 [label=<McCabe_loc &le; 10.5<br/>gini = 0.095<br/>samples = 219<br/>value = [208, 11]<br/>class = OK>, fillcolor="#e68843"] ;
240 -> 336 ;
337 [label=<McCabe_loc &le; 8.5<br/>gini = 0.035<br/>samples = 56<br/>value = [55, 1]<br/>class = OK>, fillcolor="#e5833d"] ;
336 -> 337 ;
338 [label=<McCabe_loc &le; 7.5<br/>gini = 0.087<br/>samples = 22<br/>value = [21, 1]<br/>class = OK>, fillcolor="#e68742"] ;
337 -> 338 ;
339 [label=<gini = 0.0<br/>samples = 11<br/>value = [11, 0]<br/>class = OK>, fillcolor="#e58139"] ;
338 -> 339 ;
340 [label=<McCabe_iv(g) &le; 1.5<br/>gini = 0.165<br/>samples = 11<br/>value = [10, 1]<br/>class = OK>, fillcolor="#e88e4d"] ;
338 -> 340 ;
341 [label=<gini = 0.0<br/>samples = 5<br/>value = [5, 0]<br/>class = OK>, fillcolor="#e58139"] ;
340 -> 341 ;
342 [label=<McCabe_v(g) &le; 2.5<br/>gini = 0.278<br/>samples = 6<br/>value = [5, 1]<br/>class = OK>, fillcolor="#ea9a61"] ;
340 -> 342 ;
343 [label=<gini = 0.375<br/>samples = 4<br/>value = [3, 1]<br/>class = OK>, fillcolor="#eeab7b"] ;
342 -> 343 ;
344 [label=<gini = 0.0<br/>samples = 2<br/>value = [2, 0]<br/>class = OK>, fillcolor="#e58139"] ;
342 -> 344 ;
345 [label=<gini = 0.0<br/>samples = 34<br/>value = [34, 0]<br/>class = OK>, fillcolor="#e58139"] ;
337 -> 345 ;
346 [label=<McCabe_ev(g) &le; 5.5<br/>gini = 0.115<br/>samples = 163<br/>value = [153, 10]<br/>class = OK>, fillcolor="#e78946"] ;
336 -> 346 ;
347 [label=<McCabe_v(g) &le; 5.5<br/>gini = 0.123<br/>samples = 152<br/>value = [142, 10]<br/>class = OK>, fillcolor="#e78a47"] ;
346 -> 347 ;
348 [label=<McCabe_loc &le; 16.5<br/>gini = 0.114<br/>samples = 149<br/>value = [140, 9]<br/>class = OK>, fillcolor="#e78946"] ;
347 -> 348 ;
349 [label=<McCabe_iv(g) &le; 3.5<br/>gini = 0.1<br/>samples = 133<br/>value = [126, 7]<br/>class = OK>, fillcolor="#e68844"] ;
348 -> 349 ;
350 [label=<McCabe_ev(g) &le; 3.5<br/>gini = 0.091<br/>samples = 126<br/>value = [120, 6]<br/>class = OK>, fillcolor="#e68743"] ;
349 -> 350 ;
351 [label=<McCabe_ev(g) &le; 2.0<br/>gini = 0.074<br/>samples = 104<br/>value = [100, 4]<br/>class = OK>, fillcolor="#e68641"] ;
350 -> 351 ;
352 [label=<McCabe_loc &le; 13.5<br/>gini = 0.084<br/>samples = 91<br/>value = [87, 4]<br/>class = OK>, fillcolor="#e68742"] ;
351 -> 352 ;
353 [label=<McCabe_loc &le; 12.5<br/>gini = 0.05<br/>samples = 39<br/>value = [38, 1]<br/>class = OK>, fillcolor="#e6843e"] ;
352 -> 353 ;
354 [label=<McCabe_loc &le; 11.5<br/>gini = 0.08<br/>samples = 24<br/>value = [23, 1]<br/>class = OK>, fillcolor="#e68642"] ;
353 -> 354 ;
355 [label=<gini = 0.0<br/>samples = 9<br/>value = [9, 0]<br/>class = OK>, fillcolor="#e58139"] ;
354 -> 355 ;
356 [label=<branchCount &le; 4.0<br/>gini = 0.124<br/>samples = 15<br/>value = [14, 1]<br/>class = OK>, fillcolor="#e78a47"] ;
354 -> 356 ;
357 [label=<McCabe_iv(g) &le; 1.5<br/>gini = 0.153<br/>samples = 12<br/>value = [11, 1]<br/>class = OK>, fillcolor="#e78c4b"] ;
356 -> 357 ;
358 [label=<gini = 0.0<br/>samples = 2<br/>value = [2, 0]<br/>class = OK>, fillcolor="#e58139"] ;
357 -> 358 ;
359 [label=<gini = 0.18<br/>samples = 10<br/>value = [9, 1]<br/>class = OK>, fillcolor="#e88f4f"] ;
357 -> 359 ;
360 [label=<gini = 0.0<br/>samples = 3<br/>value = [3, 0]<br/>class = OK>, fillcolor="#e58139"] ;
356 -> 360 ;
361 [label=<gini = 0.0<br/>samples = 15<br/>value = [15, 0]<br/>class = OK>, fillcolor="#e58139"] ;
353 -> 361 ;
362 [label=<McCabe_iv(g) &le; 2.5<br/>gini = 0.109<br/>samples = 52<br/>value = [49, 3]<br/>class = OK>, fillcolor="#e78945"] ;
352 -> 362 ;
363 [label=<McCabe_v(g) &le; 2.5<br/>gini = 0.12<br/>samples = 47<br/>value = [44, 3]<br/>class = OK>, fillcolor="#e78a46"] ;
362 -> 363 ;
364 [label=<McCabe_iv(g) &le; 1.5<br/>gini = 0.093<br/>samples = 41<br/>value = [39, 2]<br/>class = OK>, fillcolor="#e68743"] ;
363 -> 364 ;
365 [label=<gini = 0.0<br/>samples = 9<br/>value = [9, 0]<br/>class = OK>, fillcolor="#e58139"] ;
364 -> 365 ;
366 [label=<McCabe_loc &le; 15.5<br/>gini = 0.117<br/>samples = 32<br/>value = [30, 2]<br/>class = OK>, fillcolor="#e78946"] ;
364 -> 366 ;
367 [label=<McCabe_loc &le; 14.5<br/>gini = 0.087<br/>samples = 22<br/>value = [21, 1]<br/>class = OK>, fillcolor="#e68742"] ;
366 -> 367 ;
368 [label=<gini = 0.142<br/>samples = 13<br/>value = [12, 1]<br/>class = OK>, fillcolor="#e78c49"] ;
367 -> 368 ;
369 [label=<gini = 0.0<br/>samples = 9<br/>value = [9, 0]<br/>class = OK>, fillcolor="#e58139"] ;
367 -> 369 ;
370 [label=<gini = 0.18<br/>samples = 10<br/>value = [9, 1]<br/>class = OK>, fillcolor="#e88f4f"] ;
366 -> 370 ;
371 [label=<McCabe_loc &le; 15.5<br/>gini = 0.278<br/>samples = 6<br/>value = [5, 1]<br/>class = OK>, fillcolor="#ea9a61"] ;
363 -> 371 ;
372 [label=<gini = 0.444<br/>samples = 3<br/>value = [2, 1]<br/>class = OK>, fillcolor="#f2c09c"] ;
371 -> 372 ;
373 [label=<gini = 0.0<br/>samples = 3<br/>value = [3, 0]<br/>class = OK>, fillcolor="#e58139"] ;
371 -> 373 ;
374 [label=<gini = 0.0<br/>samples = 5<br/>value = [5, 0]<br/>class = OK>, fillcolor="#e58139"] ;
362 -> 374 ;
375 [label=<gini = 0.0<br/>samples = 13<br/>value = [13, 0]<br/>class = OK>, fillcolor="#e58139"] ;
351 -> 375 ;
376 [label=<McCabe_loc &le; 13.5<br/>gini = 0.165<br/>samples = 22<br/>value = [20, 2]<br/>class = OK>, fillcolor="#e88e4d"] ;
350 -> 376 ;
377 [label=<McCabe_loc &le; 12.5<br/>gini = 0.245<br/>samples = 14<br/>value = [12, 2]<br/>class = OK>, fillcolor="#e9965a"] ;
376 -> 377 ;
378 [label=<McCabe_iv(g) &le; 1.5<br/>gini = 0.153<br/>samples = 12<br/>value = [11, 1]<br/>class = OK>, fillcolor="#e78c4b"] ;
377 -> 378 ;
379 [label=<McCabe_ev(g) &le; 4.5<br/>gini = 0.5<br/>samples = 2<br/>value = [1, 1]<br/>class = OK>, fillcolor="#ffffff"] ;
378 -> 379 ;
380 [label=<gini = 0.0<br/>samples = 1<br/>value = [1, 0]<br/>class = OK>, fillcolor="#e58139"] ;
379 -> 380 ;
381 [label=<gini = 0.0<br/>samples = 1<br/>value = [0, 1]<br/>class = Defeito>, fillcolor="#399de5"] ;
379 -> 381 ;
382 [label=<gini = 0.0<br/>samples = 10<br/>value = [10, 0]<br/>class = OK>, fillcolor="#e58139"] ;
378 -> 382 ;
383 [label=<branchCount &le; 8.0<br/>gini = 0.5<br/>samples = 2<br/>value = [1, 1]<br/>class = OK>, fillcolor="#ffffff"] ;
377 -> 383 ;
384 [label=<gini = 0.0<br/>samples = 1<br/>value = [0, 1]<br/>class = Defeito>, fillcolor="#399de5"] ;
383 -> 384 ;
385 [label=<gini = 0.0<br/>samples = 1<br/>value = [1, 0]<br/>class = OK>, fillcolor="#e58139"] ;
383 -> 385 ;
386 [label=<gini = 0.0<br/>samples = 8<br/>value = [8, 0]<br/>class = OK>, fillcolor="#e58139"] ;
376 -> 386 ;
387 [label=<McCabe_loc &le; 14.5<br/>gini = 0.245<br/>samples = 7<br/>value = [6, 1]<br/>class = OK>, fillcolor="#e9965a"] ;
349 -> 387 ;
388 [label=<branchCount &le; 8.0<br/>gini = 0.444<br/>samples = 3<br/>value = [2, 1]<br/>class = OK>, fillcolor="#f2c09c"] ;
387 -> 388 ;
389 [label=<gini = 0.5<br/>samples = 2<br/>value = [1, 1]<br/>class = OK>, fillcolor="#ffffff"] ;
388 -> 389 ;
390 [label=<gini = 0.0<br/>samples = 1<br/>value = [1, 0]<br/>class = OK>, fillcolor="#e58139"] ;
388 -> 390 ;
391 [label=<gini = 0.0<br/>samples = 4<br/>value = [4, 0]<br/>class = OK>, fillcolor="#e58139"] ;
387 -> 391 ;
392 [label=<McCabe_iv(g) &le; 1.5<br/>gini = 0.219<br/>samples = 16<br/>value = [14, 2]<br/>class = OK>, fillcolor="#e99355"] ;
348 -> 392 ;
393 [label=<gini = 0.0<br/>samples = 9<br/>value = [9, 0]<br/>class = OK>, fillcolor="#e58139"] ;
392 -> 393 ;
394 [label=<McCabe_v(g) &le; 3.5<br/>gini = 0.408<br/>samples = 7<br/>value = [5, 2]<br/>class = OK>, fillcolor="#efb388"] ;
392 -> 394 ;
395 [label=<McCabe_iv(g) &le; 2.5<br/>gini = 0.444<br/>samples = 3<br/>value = [1, 2]<br/>class = Defeito>, fillcolor="#9ccef2"] ;
394 -> 395 ;
396 [label=<gini = 0.0<br/>samples = 2<br/>value = [0, 2]<br/>class = Defeito>, fillcolor="#399de5"] ;
395 -> 396 ;
397 [label=<gini = 0.0<br/>samples = 1<br/>value = [1, 0]<br/>class = OK>, fillcolor="#e58139"] ;
395 -> 397 ;
398 [label=<gini = 0.0<br/>samples = 4<br/>value = [4, 0]<br/>class = OK>, fillcolor="#e58139"] ;
394 -> 398 ;
399 [label=<McCabe_loc &le; 16.0<br/>gini = 0.444<br/>samples = 3<br/>value = [2, 1]<br/>class = OK>, fillcolor="#f2c09c"] ;
347 -> 399 ;
400 [label=<McCabe_ev(g) &le; 3.5<br/>gini = 0.5<br/>samples = 2<br/>value = [1, 1]<br/>class = OK>, fillcolor="#ffffff"] ;
399 -> 400 ;
401 [label=<gini = 0.0<br/>samples = 1<br/>value = [1, 0]<br/>class = OK>, fillcolor="#e58139"] ;
400 -> 401 ;
402 [label=<gini = 0.0<br/>samples = 1<br/>value = [0, 1]<br/>class = Defeito>, fillcolor="#399de5"] ;
400 -> 402 ;
403 [label=<gini = 0.0<br/>samples = 1<br/>value = [1, 0]<br/>class = OK>, fillcolor="#e58139"] ;
399 -> 403 ;
404 [label=<gini = 0.0<br/>samples = 11<br/>value = [11, 0]<br/>class = OK>, fillcolor="#e58139"] ;
346 -> 404 ;
405 [label=<Halstead_i &le; 27.38<br/>gini = 0.026<br/>samples = 77<br/>value = [76, 1]<br/>class = OK>, fillcolor="#e5833c"] ;
239 -> 405 ;
406 [label=<gini = 0.0<br/>samples = 68<br/>value = [68, 0]<br/>class = OK>, fillcolor="#e58139"] ;
405 -> 406 ;
407 [label=<Halstead_v &le; 72.795<br/>gini = 0.198<br/>samples = 9<br/>value = [8, 1]<br/>class = OK>, fillcolor="#e89152"] ;
405 -> 407 ;
408 [label=<gini = 0.0<br/>samples = 1<br/>value = [0, 1]<br/>class = Defeito>, fillcolor="#399de5"] ;
407 -> 408 ;
409 [label=<gini = 0.0<br/>samples = 8<br/>value = [8, 0]<br/>class = OK>, fillcolor="#e58139"] ;
407 -> 409 ;
410 [label=<McCabe_loc &le; 15.5<br/>gini = 0.5<br/>samples = 2<br/>value = [1, 1]<br/>class = OK>, fillcolor="#ffffff"] ;
238 -> 410 ;
411 [label=<gini = 0.0<br/>samples = 1<br/>value = [1, 0]<br/>class = OK>, fillcolor="#e58139"] ;
410 -> 411 ;
412 [label=<gini = 0.0<br/>samples = 1<br/>value = [0, 1]<br/>class = Defeito>, fillcolor="#399de5"] ;
410 -> 412 ;
413 [label=<McCabe_loc &le; 11.5<br/>gini = 0.5<br/>samples = 2<br/>value = [1, 1]<br/>class = OK>, fillcolor="#ffffff"] ;
237 -> 413 ;
414 [label=<gini = 0.0<br/>samples = 1<br/>value = [0, 1]<br/>class = Defeito>, fillcolor="#399de5"] ;
413 -> 414 ;
415 [label=<gini = 0.0<br/>samples = 1<br/>value = [1, 0]<br/>class = OK>, fillcolor="#e58139"] ;
413 -> 415 ;
416 [label=<Halstead_v &le; 34.28<br/>gini = 0.248<br/>samples = 200<br/>value = [171, 29]<br/>class = OK>, fillcolor="#e9965b"] ;
236 -> 416 ;
417 [label=<gini = 0.0<br/>samples = 30<br/>value = [30, 0]<br/>class = OK>, fillcolor="#e58139"] ;
416 -> 417 ;
418 [label=<total_Op &le; 6.5<br/>gini = 0.283<br/>samples = 170<br/>value = [141, 29]<br/>class = OK>, fillcolor="#ea9b62"] ;
416 -> 418 ;
419 [label=<gini = 0.0<br/>samples = 4<br/>value = [0, 4]<br/>class = Defeito>, fillcolor="#399de5"] ;
418 -> 419 ;
420 [label=<Halstead_lOCode &le; 5.5<br/>gini = 0.256<br/>samples = 166<br/>value = [141, 25]<br/>class = OK>, fillcolor="#ea975c"] ;
418 -> 420 ;
421 [label=<branchCount &le; 2.0<br/>gini = 0.39<br/>samples = 64<br/>value = [47, 17]<br/>class = OK>, fillcolor="#eeaf81"] ;
420 -> 421 ;
422 [label=<total_Opnd &le; 6.5<br/>gini = 0.251<br/>samples = 34<br/>value = [29, 5]<br/>class = OK>, fillcolor="#e9975b"] ;
421 -> 422 ;
423 [label=<gini = 0.0<br/>samples = 14<br/>value = [14, 0]<br/>class = OK>, fillcolor="#e58139"] ;
422 -> 423 ;
424 [label=<Halstead_i &le; 18.915<br/>gini = 0.375<br/>samples = 20<br/>value = [15, 5]<br/>class = OK>, fillcolor="#eeab7b"] ;
422 -> 424 ;
425 [label=<gini = 0.0<br/>samples = 2<br/>value = [0, 2]<br/>class = Defeito>, fillcolor="#399de5"] ;
424 -> 425 ;
426 [label=<Halstead_l &le; 0.62<br/>gini = 0.278<br/>samples = 18<br/>value = [15, 3]<br/>class = OK>, fillcolor="#ea9a61"] ;
424 -> 426 ;
427 [label=<uniq_Op &le; 4.5<br/>gini = 0.208<br/>samples = 17<br/>value = [15, 2]<br/>class = OK>, fillcolor="#e89253"] ;
426 -> 427 ;
428 [label=<gini = 0.0<br/>samples = 10<br/>value = [10, 0]<br/>class = OK>, fillcolor="#e58139"] ;
427 -> 428 ;
429 [label=<Halstead_d &le; 2.835<br/>gini = 0.408<br/>samples = 7<br/>value = [5, 2]<br/>class = OK>, fillcolor="#efb388"] ;
427 -> 429 ;
430 [label=<gini = 0.0<br/>samples = 1<br/>value = [0, 1]<br/>class = Defeito>, fillcolor="#399de5"] ;
429 -> 430 ;
431 [label=<Halstead_l &le; 0.315<br/>gini = 0.278<br/>samples = 6<br/>value = [5, 1]<br/>class = OK>, fillcolor="#ea9a61"] ;
429 -> 431 ;
432 [label=<gini = 0.375<br/>samples = 4<br/>value = [3, 1]<br/>class = OK>, fillcolor="#eeab7b"] ;
431 -> 432 ;
433 [label=<gini = 0.0<br/>samples = 2<br/>value = [2, 0]<br/>class = OK>, fillcolor="#e58139"] ;
431 -> 433 ;
434 [label=<gini = 0.0<br/>samples = 1<br/>value = [0, 1]<br/>class = Defeito>, fillcolor="#399de5"] ;
426 -> 434 ;
435 [label=<total_Op &le; 8.5<br/>gini = 0.48<br/>samples = 30<br/>value = [18, 12]<br/>class = OK>, fillcolor="#f6d5bd"] ;
421 -> 435 ;
436 [label=<Halstead_v &le; 39.43<br/>gini = 0.408<br/>samples = 21<br/>value = [15, 6]<br/>class = OK>, fillcolor="#efb388"] ;
435 -> 436 ;
437 [label=<gini = 0.0<br/>samples = 4<br/>value = [4, 0]<br/>class = OK>, fillcolor="#e58139"] ;
436 -> 437 ;
438 [label=<Halstead_v &le; 40.685<br/>gini = 0.457<br/>samples = 17<br/>value = [11, 6]<br/>class = OK>, fillcolor="#f3c6a5"] ;
436 -> 438 ;
439 [label=<Halstead_t &le; 9.315<br/>gini = 0.444<br/>samples = 6<br/>value = [2, 4]<br/>class = Defeito>, fillcolor="#9ccef2"] ;
438 -> 439 ;
440 [label=<gini = 0.375<br/>samples = 4<br/>value = [1, 3]<br/>class = Defeito>, fillcolor="#7bbeee"] ;
439 -> 440 ;
441 [label=<gini = 0.5<br/>samples = 2<br/>value = [1, 1]<br/>class = OK>, fillcolor="#ffffff"] ;
439 -> 441 ;
442 [label=<Halstead_e &le; 140.11<br/>gini = 0.298<br/>samples = 11<br/>value = [9, 2]<br/>class = OK>, fillcolor="#eb9d65"] ;
438 -> 442 ;
443 [label=<gini = 0.0<br/>samples = 1<br/>value = [0, 1]<br/>class = Defeito>, fillcolor="#399de5"] ;
442 -> 443 ;
444 [label=<McCabe_iv(g) &le; 1.5<br/>gini = 0.18<br/>samples = 10<br/>value = [9, 1]<br/>class = OK>, fillcolor="#e88f4f"] ;
442 -> 444 ;
445 [label=<Halstead_t &le; 10.66<br/>gini = 0.5<br/>samples = 2<br/>value = [1, 1]<br/>class = OK>, fillcolor="#ffffff"] ;
444 -> 445 ;
446 [label=<gini = 0.0<br/>samples = 1<br/>value = [0, 1]<br/>class = Defeito>, fillcolor="#399de5"] ;
445 -> 446 ;
447 [label=<gini = 0.0<br/>samples = 1<br/>value = [1, 0]<br/>class = OK>, fillcolor="#e58139"] ;
445 -> 447 ;
448 [label=<gini = 0.0<br/>samples = 8<br/>value = [8, 0]<br/>class = OK>, fillcolor="#e58139"] ;
444 -> 448 ;
449 [label=<Halstead_e &le; 216.89<br/>gini = 0.444<br/>samples = 9<br/>value = [3, 6]<br/>class = Defeito>, fillcolor="#9ccef2"] ;
435 -> 449 ;
450 [label=<total_Op &le; 9.5<br/>gini = 0.245<br/>samples = 7<br/>value = [1, 6]<br/>class = Defeito>, fillcolor="#5aade9"] ;
449 -> 450 ;
451 [label=<gini = 0.0<br/>samples = 6<br/>value = [0, 6]<br/>class = Defeito>, fillcolor="#399de5"] ;
450 -> 451 ;
452 [label=<gini = 0.0<br/>samples = 1<br/>value = [1, 0]<br/>class = OK>, fillcolor="#e58139"] ;
450 -> 452 ;
453 [label=<gini = 0.0<br/>samples = 2<br/>value = [2, 0]<br/>class = OK>, fillcolor="#e58139"] ;
449 -> 453 ;
454 [label=<Halstead_i &le; 12.25<br/>gini = 0.145<br/>samples = 102<br/>value = [94, 8]<br/>class = OK>, fillcolor="#e78c4a"] ;
420 -> 454 ;
455 [label=<Halstead_e &le; 158.5<br/>gini = 0.5<br/>samples = 6<br/>value = [3, 3]<br/>class = OK>, fillcolor="#ffffff"] ;
454 -> 455 ;
456 [label=<gini = 0.0<br/>samples = 2<br/>value = [0, 2]<br/>class = Defeito>, fillcolor="#399de5"] ;
455 -> 456 ;
457 [label=<Halstead_t &le; 11.58<br/>gini = 0.375<br/>samples = 4<br/>value = [3, 1]<br/>class = OK>, fillcolor="#eeab7b"] ;
455 -> 457 ;
458 [label=<gini = 0.0<br/>samples = 3<br/>value = [3, 0]<br/>class = OK>, fillcolor="#e58139"] ;
457 -> 458 ;
459 [label=<gini = 0.0<br/>samples = 1<br/>value = [0, 1]<br/>class = Defeito>, fillcolor="#399de5"] ;
457 -> 459 ;
460 [label=<McCabe_loc &le; 9.5<br/>gini = 0.099<br/>samples = 96<br/>value = [91, 5]<br/>class = OK>, fillcolor="#e68844"] ;
454 -> 460 ;
461 [label=<gini = 0.0<br/>samples = 55<br/>value = [55, 0]<br/>class = OK>, fillcolor="#e58139"] ;
460 -> 461 ;
462 [label=<locCodeAndComment &le; 1.5<br/>gini = 0.214<br/>samples = 41<br/>value = [36, 5]<br/>class = OK>, fillcolor="#e99254"] ;
460 -> 462 ;
463 [label=<McCabe_iv(g) &le; 1.5<br/>gini = 0.18<br/>samples = 40<br/>value = [36, 4]<br/>class = OK>, fillcolor="#e88f4f"] ;
462 -> 463 ;
464 [label=<gini = 0.0<br/>samples = 17<br/>value = [17, 0]<br/>class = OK>, fillcolor="#e58139"] ;
463 -> 464 ;
465 [label=<total_Op &le; 11.5<br/>gini = 0.287<br/>samples = 23<br/>value = [19, 4]<br/>class = OK>, fillcolor="#ea9c63"] ;
463 -> 465 ;
466 [label=<Halstead_i &le; 16.31<br/>gini = 0.236<br/>samples = 22<br/>value = [19, 3]<br/>class = OK>, fillcolor="#e99558"] ;
465 -> 466 ;
467 [label=<total_Op &le; 9.5<br/>gini = 0.42<br/>samples = 10<br/>value = [7, 3]<br/>class = OK>, fillcolor="#f0b78e"] ;
466 -> 467 ;
468 [label=<gini = 0.0<br/>samples = 6<br/>value = [6, 0]<br/>class = OK>, fillcolor="#e58139"] ;
467 -> 468 ;
469 [label=<branchCount &le; 4.0<br/>gini = 0.375<br/>samples = 4<br/>value = [1, 3]<br/>class = Defeito>, fillcolor="#7bbeee"] ;
467 -> 469 ;
470 [label=<gini = 0.0<br/>samples = 3<br/>value = [0, 3]<br/>class = Defeito>, fillcolor="#399de5"] ;
469 -> 470 ;
471 [label=<gini = 0.0<br/>samples = 1<br/>value = [1, 0]<br/>class = OK>, fillcolor="#e58139"] ;
469 -> 471 ;
472 [label=<gini = 0.0<br/>samples = 12<br/>value = [12, 0]<br/>class = OK>, fillcolor="#e58139"] ;
466 -> 472 ;
473 [label=<gini = 0.0<br/>samples = 1<br/>value = [0, 1]<br/>class = Defeito>, fillcolor="#399de5"] ;
465 -> 473 ;
474 [label=<gini = 0.0<br/>samples = 1<br/>value = [0, 1]<br/>class = Defeito>, fillcolor="#399de5"] ;
462 -> 474 ;
475 [label=<McCabe_ev(g) &le; 4.5<br/>gini = 0.312<br/>samples = 62<br/>value = [50, 12]<br/>class = OK>, fillcolor="#eb9f69"] ;
235 -> 475 ;
476 [label=<McCabe_ev(g) &le; 3.5<br/>gini = 0.365<br/>samples = 50<br/>value = [38, 12]<br/>class = OK>, fillcolor="#eda978"] ;
475 -> 476 ;
477 [label=<McCabe_loc &le; 18.5<br/>gini = 0.348<br/>samples = 49<br/>value = [38, 11]<br/>class = OK>, fillcolor="#eda572"] ;
476 -> 477 ;
478 [label=<McCabe_iv(g) &le; 2.5<br/>gini = 0.408<br/>samples = 28<br/>value = [20, 8]<br/>class = OK>, fillcolor="#efb388"] ;
477 -> 478 ;
479 [label=<McCabe_v(g) &le; 2.5<br/>gini = 0.34<br/>samples = 23<br/>value = [18, 5]<br/>class = OK>, fillcolor="#eca470"] ;
478 -> 479 ;
480 [label=<branchCount &le; 2.0<br/>gini = 0.415<br/>samples = 17<br/>value = [12, 5]<br/>class = OK>, fillcolor="#f0b58b"] ;
479 -> 480 ;
481 [label=<gini = 0.444<br/>samples = 3<br/>value = [2, 1]<br/>class = OK>, fillcolor="#f2c09c"] ;
480 -> 481 ;
482 [label=<McCabe_iv(g) &le; 1.5<br/>gini = 0.408<br/>samples = 14<br/>value = [10, 4]<br/>class = OK>, fillcolor="#efb388"] ;
480 -> 482 ;
483 [label=<gini = 0.375<br/>samples = 4<br/>value = [3, 1]<br/>class = OK>, fillcolor="#eeab7b"] ;
482 -> 483 ;
484 [label=<gini = 0.42<br/>samples = 10<br/>value = [7, 3]<br/>class = OK>, fillcolor="#f0b78e"] ;
482 -> 484 ;
485 [label=<gini = 0.0<br/>samples = 6<br/>value = [6, 0]<br/>class = OK>, fillcolor="#e58139"] ;
479 -> 485 ;
486 [label=<branchCount &le; 6.0<br/>gini = 0.48<br/>samples = 5<br/>value = [2, 3]<br/>class = Defeito>, fillcolor="#bddef6"] ;
478 -> 486 ;
487 [label=<gini = 0.444<br/>samples = 3<br/>value = [2, 1]<br/>class = OK>, fillcolor="#f2c09c"] ;
486 -> 487 ;
488 [label=<gini = 0.0<br/>samples = 2<br/>value = [0, 2]<br/>class = Defeito>, fillcolor="#399de5"] ;
486 -> 488 ;
489 [label=<McCabe_iv(g) &le; 2.5<br/>gini = 0.245<br/>samples = 21<br/>value = [18, 3]<br/>class = OK>, fillcolor="#e9965a"] ;
477 -> 489 ;
490 [label=<McCabe_v(g) &le; 3.5<br/>gini = 0.305<br/>samples = 16<br/>value = [13, 3]<br/>class = OK>, fillcolor="#eb9e67"] ;
489 -> 490 ;
491 [label=<branchCount &le; 4.0<br/>gini = 0.337<br/>samples = 14<br/>value = [11, 3]<br/>class = OK>, fillcolor="#eca36f"] ;
490 -> 491 ;
492 [label=<McCabe_iv(g) &le; 1.5<br/>gini = 0.278<br/>samples = 12<br/>value = [10, 2]<br/>class = OK>, fillcolor="#ea9a61"] ;
491 -> 492 ;
493 [label=<gini = 0.444<br/>samples = 3<br/>value = [2, 1]<br/>class = OK>, fillcolor="#f2c09c"] ;
492 -> 493 ;
494 [label=<gini = 0.198<br/>samples = 9<br/>value = [8, 1]<br/>class = OK>, fillcolor="#e89152"] ;
492 -> 494 ;
495 [label=<gini = 0.5<br/>samples = 2<br/>value = [1, 1]<br/>class = OK>, fillcolor="#ffffff"] ;
491 -> 495 ;
496 [label=<gini = 0.0<br/>samples = 2<br/>value = [2, 0]<br/>class = OK>, fillcolor="#e58139"] ;
490 -> 496 ;
497 [label=<gini = 0.0<br/>samples = 5<br/>value = [5, 0]<br/>class = OK>, fillcolor="#e58139"] ;
489 -> 497 ;
498 [label=<gini = 0.0<br/>samples = 1<br/>value = [0, 1]<br/>class = Defeito>, fillcolor="#399de5"] ;
476 -> 498 ;
499 [label=<gini = 0.0<br/>samples = 12<br/>value = [12, 0]<br/>class = OK>, fillcolor="#e58139"] ;
475 -> 499 ;
500 [label=<branchCount &le; 2.0<br/>gini = 0.469<br/>samples = 8<br/>value = [3, 5]<br/>class = Defeito>, fillcolor="#b0d8f5"] ;
234 -> 500 ;
501 [label=<Halstead_t &le; 12.65<br/>gini = 0.375<br/>samples = 4<br/>value = [3, 1]<br/>class = OK>, fillcolor="#eeab7b"] ;
500 -> 501 ;
502 [label=<gini = 0.0<br/>samples = 3<br/>value = [3, 0]<br/>class = OK>, fillcolor="#e58139"] ;
501 -> 502 ;
503 [label=<gini = 0.0<br/>samples = 1<br/>value = [0, 1]<br/>class = Defeito>, fillcolor="#399de5"] ;
501 -> 503 ;
504 [label=<gini = 0.0<br/>samples = 4<br/>value = [0, 4]<br/>class = Defeito>, fillcolor="#399de5"] ;
500 -> 504 ;
505 [label=<Halstead_i &le; 4.505<br/>gini = 0.1<br/>samples = 1840<br/>value = [1743, 97]<br/>class = OK>, fillcolor="#e68844"] ;
233 -> 505 ;
506 [label=<gini = 0.0<br/>samples = 1<br/>value = [0, 1]<br/>class = Defeito>, fillcolor="#399de5"] ;
505 -> 506 ;
507 [label=<Halstead_lOComment &le; 22.0<br/>gini = 0.099<br/>samples = 1839<br/>value = [1743, 96]<br/>class = OK>, fillcolor="#e68844"] ;
505 -> 507 ;
508 [label=<SOFTWARE &le; 2.0<br/>gini = 0.098<br/>samples = 1838<br/>value = [1743, 95]<br/>class = OK>, fillcolor="#e68844"] ;
507 -> 508 ;
509 [label=<Halstead_lOBlank &le; 0.5<br/>gini = 0.114<br/>samples = 1385<br/>value = [1301, 84]<br/>class = OK>, fillcolor="#e78946"] ;
508 -> 509 ;
510 [label=<Halstead_v &le; 111.07<br/>gini = 0.162<br/>samples = 496<br/>value = [452, 44]<br/>class = OK>, fillcolor="#e88d4c"] ;
509 -> 510 ;
511 [label=<Halstead_lOCode &le; 12.5<br/>gini = 0.091<br/>samples = 271<br/>value = [258, 13]<br/>class = OK>, fillcolor="#e68743"] ;
510 -> 511 ;
512 [label=<Halstead_v &le; 81.725<br/>gini = 0.08<br/>samples = 263<br/>value = [252, 11]<br/>class = OK>, fillcolor="#e68642"] ;
511 -> 512 ;
513 [label=<Halstead_v &le; 65.865<br/>gini = 0.03<br/>samples = 130<br/>value = [128, 2]<br/>class = OK>, fillcolor="#e5833c"] ;
512 -> 513 ;
514 [label=<Halstead_v &le; 65.23<br/>gini = 0.073<br/>samples = 53<br/>value = [51, 2]<br/>class = OK>, fillcolor="#e68641"] ;
513 -> 514 ;
515 [label=<gini = 0.0<br/>samples = 47<br/>value = [47, 0]<br/>class = OK>, fillcolor="#e58139"] ;
514 -> 515 ;
516 [label=<total_Op &le; 12.5<br/>gini = 0.444<br/>samples = 6<br/>value = [4, 2]<br/>class = OK>, fillcolor="#f2c09c"] ;
514 -> 516 ;
517 [label=<McCabe_v(g) &le; 1.5<br/>gini = 0.444<br/>samples = 3<br/>value = [1, 2]<br/>class = Defeito>, fillcolor="#9ccef2"] ;
516 -> 517 ;
518 [label=<gini = 0.0<br/>samples = 1<br/>value = [0, 1]<br/>class = Defeito>, fillcolor="#399de5"] ;
517 -> 518 ;
519 [label=<McCabe_iv(g) &le; 1.5<br/>gini = 0.5<br/>samples = 2<br/>value = [1, 1]<br/>class = OK>, fillcolor="#ffffff"] ;
517 -> 519 ;
520 [label=<gini = 0.0<br/>samples = 1<br/>value = [1, 0]<br/>class = OK>, fillcolor="#e58139"] ;
519 -> 520 ;
521 [label=<gini = 0.0<br/>samples = 1<br/>value = [0, 1]<br/>class = Defeito>, fillcolor="#399de5"] ;
519 -> 521 ;
522 [label=<gini = 0.0<br/>samples = 3<br/>value = [3, 0]<br/>class = OK>, fillcolor="#e58139"] ;
516 -> 522 ;
523 [label=<gini = 0.0<br/>samples = 77<br/>value = [77, 0]<br/>class = OK>, fillcolor="#e58139"] ;
513 -> 523 ;
524 [label=<total_Opnd &le; 6.5<br/>gini = 0.126<br/>samples = 133<br/>value = [124, 9]<br/>class = OK>, fillcolor="#e78a47"] ;
512 -> 524 ;
525 [label=<Halstead_t &le; 41.83<br/>gini = 0.5<br/>samples = 4<br/>value = [2, 2]<br/>class = OK>, fillcolor="#ffffff"] ;
524 -> 525 ;
526 [label=<gini = 0.0<br/>samples = 2<br/>value = [0, 2]<br/>class = Defeito>, fillcolor="#399de5"] ;
525 -> 526 ;
527 [label=<gini = 0.0<br/>samples = 2<br/>value = [2, 0]<br/>class = OK>, fillcolor="#e58139"] ;
525 -> 527 ;
528 [label=<McCabe_loc &le; 9.5<br/>gini = 0.103<br/>samples = 129<br/>value = [122, 7]<br/>class = OK>, fillcolor="#e68844"] ;
524 -> 528 ;
529 [label=<total_Op &le; 17.5<br/>gini = 0.182<br/>samples = 69<br/>value = [62, 7]<br/>class = OK>, fillcolor="#e88f4f"] ;
528 -> 529 ;
530 [label=<Halstead_t &le; 23.93<br/>gini = 0.14<br/>samples = 66<br/>value = [61, 5]<br/>class = OK>, fillcolor="#e78b49"] ;
529 -> 530 ;
531 [label=<uniq_Op &le; 7.5<br/>gini = 0.252<br/>samples = 27<br/>value = [23, 4]<br/>class = OK>, fillcolor="#ea975b"] ;
530 -> 531 ;
532 [label=<Halstead_n &le; 26.5<br/>gini = 0.147<br/>samples = 25<br/>value = [23, 2]<br/>class = OK>, fillcolor="#e78c4a"] ;
531 -> 532 ;
533 [label=<Halstead_lOCode &le; 6.5<br/>gini = 0.08<br/>samples = 24<br/>value = [23, 1]<br/>class = OK>, fillcolor="#e68642"] ;
532 -> 533 ;
534 [label=<gini = 0.0<br/>samples = 21<br/>value = [21, 0]<br/>class = OK>, fillcolor="#e58139"] ;
533 -> 534 ;
535 [label=<Halstead_n &le; 25.0<br/>gini = 0.444<br/>samples = 3<br/>value = [2, 1]<br/>class = OK>, fillcolor="#f2c09c"] ;
533 -> 535 ;
536 [label=<gini = 0.0<br/>samples = 2<br/>value = [2, 0]<br/>class = OK>, fillcolor="#e58139"] ;
535 -> 536 ;
537 [label=<gini = 0.0<br/>samples = 1<br/>value = [0, 1]<br/>class = Defeito>, fillcolor="#399de5"] ;
535 -> 537 ;
538 [label=<gini = 0.0<br/>samples = 1<br/>value = [0, 1]<br/>class = Defeito>, fillcolor="#399de5"] ;
532 -> 538 ;
539 [label=<gini = 0.0<br/>samples = 2<br/>value = [0, 2]<br/>class = Defeito>, fillcolor="#399de5"] ;
531 -> 539 ;
540 [label=<uniq_Opnd &le; 7.5<br/>gini = 0.05<br/>samples = 39<br/>value = [38, 1]<br/>class = OK>, fillcolor="#e6843e"] ;
530 -> 540 ;
541 [label=<gini = 0.0<br/>samples = 31<br/>value = [31, 0]<br/>class = OK>, fillcolor="#e58139"] ;
540 -> 541 ;
542 [label=<Halstead_i &le; 17.015<br/>gini = 0.219<br/>samples = 8<br/>value = [7, 1]<br/>class = OK>, fillcolor="#e99355"] ;
540 -> 542 ;
543 [label=<gini = 0.0<br/>samples = 1<br/>value = [0, 1]<br/>class = Defeito>, fillcolor="#399de5"] ;
542 -> 543 ;
544 [label=<gini = 0.0<br/>samples = 7<br/>value = [7, 0]<br/>class = OK>, fillcolor="#e58139"] ;
542 -> 544 ;
545 [label=<total_Opnd &le; 10.0<br/>gini = 0.444<br/>samples = 3<br/>value = [1, 2]<br/>class = Defeito>, fillcolor="#9ccef2"] ;
529 -> 545 ;
546 [label=<gini = 0.0<br/>samples = 2<br/>value = [0, 2]<br/>class = Defeito>, fillcolor="#399de5"] ;
545 -> 546 ;
547 [label=<gini = 0.0<br/>samples = 1<br/>value = [1, 0]<br/>class = OK>, fillcolor="#e58139"] ;
545 -> 547 ;
548 [label=<gini = 0.0<br/>samples = 60<br/>value = [60, 0]<br/>class = OK>, fillcolor="#e58139"] ;
528 -> 548 ;
549 [label=<Halstead_n &le; 24.0<br/>gini = 0.375<br/>samples = 8<br/>value = [6, 2]<br/>class = OK>, fillcolor="#eeab7b"] ;
511 -> 549 ;
550 [label=<gini = 0.0<br/>samples = 1<br/>value = [0, 1]<br/>class = Defeito>, fillcolor="#399de5"] ;
549 -> 550 ;
551 [label=<uniq_Opnd &le; 8.5<br/>gini = 0.245<br/>samples = 7<br/>value = [6, 1]<br/>class = OK>, fillcolor="#e9965a"] ;
549 -> 551 ;
552 [label=<gini = 0.0<br/>samples = 6<br/>value = [6, 0]<br/>class = OK>, fillcolor="#e58139"] ;
551 -> 552 ;
553 [label=<gini = 0.0<br/>samples = 1<br/>value = [0, 1]<br/>class = Defeito>, fillcolor="#399de5"] ;
551 -> 553 ;
554 [label=<Halstead_v &le; 115.355<br/>gini = 0.238<br/>samples = 225<br/>value = [194, 31]<br/>class = OK>, fillcolor="#e99559"] ;
510 -> 554 ;
555 [label=<McCabe_loc &le; 11.5<br/>gini = 0.49<br/>samples = 14<br/>value = [6, 8]<br/>class = Defeito>, fillcolor="#cee6f8"] ;
554 -> 555 ;
556 [label=<Halstead_lOCode &le; 3.5<br/>gini = 0.397<br/>samples = 11<br/>value = [3, 8]<br/>class = Defeito>, fillcolor="#83c2ef"] ;
555 -> 556 ;
557 [label=<gini = 0.0<br/>samples = 1<br/>value = [1, 0]<br/>class = OK>, fillcolor="#e58139"] ;
556 -> 557 ;
558 [label=<McCabe_iv(g) &le; 1.5<br/>gini = 0.32<br/>samples = 10<br/>value = [2, 8]<br/>class = Defeito>, fillcolor="#6ab6ec"] ;
556 -> 558 ;
559 [label=<gini = 0.0<br/>samples = 5<br/>value = [0, 5]<br/>class = Defeito>, fillcolor="#399de5"] ;
558 -> 559 ;
560 [label=<Halstead_i &le; 21.075<br/>gini = 0.48<br/>samples = 5<br/>value = [2, 3]<br/>class = Defeito>, fillcolor="#bddef6"] ;
558 -> 560 ;
561 [label=<McCabe_loc &le; 8.5<br/>gini = 0.375<br/>samples = 4<br/>value = [1, 3]<br/>class = Defeito>, fillcolor="#7bbeee"] ;
560 -> 561 ;
562 [label=<gini = 0.0<br/>samples = 1<br/>value = [1, 0]<br/>class = OK>, fillcolor="#e58139"] ;
561 -> 562 ;
563 [label=<gini = 0.0<br/>samples = 3<br/>value = [0, 3]<br/>class = Defeito>, fillcolor="#399de5"] ;
561 -> 563 ;
564 [label=<gini = 0.0<br/>samples = 1<br/>value = [1, 0]<br/>class = OK>, fillcolor="#e58139"] ;
560 -> 564 ;
565 [label=<gini = 0.0<br/>samples = 3<br/>value = [3, 0]<br/>class = OK>, fillcolor="#e58139"] ;
555 -> 565 ;
566 [label=<Halstead_i &le; 25.1<br/>gini = 0.194<br/>samples = 211<br/>value = [188, 23]<br/>class = OK>, fillcolor="#e89051"] ;
554 -> 566 ;
567 [label=<Halstead_b &le; 0.125<br/>gini = 0.272<br/>samples = 111<br/>value = [93, 18]<br/>class = OK>, fillcolor="#ea995f"] ;
566 -> 567 ;
568 [label=<Halstead_l &le; 0.165<br/>gini = 0.25<br/>samples = 109<br/>value = [93, 16]<br/>class = OK>, fillcolor="#e9975b"] ;
567 -> 568 ;
569 [label=<Halstead_v &le; 167.25<br/>gini = 0.211<br/>samples = 100<br/>value = [88, 12]<br/>class = OK>, fillcolor="#e99254"] ;
568 -> 569 ;
570 [label=<Halstead_v &le; 160.28<br/>gini = 0.298<br/>samples = 55<br/>value = [45, 10]<br/>class = OK>, fillcolor="#eb9d65"] ;
569 -> 570 ;
571 [label=<McCabe_iv(g) &le; 2.5<br/>gini = 0.159<br/>samples = 46<br/>value = [42, 4]<br/>class = OK>, fillcolor="#e78d4c"] ;
570 -> 571 ;
572 [label=<McCabe_ev(g) &le; 4.5<br/>gini = 0.057<br/>samples = 34<br/>value = [33, 1]<br/>class = OK>, fillcolor="#e6853f"] ;
571 -> 572 ;
573 [label=<gini = 0.0<br/>samples = 31<br/>value = [31, 0]<br/>class = OK>, fillcolor="#e58139"] ;
572 -> 573 ;
574 [label=<uniq_Op &le; 11.5<br/>gini = 0.444<br/>samples = 3<br/>value = [2, 1]<br/>class = OK>, fillcolor="#f2c09c"] ;
572 -> 574 ;
575 [label=<gini = 0.0<br/>samples = 2<br/>value = [2, 0]<br/>class = OK>, fillcolor="#e58139"] ;
574 -> 575 ;
576 [label=<gini = 0.0<br/>samples = 1<br/>value = [0, 1]<br/>class = Defeito>, fillcolor="#399de5"] ;
574 -> 576 ;
577 [label=<uniq_Opnd &le; 10.0<br/>gini = 0.375<br/>samples = 12<br/>value = [9, 3]<br/>class = OK>, fillcolor="#eeab7b"] ;
571 -> 577 ;
578 [label=<total_Op &le; 20.5<br/>gini = 0.298<br/>samples = 11<br/>value = [9, 2]<br/>class = OK>, fillcolor="#eb9d65"] ;
577 -> 578 ;
579 [label=<Halstead_v &le; 123.875<br/>gini = 0.444<br/>samples = 6<br/>value = [4, 2]<br/>class = OK>, fillcolor="#f2c09c"] ;
578 -> 579 ;
580 [label=<gini = 0.0<br/>samples = 3<br/>value = [3, 0]<br/>class = OK>, fillcolor="#e58139"] ;
579 -> 580 ;
581 [label=<Halstead_e &le; 1022.685<br/>gini = 0.444<br/>samples = 3<br/>value = [1, 2]<br/>class = Defeito>, fillcolor="#9ccef2"] ;
579 -> 581 ;
582 [label=<gini = 0.0<br/>samples = 1<br/>value = [0, 1]<br/>class = Defeito>, fillcolor="#399de5"] ;
581 -> 582 ;
583 [label=<gini = 0.5<br/>samples = 2<br/>value = [1, 1]<br/>class = OK>, fillcolor="#ffffff"] ;
581 -> 583 ;
584 [label=<gini = 0.0<br/>samples = 5<br/>value = [5, 0]<br/>class = OK>, fillcolor="#e58139"] ;
578 -> 584 ;
585 [label=<gini = 0.0<br/>samples = 1<br/>value = [0, 1]<br/>class = Defeito>, fillcolor="#399de5"] ;
577 -> 585 ;
586 [label=<Halstead_d &le; 13.045<br/>gini = 0.444<br/>samples = 9<br/>value = [3, 6]<br/>class = Defeito>, fillcolor="#9ccef2"] ;
570 -> 586 ;
587 [label=<McCabe_v(g) &le; 3.5<br/>gini = 0.278<br/>samples = 6<br/>value = [1, 5]<br/>class = Defeito>, fillcolor="#61b1ea"] ;
586 -> 587 ;
588 [label=<gini = 0.0<br/>samples = 4<br/>value = [0, 4]<br/>class = Defeito>, fillcolor="#399de5"] ;
587 -> 588 ;
589 [label=<McCabe_loc &le; 11.5<br/>gini = 0.5<br/>samples = 2<br/>value = [1, 1]<br/>class = OK>, fillcolor="#ffffff"] ;
587 -> 589 ;
590 [label=<gini = 0.0<br/>samples = 1<br/>value = [1, 0]<br/>class = OK>, fillcolor="#e58139"] ;
589 -> 590 ;
591 [label=<gini = 0.0<br/>samples = 1<br/>value = [0, 1]<br/>class = Defeito>, fillcolor="#399de5"] ;
589 -> 591 ;
592 [label=<uniq_Opnd &le; 4.5<br/>gini = 0.444<br/>samples = 3<br/>value = [2, 1]<br/>class = OK>, fillcolor="#f2c09c"] ;
586 -> 592 ;
593 [label=<gini = 0.0<br/>samples = 1<br/>value = [0, 1]<br/>class = Defeito>, fillcolor="#399de5"] ;
592 -> 593 ;
594 [label=<gini = 0.0<br/>samples = 2<br/>value = [2, 0]<br/>class = OK>, fillcolor="#e58139"] ;
592 -> 594 ;
595 [label=<Halstead_v &le; 257.735<br/>gini = 0.085<br/>samples = 45<br/>value = [43, 2]<br/>class = OK>, fillcolor="#e68742"] ;
569 -> 595 ;
596 [label=<gini = 0.0<br/>samples = 36<br/>value = [36, 0]<br/>class = OK>, fillcolor="#e58139"] ;
595 -> 596 ;
597 [label=<Halstead_d &le; 12.77<br/>gini = 0.346<br/>samples = 9<br/>value = [7, 2]<br/>class = OK>, fillcolor="#eca572"] ;
595 -> 597 ;
598 [label=<gini = 0.0<br/>samples = 2<br/>value = [0, 2]<br/>class = Defeito>, fillcolor="#399de5"] ;
597 -> 598 ;
599 [label=<gini = 0.0<br/>samples = 7<br/>value = [7, 0]<br/>class = OK>, fillcolor="#e58139"] ;
597 -> 599 ;
600 [label=<Halstead_lOCode &le; 9.5<br/>gini = 0.494<br/>samples = 9<br/>value = [5, 4]<br/>class = OK>, fillcolor="#fae6d7"] ;
568 -> 600 ;
601 [label=<McCabe_loc &le; 9.0<br/>gini = 0.444<br/>samples = 6<br/>value = [2, 4]<br/>class = Defeito>, fillcolor="#9ccef2"] ;
600 -> 601 ;
602 [label=<Halstead_t &le; 38.83<br/>gini = 0.5<br/>samples = 4<br/>value = [2, 2]<br/>class = OK>, fillcolor="#ffffff"] ;
601 -> 602 ;
603 [label=<gini = 0.5<br/>samples = 2<br/>value = [1, 1]<br/>class = OK>, fillcolor="#ffffff"] ;
602 -> 603 ;
604 [label=<gini = 0.5<br/>samples = 2<br/>value = [1, 1]<br/>class = OK>, fillcolor="#ffffff"] ;
602 -> 604 ;
605 [label=<gini = 0.0<br/>samples = 2<br/>value = [0, 2]<br/>class = Defeito>, fillcolor="#399de5"] ;
601 -> 605 ;
606 [label=<gini = 0.0<br/>samples = 3<br/>value = [3, 0]<br/>class = OK>, fillcolor="#e58139"] ;
600 -> 606 ;
607 [label=<gini = 0.0<br/>samples = 2<br/>value = [0, 2]<br/>class = Defeito>, fillcolor="#399de5"] ;
567 -> 607 ;
608 [label=<Halstead_v &le; 125.37<br/>gini = 0.095<br/>samples = 100<br/>value = [95, 5]<br/>class = OK>, fillcolor="#e68843"] ;
566 -> 608 ;
609 [label=<Halstead_v &le; 123.82<br/>gini = 0.48<br/>samples = 5<br/>value = [3, 2]<br/>class = OK>, fillcolor="#f6d5bd"] ;
608 -> 609 ;
610 [label=<gini = 0.0<br/>samples = 3<br/>value = [3, 0]<br/>class = OK>, fillcolor="#e58139"] ;
609 -> 610 ;
611 [label=<gini = 0.0<br/>samples = 2<br/>value = [0, 2]<br/>class = Defeito>, fillcolor="#399de5"] ;
609 -> 611 ;
612 [label=<Halstead_i &le; 48.085<br/>gini = 0.061<br/>samples = 95<br/>value = [92, 3]<br/>class = OK>, fillcolor="#e6853f"] ;
608 -> 612 ;
613 [label=<Halstead_lOCode &le; 15.5<br/>gini = 0.024<br/>samples = 83<br/>value = [82, 1]<br/>class = OK>, fillcolor="#e5833b"] ;
612 -> 613 ;
614 [label=<gini = 0.0<br/>samples = 75<br/>value = [75, 0]<br/>class = OK>, fillcolor="#e58139"] ;
613 -> 614 ;
615 [label=<branchCount &le; 4.0<br/>gini = 0.219<br/>samples = 8<br/>value = [7, 1]<br/>class = OK>, fillcolor="#e99355"] ;
613 -> 615 ;
616 [label=<gini = 0.0<br/>samples = 1<br/>value = [0, 1]<br/>class = Defeito>, fillcolor="#399de5"] ;
615 -> 616 ;
617 [label=<gini = 0.0<br/>samples = 7<br/>value = [7, 0]<br/>class = OK>, fillcolor="#e58139"] ;
615 -> 617 ;
618 [label=<McCabe_v(g) &le; 4.5<br/>gini = 0.278<br/>samples = 12<br/>value = [10, 2]<br/>class = OK>, fillcolor="#ea9a61"] ;
612 -> 618 ;
619 [label=<Halstead_i &le; 73.205<br/>gini = 0.165<br/>samples = 11<br/>value = [10, 1]<br/>class = OK>, fillcolor="#e88e4d"] ;
618 -> 619 ;
620 [label=<gini = 0.0<br/>samples = 7<br/>value = [7, 0]<br/>class = OK>, fillcolor="#e58139"] ;
619 -> 620 ;
621 [label=<Halstead_i &le; 75.93<br/>gini = 0.375<br/>samples = 4<br/>value = [3, 1]<br/>class = OK>, fillcolor="#eeab7b"] ;
619 -> 621 ;
622 [label=<gini = 0.0<br/>samples = 1<br/>value = [0, 1]<br/>class = Defeito>, fillcolor="#399de5"] ;
621 -> 622 ;
623 [label=<gini = 0.0<br/>samples = 3<br/>value = [3, 0]<br/>class = OK>, fillcolor="#e58139"] ;
621 -> 623 ;
624 [label=<gini = 0.0<br/>samples = 1<br/>value = [0, 1]<br/>class = Defeito>, fillcolor="#399de5"] ;
618 -> 624 ;
625 [label=<McCabe_ev(g) &le; 3.5<br/>gini = 0.086<br/>samples = 889<br/>value = [849, 40]<br/>class = OK>, fillcolor="#e68742"] ;
509 -> 625 ;
626 [label=<Halstead_i &le; 17.87<br/>gini = 0.075<br/>samples = 818<br/>value = [786, 32]<br/>class = OK>, fillcolor="#e68641"] ;
625 -> 626 ;
627 [label=<Halstead_i &le; 17.85<br/>gini = 0.106<br/>samples = 426<br/>value = [402, 24]<br/>class = OK>, fillcolor="#e78945"] ;
626 -> 627 ;
628 [label=<Halstead_i &le; 15.235<br/>gini = 0.102<br/>samples = 425<br/>value = [402, 23]<br/>class = OK>, fillcolor="#e68844"] ;
627 -> 628 ;
629 [label=<Halstead_i &le; 12.18<br/>gini = 0.067<br/>samples = 317<br/>value = [306, 11]<br/>class = OK>, fillcolor="#e68640"] ;
628 -> 629 ;
630 [label=<total_Op &le; 12.5<br/>gini = 0.028<br/>samples = 141<br/>value = [139, 2]<br/>class = OK>, fillcolor="#e5833c"] ;
629 -> 630 ;
631 [label=<Halstead_lOCode &le; 8.5<br/>gini = 0.075<br/>samples = 51<br/>value = [49, 2]<br/>class = OK>, fillcolor="#e68641"] ;
630 -> 631 ;
632 [label=<total_Opnd &le; 9.5<br/>gini = 0.04<br/>samples = 49<br/>value = [48, 1]<br/>class = OK>, fillcolor="#e6843d"] ;
631 -> 632 ;
633 [label=<gini = 0.0<br/>samples = 43<br/>value = [43, 0]<br/>class = OK>, fillcolor="#e58139"] ;
632 -> 633 ;
634 [label=<Halstead_e &le; 504.77<br/>gini = 0.278<br/>samples = 6<br/>value = [5, 1]<br/>class = OK>, fillcolor="#ea9a61"] ;
632 -> 634 ;
635 [label=<McCabe_loc &le; 8.5<br/>gini = 0.5<br/>samples = 2<br/>value = [1, 1]<br/>class = OK>, fillcolor="#ffffff"] ;
634 -> 635 ;
636 [label=<gini = 0.0<br/>samples = 1<br/>value = [1, 0]<br/>class = OK>, fillcolor="#e58139"] ;
635 -> 636 ;
637 [label=<gini = 0.0<br/>samples = 1<br/>value = [0, 1]<br/>class = Defeito>, fillcolor="#399de5"] ;
635 -> 637 ;
638 [label=<gini = 0.0<br/>samples = 4<br/>value = [4, 0]<br/>class = OK>, fillcolor="#e58139"] ;
634 -> 638 ;
639 [label=<gini = 0.5<br/>samples = 2<br/>value = [1, 1]<br/>class = OK>, fillcolor="#ffffff"] ;
631 -> 639 ;
640 [label=<gini = 0.0<br/>samples = 90<br/>value = [90, 0]<br/>class = OK>, fillcolor="#e58139"] ;
630 -> 640 ;
641 [label=<Halstead_i &le; 12.28<br/>gini = 0.097<br/>samples = 176<br/>value = [167, 9]<br/>class = OK>, fillcolor="#e68844"] ;
629 -> 641 ;
642 [label=<gini = 0.0<br/>samples = 1<br/>value = [0, 1]<br/>class = Defeito>, fillcolor="#399de5"] ;
641 -> 642 ;
643 [label=<Halstead_v &le; 120.465<br/>gini = 0.087<br/>samples = 175<br/>value = [167, 8]<br/>class = OK>, fillcolor="#e68742"] ;
641 -> 643 ;
644 [label=<Halstead_lOCode &le; 10.5<br/>gini = 0.134<br/>samples = 111<br/>value = [103, 8]<br/>class = OK>, fillcolor="#e78b48"] ;
643 -> 644 ;
645 [label=<Halstead_e &le; 1091.785<br/>gini = 0.105<br/>samples = 108<br/>value = [102, 6]<br/>class = OK>, fillcolor="#e78845"] ;
644 -> 645 ;
646 [label=<Halstead_i &le; 13.61<br/>gini = 0.089<br/>samples = 107<br/>value = [102, 5]<br/>class = OK>, fillcolor="#e68743"] ;
645 -> 646 ;
647 [label=<Halstead_i &le; 13.545<br/>gini = 0.158<br/>samples = 58<br/>value = [53, 5]<br/>class = OK>, fillcolor="#e78d4c"] ;
646 -> 647 ;
648 [label=<McCabe_loc &le; 13.5<br/>gini = 0.131<br/>samples = 57<br/>value = [53, 4]<br/>class = OK>, fillcolor="#e78b48"] ;
647 -> 648 ;
649 [label=<McCabe_v(g) &le; 1.5<br/>gini = 0.103<br/>samples = 55<br/>value = [52, 3]<br/>class = OK>, fillcolor="#e68844"] ;
648 -> 649 ;
650 [label=<total_Opnd &le; 8.0<br/>gini = 0.5<br/>samples = 2<br/>value = [1, 1]<br/>class = OK>, fillcolor="#ffffff"] ;
649 -> 650 ;
651 [label=<gini = 0.0<br/>samples = 1<br/>value = [0, 1]<br/>class = Defeito>, fillcolor="#399de5"] ;
650 -> 651 ;
652 [label=<gini = 0.0<br/>samples = 1<br/>value = [1, 0]<br/>class = OK>, fillcolor="#e58139"] ;
650 -> 652 ;
653 [label=<Halstead_v &le; 101.015<br/>gini = 0.073<br/>samples = 53<br/>value = [51, 2]<br/>class = OK>, fillcolor="#e68641"] ;
649 -> 653 ;
654 [label=<gini = 0.0<br/>samples = 38<br/>value = [38, 0]<br/>class = OK>, fillcolor="#e58139"] ;
653 -> 654 ;
655 [label=<Halstead_v &le; 104.125<br/>gini = 0.231<br/>samples = 15<br/>value = [13, 2]<br/>class = OK>, fillcolor="#e99457"] ;
653 -> 655 ;
656 [label=<Halstead_lOCode &le; 6.5<br/>gini = 0.48<br/>samples = 5<br/>value = [3, 2]<br/>class = OK>, fillcolor="#f6d5bd"] ;
655 -> 656 ;
657 [label=<Halstead_l &le; 0.125<br/>gini = 0.5<br/>samples = 4<br/>value = [2, 2]<br/>class = OK>, fillcolor="#ffffff"] ;
656 -> 657 ;
658 [label=<gini = 0.444<br/>samples = 3<br/>value = [2, 1]<br/>class = OK>, fillcolor="#f2c09c"] ;
657 -> 658 ;
659 [label=<gini = 0.0<br/>samples = 1<br/>value = [0, 1]<br/>class = Defeito>, fillcolor="#399de5"] ;
657 -> 659 ;
660 [label=<gini = 0.0<br/>samples = 1<br/>value = [1, 0]<br/>class = OK>, fillcolor="#e58139"] ;
656 -> 660 ;
661 [label=<gini = 0.0<br/>samples = 10<br/>value = [10, 0]<br/>class = OK>, fillcolor="#e58139"] ;
655 -> 661 ;
662 [label=<branchCount &le; 4.0<br/>gini = 0.5<br/>samples = 2<br/>value = [1, 1]<br/>class = OK>, fillcolor="#ffffff"] ;
648 -> 662 ;
663 [label=<gini = 0.0<br/>samples = 1<br/>value = [1, 0]<br/>class = OK>, fillcolor="#e58139"] ;
662 -> 663 ;
664 [label=<gini = 0.0<br/>samples = 1<br/>value = [0, 1]<br/>class = Defeito>, fillcolor="#399de5"] ;
662 -> 664 ;
665 [label=<gini = 0.0<br/>samples = 1<br/>value = [0, 1]<br/>class = Defeito>, fillcolor="#399de5"] ;
647 -> 665 ;
666 [label=<gini = 0.0<br/>samples = 49<br/>value = [49, 0]<br/>class = OK>, fillcolor="#e58139"] ;
646 -> 666 ;
667 [label=<gini = 0.0<br/>samples = 1<br/>value = [0, 1]<br/>class = Defeito>, fillcolor="#399de5"] ;
645 -> 667 ;
668 [label=<uniq_Op &le; 7.5<br/>gini = 0.444<br/>samples = 3<br/>value = [1, 2]<br/>class = Defeito>, fillcolor="#9ccef2"] ;
644 -> 668 ;
669 [label=<gini = 0.0<br/>samples = 1<br/>value = [1, 0]<br/>class = OK>, fillcolor="#e58139"] ;
668 -> 669 ;
670 [label=<gini = 0.0<br/>samples = 2<br/>value = [0, 2]<br/>class = Defeito>, fillcolor="#399de5"] ;
668 -> 670 ;
671 [label=<gini = 0.0<br/>samples = 64<br/>value = [64, 0]<br/>class = OK>, fillcolor="#e58139"] ;
643 -> 671 ;
672 [label=<Halstead_i &le; 15.25<br/>gini = 0.198<br/>samples = 108<br/>value = [96, 12]<br/>class = OK>, fillcolor="#e89152"] ;
628 -> 672 ;
673 [label=<gini = 0.0<br/>samples = 1<br/>value = [0, 1]<br/>class = Defeito>, fillcolor="#399de5"] ;
672 -> 673 ;
674 [label=<Halstead_n &le; 24.5<br/>gini = 0.184<br/>samples = 107<br/>value = [96, 11]<br/>class = OK>, fillcolor="#e88f50"] ;
672 -> 674 ;
675 [label=<Halstead_n &le; 22.5<br/>gini = 0.295<br/>samples = 39<br/>value = [32, 7]<br/>class = OK>, fillcolor="#eb9d64"] ;
674 -> 675 ;
676 [label=<Halstead_n &le; 17.5<br/>gini = 0.165<br/>samples = 33<br/>value = [30, 3]<br/>class = OK>, fillcolor="#e88e4d"] ;
675 -> 676 ;
677 [label=<McCabe_v(g) &le; 1.5<br/>gini = 0.5<br/>samples = 2<br/>value = [1, 1]<br/>class = OK>, fillcolor="#ffffff"] ;
676 -> 677 ;
678 [label=<gini = 0.0<br/>samples = 1<br/>value = [1, 0]<br/>class = OK>, fillcolor="#e58139"] ;
677 -> 678 ;
679 [label=<gini = 0.0<br/>samples = 1<br/>value = [0, 1]<br/>class = Defeito>, fillcolor="#399de5"] ;
677 -> 679 ;
680 [label=<Halstead_n &le; 18.5<br/>gini = 0.121<br/>samples = 31<br/>value = [29, 2]<br/>class = OK>, fillcolor="#e78a47"] ;
676 -> 680 ;
681 [label=<branchCount &le; 2.0<br/>gini = 0.32<br/>samples = 5<br/>value = [4, 1]<br/>class = OK>, fillcolor="#eca06a"] ;
680 -> 681 ;
682 [label=<gini = 0.0<br/>samples = 2<br/>value = [2, 0]<br/>class = OK>, fillcolor="#e58139"] ;
681 -> 682 ;
683 [label=<gini = 0.444<br/>samples = 3<br/>value = [2, 1]<br/>class = OK>, fillcolor="#f2c09c"] ;
681 -> 683 ;
684 [label=<Halstead_i &le; 17.245<br/>gini = 0.074<br/>samples = 26<br/>value = [25, 1]<br/>class = OK>, fillcolor="#e68641"] ;
680 -> 684 ;
685 [label=<gini = 0.0<br/>samples = 19<br/>value = [19, 0]<br/>class = OK>, fillcolor="#e58139"] ;
684 -> 685 ;
686 [label=<Halstead_lOCode &le; 8.0<br/>gini = 0.245<br/>samples = 7<br/>value = [6, 1]<br/>class = OK>, fillcolor="#e9965a"] ;
684 -> 686 ;
687 [label=<total_Op &le; 12.0<br/>gini = 0.5<br/>samples = 2<br/>value = [1, 1]<br/>class = OK>, fillcolor="#ffffff"] ;
686 -> 687 ;
688 [label=<gini = 0.0<br/>samples = 1<br/>value = [1, 0]<br/>class = OK>, fillcolor="#e58139"] ;
687 -> 688 ;
689 [label=<gini = 0.0<br/>samples = 1<br/>value = [0, 1]<br/>class = Defeito>, fillcolor="#399de5"] ;
687 -> 689 ;
690 [label=<gini = 0.0<br/>samples = 5<br/>value = [5, 0]<br/>class = OK>, fillcolor="#e58139"] ;
686 -> 690 ;
691 [label=<uniq_Opnd &le; 8.5<br/>gini = 0.444<br/>samples = 6<br/>value = [2, 4]<br/>class = Defeito>, fillcolor="#9ccef2"] ;
675 -> 691 ;
692 [label=<locCodeAndComment &le; 0.5<br/>gini = 0.32<br/>samples = 5<br/>value = [1, 4]<br/>class = Defeito>, fillcolor="#6ab6ec"] ;
691 -> 692 ;
693 [label=<gini = 0.0<br/>samples = 3<br/>value = [0, 3]<br/>class = Defeito>, fillcolor="#399de5"] ;
692 -> 693 ;
694 [label=<McCabe_iv(g) &le; 2.5<br/>gini = 0.5<br/>samples = 2<br/>value = [1, 1]<br/>class = OK>, fillcolor="#ffffff"] ;
692 -> 694 ;
695 [label=<gini = 0.0<br/>samples = 1<br/>value = [1, 0]<br/>class = OK>, fillcolor="#e58139"] ;
694 -> 695 ;
696 [label=<gini = 0.0<br/>samples = 1<br/>value = [0, 1]<br/>class = Defeito>, fillcolor="#399de5"] ;
694 -> 696 ;
697 [label=<gini = 0.0<br/>samples = 1<br/>value = [1, 0]<br/>class = OK>, fillcolor="#e58139"] ;
691 -> 697 ;
698 [label=<uniq_Opnd &le; 9.5<br/>gini = 0.111<br/>samples = 68<br/>value = [64, 4]<br/>class = OK>, fillcolor="#e78945"] ;
674 -> 698 ;
699 [label=<Halstead_i &le; 15.515<br/>gini = 0.035<br/>samples = 56<br/>value = [55, 1]<br/>class = OK>, fillcolor="#e5833d"] ;
698 -> 699 ;
700 [label=<Halstead_i &le; 15.475<br/>gini = 0.153<br/>samples = 12<br/>value = [11, 1]<br/>class = OK>, fillcolor="#e78c4b"] ;
699 -> 700 ;
701 [label=<gini = 0.0<br/>samples = 11<br/>value = [11, 0]<br/>class = OK>, fillcolor="#e58139"] ;
700 -> 701 ;
702 [label=<gini = 0.0<br/>samples = 1<br/>value = [0, 1]<br/>class = Defeito>, fillcolor="#399de5"] ;
700 -> 702 ;
703 [label=<gini = 0.0<br/>samples = 44<br/>value = [44, 0]<br/>class = OK>, fillcolor="#e58139"] ;
699 -> 703 ;
704 [label=<Halstead_v &le; 145.735<br/>gini = 0.375<br/>samples = 12<br/>value = [9, 3]<br/>class = OK>, fillcolor="#eeab7b"] ;
698 -> 704 ;
705 [label=<gini = 0.0<br/>samples = 2<br/>value = [0, 2]<br/>class = Defeito>, fillcolor="#399de5"] ;
704 -> 705 ;
706 [label=<Halstead_i &le; 15.515<br/>gini = 0.18<br/>samples = 10<br/>value = [9, 1]<br/>class = OK>, fillcolor="#e88f4f"] ;
704 -> 706 ;
707 [label=<gini = 0.0<br/>samples = 1<br/>value = [0, 1]<br/>class = Defeito>, fillcolor="#399de5"] ;
706 -> 707 ;
708 [label=<gini = 0.0<br/>samples = 9<br/>value = [9, 0]<br/>class = OK>, fillcolor="#e58139"] ;
706 -> 708 ;
709 [label=<gini = 0.0<br/>samples = 1<br/>value = [0, 1]<br/>class = Defeito>, fillcolor="#399de5"] ;
627 -> 709 ;
710 [label=<Halstead_n &le; 18.5<br/>gini = 0.04<br/>samples = 392<br/>value = [384, 8]<br/>class = OK>, fillcolor="#e6843d"] ;
626 -> 710 ;
711 [label=<gini = 0.0<br/>samples = 1<br/>value = [0, 1]<br/>class = Defeito>, fillcolor="#399de5"] ;
710 -> 711 ;
712 [label=<total_Opnd &le; 17.5<br/>gini = 0.035<br/>samples = 391<br/>value = [384, 7]<br/>class = OK>, fillcolor="#e5833d"] ;
710 -> 712 ;
713 [label=<gini = 0.0<br/>samples = 202<br/>value = [202, 0]<br/>class = OK>, fillcolor="#e58139"] ;
712 -> 713 ;
714 [label=<McCabe_loc &le; 7.5<br/>gini = 0.071<br/>samples = 189<br/>value = [182, 7]<br/>class = OK>, fillcolor="#e68641"] ;
712 -> 714 ;
715 [label=<gini = 0.0<br/>samples = 1<br/>value = [0, 1]<br/>class = Defeito>, fillcolor="#399de5"] ;
714 -> 715 ;
716 [label=<total_Opnd &le; 18.5<br/>gini = 0.062<br/>samples = 188<br/>value = [182, 6]<br/>class = OK>, fillcolor="#e68540"] ;
714 -> 716 ;
717 [label=<McCabe_loc &le; 17.5<br/>gini = 0.269<br/>samples = 25<br/>value = [21, 4]<br/>class = OK>, fillcolor="#ea995f"] ;
716 -> 717 ;
718 [label=<Halstead_v &le; 181.975<br/>gini = 0.165<br/>samples = 22<br/>value = [20, 2]<br/>class = OK>, fillcolor="#e88e4d"] ;
717 -> 718 ;
719 [label=<gini = 0.0<br/>samples = 11<br/>value = [11, 0]<br/>class = OK>, fillcolor="#e58139"] ;
718 -> 719 ;
720 [label=<Halstead_v &le; 190.545<br/>gini = 0.298<br/>samples = 11<br/>value = [9, 2]<br/>class = OK>, fillcolor="#eb9d65"] ;
718 -> 720 ;
721 [label=<McCabe_loc &le; 11.5<br/>gini = 0.444<br/>samples = 3<br/>value = [1, 2]<br/>class = Defeito>, fillcolor="#9ccef2"] ;
720 -> 721 ;
722 [label=<gini = 0.0<br/>samples = 1<br/>value = [1, 0]<br/>class = OK>, fillcolor="#e58139"] ;
721 -> 722 ;
723 [label=<gini = 0.0<br/>samples = 2<br/>value = [0, 2]<br/>class = Defeito>, fillcolor="#399de5"] ;
721 -> 723 ;
724 [label=<gini = 0.0<br/>samples = 8<br/>value = [8, 0]<br/>class = OK>, fillcolor="#e58139"] ;
720 -> 724 ;
725 [label=<Halstead_b &le; 0.065<br/>gini = 0.444<br/>samples = 3<br/>value = [1, 2]<br/>class = Defeito>, fillcolor="#9ccef2"] ;
717 -> 725 ;
726 [label=<gini = 0.0<br/>samples = 1<br/>value = [1, 0]<br/>class = OK>, fillcolor="#e58139"] ;
725 -> 726 ;
727 [label=<gini = 0.0<br/>samples = 2<br/>value = [0, 2]<br/>class = Defeito>, fillcolor="#399de5"] ;
725 -> 727 ;
728 [label=<Halstead_i &le; 54.985<br/>gini = 0.024<br/>samples = 163<br/>value = [161, 2]<br/>class = OK>, fillcolor="#e5833b"] ;
716 -> 728 ;
729 [label=<Halstead_lOCode &le; 15.5<br/>gini = 0.012<br/>samples = 159<br/>value = [158, 1]<br/>class = OK>, fillcolor="#e5823a"] ;
728 -> 729 ;
730 [label=<gini = 0.0<br/>samples = 142<br/>value = [142, 0]<br/>class = OK>, fillcolor="#e58139"] ;
729 -> 730 ;
731 [label=<uniq_Opnd &le; 12.0<br/>gini = 0.111<br/>samples = 17<br/>value = [16, 1]<br/>class = OK>, fillcolor="#e78945"] ;
729 -> 731 ;
732 [label=<gini = 0.0<br/>samples = 1<br/>value = [0, 1]<br/>class = Defeito>, fillcolor="#399de5"] ;
731 -> 732 ;
733 [label=<gini = 0.0<br/>samples = 16<br/>value = [16, 0]<br/>class = OK>, fillcolor="#e58139"] ;
731 -> 733 ;
734 [label=<Halstead_i &le; 56.28<br/>gini = 0.375<br/>samples = 4<br/>value = [3, 1]<br/>class = OK>, fillcolor="#eeab7b"] ;
728 -> 734 ;
735 [label=<gini = 0.0<br/>samples = 1<br/>value = [0, 1]<br/>class = Defeito>, fillcolor="#399de5"] ;
734 -> 735 ;
736 [label=<gini = 0.0<br/>samples = 3<br/>value = [3, 0]<br/>class = OK>, fillcolor="#e58139"] ;
734 -> 736 ;
737 [label=<Halstead_n &le; 24.5<br/>gini = 0.2<br/>samples = 71<br/>value = [63, 8]<br/>class = OK>, fillcolor="#e89152"] ;
625 -> 737 ;
738 [label=<gini = 0.0<br/>samples = 1<br/>value = [0, 1]<br/>class = Defeito>, fillcolor="#399de5"] ;
737 -> 738 ;
739 [label=<Halstead_d &le; 22.895<br/>gini = 0.18<br/>samples = 70<br/>value = [63, 7]<br/>class = OK>, fillcolor="#e88f4f"] ;
737 -> 739 ;
740 [label=<Halstead_v &le; 122.06<br/>gini = 0.124<br/>samples = 60<br/>value = [56, 4]<br/>class = OK>, fillcolor="#e78a47"] ;
739 -> 740 ;
741 [label=<Halstead_v &le; 116.695<br/>gini = 0.408<br/>samples = 7<br/>value = [5, 2]<br/>class = OK>, fillcolor="#efb388"] ;
740 -> 741 ;
742 [label=<gini = 0.0<br/>samples = 5<br/>value = [5, 0]<br/>class = OK>, fillcolor="#e58139"] ;
741 -> 742 ;
743 [label=<gini = 0.0<br/>samples = 2<br/>value = [0, 2]<br/>class = Defeito>, fillcolor="#399de5"] ;
741 -> 743 ;
744 [label=<uniq_Opnd &le; 13.5<br/>gini = 0.073<br/>samples = 53<br/>value = [51, 2]<br/>class = OK>, fillcolor="#e68641"] ;
740 -> 744 ;
745 [label=<uniq_Op &le; 14.5<br/>gini = 0.041<br/>samples = 48<br/>value = [47, 1]<br/>class = OK>, fillcolor="#e6843d"] ;
744 -> 745 ;
746 [label=<gini = 0.0<br/>samples = 32<br/>value = [32, 0]<br/>class = OK>, fillcolor="#e58139"] ;
745 -> 746 ;
747 [label=<Halstead_e &le; 3739.105<br/>gini = 0.117<br/>samples = 16<br/>value = [15, 1]<br/>class = OK>, fillcolor="#e78946"] ;
745 -> 747 ;
748 [label=<McCabe_loc &le; 13.5<br/>gini = 0.444<br/>samples = 3<br/>value = [2, 1]<br/>class = OK>, fillcolor="#f2c09c"] ;
747 -> 748 ;
749 [label=<gini = 0.0<br/>samples = 1<br/>value = [0, 1]<br/>class = Defeito>, fillcolor="#399de5"] ;
748 -> 749 ;
750 [label=<gini = 0.0<br/>samples = 2<br/>value = [2, 0]<br/>class = OK>, fillcolor="#e58139"] ;
748 -> 750 ;
751 [label=<gini = 0.0<br/>samples = 13<br/>value = [13, 0]<br/>class = OK>, fillcolor="#e58139"] ;
747 -> 751 ;
752 [label=<branchCount &le; 10.0<br/>gini = 0.32<br/>samples = 5<br/>value = [4, 1]<br/>class = OK>, fillcolor="#eca06a"] ;
744 -> 752 ;
753 [label=<gini = 0.0<br/>samples = 1<br/>value = [0, 1]<br/>class = Defeito>, fillcolor="#399de5"] ;
752 -> 753 ;
754 [label=<gini = 0.0<br/>samples = 4<br/>value = [4, 0]<br/>class = OK>, fillcolor="#e58139"] ;
752 -> 754 ;
755 [label=<Halstead_d &le; 24.25<br/>gini = 0.42<br/>samples = 10<br/>value = [7, 3]<br/>class = OK>, fillcolor="#f0b78e"] ;
739 -> 755 ;
756 [label=<gini = 0.0<br/>samples = 2<br/>value = [0, 2]<br/>class = Defeito>, fillcolor="#399de5"] ;
755 -> 756 ;
757 [label=<total_Opnd &le; 29.0<br/>gini = 0.219<br/>samples = 8<br/>value = [7, 1]<br/>class = OK>, fillcolor="#e99355"] ;
755 -> 757 ;
758 [label=<uniq_Op &le; 16.5<br/>gini = 0.5<br/>samples = 2<br/>value = [1, 1]<br/>class = OK>, fillcolor="#ffffff"] ;
757 -> 758 ;
759 [label=<gini = 0.0<br/>samples = 1<br/>value = [0, 1]<br/>class = Defeito>, fillcolor="#399de5"] ;
758 -> 759 ;
760 [label=<gini = 0.0<br/>samples = 1<br/>value = [1, 0]<br/>class = OK>, fillcolor="#e58139"] ;
758 -> 760 ;
761 [label=<gini = 0.0<br/>samples = 6<br/>value = [6, 0]<br/>class = OK>, fillcolor="#e58139"] ;
757 -> 761 ;
762 [label=<locCodeAndComment &le; 5.5<br/>gini = 0.047<br/>samples = 453<br/>value = [442, 11]<br/>class = OK>, fillcolor="#e6843e"] ;
508 -> 762 ;
763 [label=<Halstead_lOBlank &le; 0.5<br/>gini = 0.006<br/>samples = 351<br/>value = [350, 1]<br/>class = OK>, fillcolor="#e5813a"] ;
762 -> 763 ;
764 [label=<gini = 0.0<br/>samples = 312<br/>value = [312, 0]<br/>class = OK>, fillcolor="#e58139"] ;
763 -> 764 ;
765 [label=<uniq_Op &le; 14.5<br/>gini = 0.05<br/>samples = 39<br/>value = [38, 1]<br/>class = OK>, fillcolor="#e6843e"] ;
763 -> 765 ;
766 [label=<gini = 0.0<br/>samples = 33<br/>value = [33, 0]<br/>class = OK>, fillcolor="#e58139"] ;
765 -> 766 ;
767 [label=<Halstead_v &le; 269.675<br/>gini = 0.278<br/>samples = 6<br/>value = [5, 1]<br/>class = OK>, fillcolor="#ea9a61"] ;
765 -> 767 ;
768 [label=<Halstead_lOCode &le; 11.5<br/>gini = 0.5<br/>samples = 2<br/>value = [1, 1]<br/>class = OK>, fillcolor="#ffffff"] ;
767 -> 768 ;
769 [label=<gini = 0.0<br/>samples = 1<br/>value = [1, 0]<br/>class = OK>, fillcolor="#e58139"] ;
768 -> 769 ;
770 [label=<gini = 0.0<br/>samples = 1<br/>value = [0, 1]<br/>class = Defeito>, fillcolor="#399de5"] ;
768 -> 770 ;
771 [label=<gini = 0.0<br/>samples = 4<br/>value = [4, 0]<br/>class = OK>, fillcolor="#e58139"] ;
767 -> 771 ;
772 [label=<McCabe_loc &le; 6.5<br/>gini = 0.177<br/>samples = 102<br/>value = [92, 10]<br/>class = OK>, fillcolor="#e88f4f"] ;
762 -> 772 ;
773 [label=<Halstead_lOComment &le; 4.0<br/>gini = 0.444<br/>samples = 3<br/>value = [1, 2]<br/>class = Defeito>, fillcolor="#9ccef2"] ;
772 -> 773 ;
774 [label=<gini = 0.0<br/>samples = 2<br/>value = [0, 2]<br/>class = Defeito>, fillcolor="#399de5"] ;
773 -> 774 ;
775 [label=<gini = 0.0<br/>samples = 1<br/>value = [1, 0]<br/>class = OK>, fillcolor="#e58139"] ;
773 -> 775 ;
776 [label=<Halstead_i &le; 30.76<br/>gini = 0.149<br/>samples = 99<br/>value = [91, 8]<br/>class = OK>, fillcolor="#e78c4a"] ;
772 -> 776 ;
777 [label=<gini = 0.0<br/>samples = 62<br/>value = [62, 0]<br/>class = OK>, fillcolor="#e58139"] ;
776 -> 777 ;
778 [label=<Halstead_i &le; 33.985<br/>gini = 0.339<br/>samples = 37<br/>value = [29, 8]<br/>class = OK>, fillcolor="#eca470"] ;
776 -> 778 ;
779 [label=<McCabe_loc &le; 16.5<br/>gini = 0.498<br/>samples = 15<br/>value = [8, 7]<br/>class = OK>, fillcolor="#fcefe6"] ;
778 -> 779 ;
780 [label=<McCabe_loc &le; 14.5<br/>gini = 0.486<br/>samples = 12<br/>value = [5, 7]<br/>class = Defeito>, fillcolor="#c6e3f8"] ;
779 -> 780 ;
781 [label=<Halstead_lOCode &le; 10.0<br/>gini = 0.469<br/>samples = 8<br/>value = [5, 3]<br/>class = OK>, fillcolor="#f5cdb0"] ;
780 -> 781 ;
782 [label=<gini = 0.0<br/>samples = 1<br/>value = [0, 1]<br/>class = Defeito>, fillcolor="#399de5"] ;
781 -> 782 ;
783 [label=<Halstead_lOComment &le; 0.5<br/>gini = 0.408<br/>samples = 7<br/>value = [5, 2]<br/>class = OK>, fillcolor="#efb388"] ;
781 -> 783 ;
784 [label=<Halstead_v &le; 201.735<br/>gini = 0.48<br/>samples = 5<br/>value = [3, 2]<br/>class = OK>, fillcolor="#f6d5bd"] ;
783 -> 784 ;
785 [label=<gini = 0.444<br/>samples = 3<br/>value = [2, 1]<br/>class = OK>, fillcolor="#f2c09c"] ;
784 -> 785 ;
786 [label=<gini = 0.5<br/>samples = 2<br/>value = [1, 1]<br/>class = OK>, fillcolor="#ffffff"] ;
784 -> 786 ;
